{
  "image": {
    "bias": [
      -31.67776107788086,
      -17.308032989501953,
      20.619861602783203
    ],
    "input_dim": 256,
    "output_dim": 3,
    "weight": [
      [
        3.3753979206085205,
        2.4467785358428955,
        3.112290382385254
      ],
      [
        4.772348880767822,
        -1.5661221742630005,
        -2.072359085083008
      ],
      [
        0.8536399006843567,
        5.447502136230469,
        -2.2220258712768555
      ],
      [
        6.333774566650391,
        -2.945512056350708,
        -17.34647560119629
      ],
      [
        11.203390121459961,
        -9.138412475585938,
        -0.13355384767055511
      ],
      [
        6.343692779541016,
        9.494951248168945,
        -2.78194522857666
      ],
      [
        4.141505241394043,
        -0.14687447249889374,
        -1.5530939102172852
      ],
      [
        5.809857368469238,
        -2.7223501205444336,
        -0.36946025490760803
      ],
      [
        3.914112091064453,
        -6.483804702758789,
        -4.437981128692627
      ],
      [
        7.907034397125244,
        -12.605308532714844,
        0.6270365118980408
      ],
      [
        1.4258601665496826,
        -7.308488845825195,
        -6.844013214111328
      ],
      [
        3.3325653076171875,
        -1.0152077674865723,
        -0.5599076747894287
      ],
      [
        -4.804022789001465,
        -2.826848030090332,
        0.2853081524372101
      ],
      [
        2.736604690551758,
        -1.6583881378173828,
        0.04182993620634079
      ],
      [
        6.964975833892822,
        2.172640562057495,
        -2.8207743167877197
      ],
      [
        6.291690349578857,
        3.3144805431365967,
        -3.003964900970459
      ],
      [
        -6.818788051605225,
        -1.1270960569381714,
        2.692821741104126
      ],
      [
        -4.095340251922607,
        1.5107043981552124,
        -1.4530348777770996
      ],
      [
        -5.97344446182251,
        3.001939296722412,
        2.2367539405822754
      ],
      [
        -6.778975486755371,
        5.175345420837402,
        1.39551842212677
      ],
      [
        8.11941909790039,
        -4.306107521057129,
        -1.5566644668579102
      ],
      [
        -4.010339260101318,
        -0.04966285079717636,
        -0.17008493840694427
      ],
      [
        2.2299022674560547,
        2.8884544372558594,
        -3.348843574523926
      ],
      [
        6.268931865692139,
        0.18048840761184692,
        -2.637796401977539
      ],
      [
        8.276741981506348,
        -4.778322219848633,
        2.3711161613464355
      ],
      [
        1.536057710647583,
        -4.408398628234863,
        6.4278364181518555
      ],
      [
        4.290285587310791,
        -5.599712371826172,
        4.423803806304932
      ],
      [
        -4.029378414154053,
        -0.7301223874092102,
        -1.6904834508895874
      ],
      [
        0.3601103723049164,
        -5.388144016265869,
        2.5043132305145264
      ],
      [
        -10.338173866271973,
        -0.09368222206830978,
        -4.621787071228027
      ],
      [
        -7.520886421203613,
        6.950780391693115,
        -4.187608242034912
      ],
      [
        -4.202286243438721,
        7.772828578948975,
        3.762561559677124
      ],
      [
        6.892334938049316,
        0.8062506914138794,
        -2.9694411754608154
      ],
      [
        -6.176456928253174,
        1.291755199432373,
        -0.9566681385040283
      ],
      [
        2.8810529708862305,
        3.990931749343872,
        -4.308064937591553
      ],
      [
        -5.643672943115234,
        -5.944230079650879,
        -4.275215148925781
      ],
      [
        -4.717984676361084,
        -3.5920615196228027,
        1.6528277397155762
      ],
      [
        -2.3551218509674072,
        -12.477399826049805,
        1.3476022481918335
      ],
      [
        -2.108661413192749,
        -7.339284420013428,
        -3.5390443801879883
      ],
      [
        5.33719539642334,
        1.3985739946365356,
        0.07512818276882172
      ],
      [
        0.5748940706253052,
        -0.6224485039710999,
        -5.763047218322754
      ],
      [
        4.403217315673828,
        0.3108963668346405,
        -0.056800778955221176
      ],
      [
        -6.3310394287109375,
        3.632793664932251,
        8.044178009033203
      ],
      [
        -12.888283729553223,
        8.10481071472168,
        -3.15337872505188
      ],
      [
        5.665824890136719,
        3.126086711883545,
        0.6146942377090454
      ],
      [
        -3.8755722045898438,
        -2.0912444591522217,
        -2.076629638671875
      ],
      [
        -8.619803428649902,
        -0.5824272632598877,
        -0.34662124514579773
      ],
      [
        -6.094447612762451,
        -0.6293206214904785,
        2.5780954360961914
      ],
      [
        8.397414207458496,
        -2.45457124710083,
        2.061306953430176
      ],
      [
        4.479346752166748,
        2.5329742431640625,
        3.704922676086426
      ],
      [
        0.2958422899246216,
        -8.594327926635742,
        1.687306523323059
      ],
      [
        -4.238892078399658,
        4.611507892608643,
        -9.437662124633789
      ],
      [
        -0.018784955143928528,
        -1.5350624322891235,
        9.5647611618042
      ],
      [
        -7.176339626312256,
        -1.4446614980697632,
        1.931900143623352
      ],
      [
        5.051271438598633,
        2.4198861122131348,
        -0.24235959351062775
      ],
      [
        4.348404407501221,
        -4.681093692779541,
        7.240919589996338
      ],
      [
        -3.725233316421509,
        13.989102363586426,
        -9.73652458190918
      ],
      [
        0.9227698445320129,
        -8.083701133728027,
        9.580102920532227
      ],
      [
        0.29342764616012573,
        -5.610857963562012,
        -1.6210896968841553
      ],
      [
        7.571718692779541,
        3.4513394832611084,
        -2.623047113418579
      ],
      [
        -4.894641876220703,
        -2.7844176292419434,
        -0.2550911605358124
      ],
      [
        4.64679479598999,
        6.218965530395508,
        6.657238006591797
      ],
      [
        1.401955485343933,
        -6.558741569519043,
        0.8446400165557861
      ],
      [
        -7.264654159545898,
        4.614948272705078,
        -2.122624397277832
      ],
      [
        5.662448883056641,
        -0.9866141080856323,
        -1.500319480895996
      ],
      [
        5.558954238891602,
        5.719517230987549,
        7.549084663391113
      ],
      [
        2.873684883117676,
        3.2672760486602783,
        -1.0717493295669556
      ],
      [
        -8.061245918273926,
        1.2352927923202515,
        -2.5981991291046143
      ],
      [
        -6.244303226470947,
        2.4142236709594727,
        1.778037667274475
      ],
      [
        3.215149402618408,
        7.804121971130371,
        -0.5743549466133118
      ],
      [
        1.152513861656189,
        -5.037262916564941,
        0.5133509635925293
      ],
      [
        -4.035305023193359,
        5.102032661437988,
        5.060624599456787
      ],
      [
        -0.9043592810630798,
        7.645525932312012,
        -1.7514514923095703
      ],
      [
        -1.3505032062530518,
        -4.071824073791504,
        2.4935600757598877
      ],
      [
        -4.833381652832031,
        6.047579765319824,
        -1.3487671613693237
      ],
      [
        3.2774078845977783,
        -7.564460754394531,
        -6.286745071411133
      ],
      [
        -5.237322807312012,
        -1.199299931526184,
        2.2517642974853516
      ],
      [
        -5.733521938323975,
        -3.3902716636657715,
        1.6914674043655396
      ],
      [
        3.698345422744751,
        0.8050054311752319,
        -0.06507951021194458
      ],
      [
        -1.746759057044983,
        7.158542633056641,
        1.8319865465164185
      ],
      [
        1.2951185703277588,
        -0.2431303709745407,
        6.1092753410339355
      ],
      [
        -3.775195360183716,
        0.48982033133506775,
        1.5773464441299438
      ],
      [
        -4.076961517333984,
        -3.8409461975097656,
        -0.6375982761383057
      ],
      [
        1.813187599182129,
        -7.170993328094482,
        -0.26057448983192444
      ],
      [
        6.22056770324707,
        -1.6167055368423462,
        -0.6428402662277222
      ],
      [
        -4.293593406677246,
        2.511927843093872,
        -6.038577556610107
      ],
      [
        1.5406242609024048,
        -6.504205226898193,
        0.3849252462387085
      ],
      [
        9.45474624633789,
        -2.7774527072906494,
        3.2144312858581543
      ],
      [
        -7.341541290283203,
        -0.27277901768684387,
        10.18138313293457
      ],
      [
        6.565341949462891,
        -4.196620464324951,
        1.0457329750061035
      ],
      [
        2.7840991020202637,
        0.18156425654888153,
        -0.22919414937496185
      ],
      [
        -1.071951150894165,
        2.955397367477417,
        -2.9140841960906982
      ],
      [
        7.552652835845947,
        0.5924758911132812,
        1.746747612953186
      ],
      [
        8.926085472106934,
        0.5200371742248535,
        -3.289170980453491
      ],
      [
        -2.9272420406341553,
        -6.540463924407959,
        6.517693519592285
      ],
      [
        -6.641599655151367,
        -3.8353278636932373,
        -0.8407006859779358
      ],
      [
        8.62978744506836,
        0.9586146473884583,
        0.9395840167999268
      ],
      [
        3.715378999710083,
        2.533874273300171,
        -1.9940195083618164
      ],
      [
        5.32479190826416,
        4.6622419357299805,
        -5.930859088897705
      ],
      [
        10.34940242767334,
        -5.6236796379089355,
        -5.68416690826416
      ],
      [
        7.795605659484863,
        7.398134708404541,
        0.029540488496422768
      ],
      [
        -7.048696994781494,
        9.166605949401855,
        -5.383604049682617
      ],
      [
        0.8481070399284363,
        4.055667877197266,
        4.927243232727051
      ],
      [
        -4.701923847198486,
        1.012148380279541,
        -0.02300042286515236
      ],
      [
        3.6268298625946045,
        2.584174394607544,
        0.8107631206512451
      ],
      [
        6.461755275726318,
        0.23913802206516266,
        0.4549352824687958
      ],
      [
        -3.549952268600464,
        -5.489119529724121,
        -3.956727981567383
      ],
      [
        5.000638961791992,
        3.673511266708374,
        -2.292943239212036
      ],
      [
        -8.252482414245605,
        7.496446132659912,
        2.934248447418213
      ],
      [
        5.486927509307861,
        1.2327072620391846,
        -0.9077187180519104
      ],
      [
        0.7579262256622314,
        -5.863736629486084,
        0.010013265535235405
      ],
      [
        -13.300398826599121,
        -0.766196608543396,
        4.010076522827148
      ],
      [
        4.888864994049072,
        4.12111234664917,
        3.0837342739105225
      ],
      [
        4.475845813751221,
        0.7182360291481018,
        -0.644115149974823
      ],
      [
        10.577803611755371,
        -2.8530588150024414,
        -1.3031350374221802
      ],
      [
        -4.269604682922363,
        -3.6805386543273926,
        -0.9544581770896912
      ],
      [
        -4.56403923034668,
        1.5616631507873535,
        0.4567202031612396
      ],
      [
        2.620342254638672,
        -3.5537824630737305,
        6.181301593780518
      ],
      [
        0.8807752132415771,
        -7.249102592468262,
        4.404470920562744
      ],
      [
        6.007895469665527,
        -0.24803698062896729,
        -1.013315200805664
      ],
      [
        3.1969783306121826,
        -0.3167286217212677,
        9.628987312316895
      ],
      [
        -3.536625862121582,
        -7.595855712890625,
        5.94522762298584
      ],
      [
        6.068294525146484,
        -2.0156524181365967,
        1.271480679512024
      ],
      [
        6.172346591949463,
        8.807558059692383,
        10.000570297241211
      ],
      [
        -4.1087422370910645,
        13.321045875549316,
        -7.823739051818848
      ],
      [
        6.95652961730957,
        -2.838740348815918,
        1.998443603515625
      ],
      [
        -5.4863152503967285,
        -2.786843776702881,
        -2.1362059116363525
      ],
      [
        -3.4944372177124023,
        -1.3777151107788086,
        0.267314612865448
      ],
      [
        6.060928821563721,
        1.9459935426712036,
        -4.908240795135498
      ],
      [
        -3.0593760013580322,
        -3.5614054203033447,
        -0.3692551255226135
      ],
      [
        -6.044072151184082,
        -0.17977246642112732,
        0.8243358731269836
      ],
      [
        -8.570296287536621,
        -0.5418093204498291,
        2.7913320064544678
      ],
      [
        7.615837574005127,
        9.871769905090332,
        7.394395351409912
      ],
      [
        -0.7558461427688599,
        6.664944171905518,
        0.6319942474365234
      ],
      [
        -4.436400413513184,
        5.396073818206787,
        11.412579536437988
      ],
      [
        0.5480843186378479,
        -7.542874813079834,
        1.6247031688690186
      ],
      [
        -12.856804847717285,
        -1.764310359954834,
        9.4904203414917
      ],
      [
        1.5158109664916992,
        10.360447883605957,
        -2.7310807704925537
      ],
      [
        -4.946875095367432,
        -1.2572578191757202,
        1.1848357915878296
      ],
      [
        3.7332448959350586,
        -3.933389902114868,
        -0.9365827441215515
      ],
      [
        -8.784730911254883,
        -3.836151361465454,
        2.987555980682373
      ],
      [
        -6.561089992523193,
        1.2029999494552612,
        -0.42501649260520935
      ],
      [
        9.830131530761719,
        4.628849506378174,
        -1.0132849216461182
      ],
      [
        -11.39162540435791,
        6.618885517120361,
        2.450040102005005
      ],
      [
        1.9070868492126465,
        -7.469620227813721,
        4.831553936004639
      ],
      [
        -6.8587846755981445,
        2.2543065547943115,
        -0.542499840259552
      ],
      [
        -6.169724941253662,
        -2.7374520301818848,
        -0.28753262758255005
      ],
      [
        -7.621232509613037,
        3.8551058769226074,
        -2.8553953170776367
      ],
      [
        -4.577488899230957,
        -6.713720798492432,
        -4.416698932647705
      ],
      [
        4.029370307922363,
        -0.956100344657898,
        2.010206460952759
      ],
      [
        5.297128677368164,
        -4.001395225524902,
        -0.16953112185001373
      ],
      [
        -4.665862560272217,
        -5.0663251876831055,
        -7.402742385864258
      ],
      [
        5.15318489074707,
        0.5416180491447449,
        -3.1141955852508545
      ],
      [
        -8.97992992401123,
        6.885958671569824,
        2.219283103942871
      ],
      [
        6.262811660766602,
        -2.049656867980957,
        -2.470052719116211
      ],
      [
        -1.7693638801574707,
        -2.072523593902588,
        4.951003551483154
      ],
      [
        6.502379894256592,
        -1.573603630065918,
        2.270773410797119
      ],
      [
        6.725579738616943,
        1.4235939979553223,
        -4.918684959411621
      ],
      [
        -6.614505767822266,
        -0.9377532601356506,
        -2.3174431324005127
      ],
      [
        -1.9683620929718018,
        -4.952814102172852,
        -4.728003025054932
      ],
      [
        -6.512553691864014,
        -0.060627281665802,
        2.9359564781188965
      ],
      [
        -8.510563850402832,
        0.45325666666030884,
        0.8711103200912476
      ],
      [
        4.860805511474609,
        3.265923023223877,
        2.9419641494750977
      ],
      [
        5.825045585632324,
        -5.778142929077148,
        0.5628659725189209
      ],
      [
        7.09185791015625,
        2.2883987426757812,
        2.7674365043640137
      ],
      [
        4.838428974151611,
        -4.665279388427734,
        3.3658347129821777
      ],
      [
        5.168410301208496,
        0.05747268721461296,
        -1.0379520654678345
      ],
      [
        4.8504204750061035,
        1.8069192171096802,
        1.1103761196136475
      ],
      [
        2.2277514934539795,
        9.068384170532227,
        0.28018349409103394
      ],
      [
        -6.124121189117432,
        -6.221832752227783,
        -2.755971908569336
      ],
      [
        -1.2646484375,
        7.741692543029785,
        0.8491023778915405
      ],
      [
        -9.526496887207031,
        2.3311493396759033,
        0.7190626859664917
      ],
      [
        9.276175498962402,
        -5.640597820281982,
        0.7578260898590088
      ],
      [
        -6.8809123039245605,
        6.996806621551514,
        -8.768426895141602
      ],
      [
        -2.9619557857513428,
        -2.569169282913208,
        -6.219894886016846
      ],
      [
        -13.749110221862793,
        0.8120471835136414,
        0.21028675138950348
      ],
      [
        -3.325324296951294,
        -3.2157058715820312,
        0.9933440089225769
      ],
      [
        7.83661413192749,
        14.61832046508789,
        -1.826818823814392
      ],
      [
        7.75767183303833,
        -4.725955486297607,
        0.7711337804794312
      ],
      [
        -2.1442034244537354,
        -6.023629188537598,
        -3.629363775253296
      ],
      [
        3.0570573806762695,
        -5.4403910636901855,
        0.4015173017978668
      ],
      [
        3.8396410942077637,
        -0.29202455282211304,
        -0.8515806794166565
      ],
      [
        -1.8375215530395508,
        8.711713790893555,
        -3.13313364982605
      ],
      [
        6.7984442710876465,
        1.7058696746826172,
        -0.9603216052055359
      ],
      [
        -4.633376598358154,
        -0.6330416798591614,
        0.23220182955265045
      ],
      [
        5.072433948516846,
        -0.1280650645494461,
        0.05119368061423302
      ],
      [
        -1.4567737579345703,
        6.689545631408691,
        4.291378021240234
      ],
      [
        7.3777642250061035,
        -2.9055097103118896,
        -7.161959171295166
      ],
      [
        -3.5436668395996094,
        -0.7796717286109924,
        0.48558929562568665
      ],
      [
        -6.515857219696045,
        -7.596400260925293,
        -6.862140655517578
      ],
      [
        -5.301388263702393,
        -4.184556007385254,
        2.264503240585327
      ],
      [
        4.551503658294678,
        1.666754126548767,
        -0.8019338250160217
      ],
      [
        5.105929374694824,
        1.7429678440093994,
        -0.6089434027671814
      ],
      [
        3.3489978313446045,
        -3.6722612380981445,
        -6.4378485679626465
      ],
      [
        2.6267271041870117,
        9.141535758972168,
        0.4786877930164337
      ],
      [
        2.18395733833313,
        5.039035797119141,
        3.8176822662353516
      ],
      [
        4.322128772735596,
        1.923221468925476,
        -1.5170472860336304
      ],
      [
        7.375953674316406,
        1.530085802078247,
        1.3071067333221436
      ],
      [
        -2.298157215118408,
        -7.461544990539551,
        2.0111076831817627
      ],
      [
        16.347686767578125,
        -3.0613412857055664,
        5.168796062469482
      ],
      [
        -4.045386791229248,
        6.958216190338135,
        4.82084321975708
      ],
      [
        6.083581924438477,
        -4.903347492218018,
        4.050282955169678
      ],
      [
        -4.729342460632324,
        7.367979526519775,
        1.3036490678787231
      ],
      [
        5.513063430786133,
        4.946908950805664,
        -1.4202661514282227
      ],
      [
        -4.985842704772949,
        0.8303995728492737,
        -2.844968318939209
      ],
      [
        -0.5406742095947266,
        -11.340729713439941,
        -9.9044828414917
      ],
      [
        -4.265624046325684,
        2.556642770767212,
        -3.215941905975342
      ],
      [
        4.4381208419799805,
        -0.7614841461181641,
        -0.20741111040115356
      ],
      [
        1.1665949821472168,
        6.502783298492432,
        2.2560064792633057
      ],
      [
        -6.568109512329102,
        0.9546679258346558,
        -3.6526715755462646
      ],
      [
        6.478265762329102,
        -2.08925461769104,
        -4.325132369995117
      ],
      [
        -5.5560407638549805,
        -0.555061936378479,
        2.6184463500976562
      ],
      [
        -14.601119995117188,
        9.590930938720703,
        10.774351119995117
      ],
      [
        6.522193908691406,
        1.1669238805770874,
        -0.03290138393640518
      ],
      [
        -4.195381164550781,
        4.880707740783691,
        -18.181041717529297
      ],
      [
        8.210697174072266,
        1.2124297618865967,
        0.17336173355579376
      ],
      [
        -6.549814701080322,
        5.030219554901123,
        6.344405651092529
      ],
      [
        2.372016191482544,
        3.591937303543091,
        -0.4105135202407837
      ],
      [
        -8.824548721313477,
        7.060023307800293,
        3.2789182662963867
      ],
      [
        -7.2825493812561035,
        -1.512647271156311,
        -1.2792147397994995
      ],
      [
        3.1801164150238037,
        3.314713716506958,
        1.3142681121826172
      ],
      [
        6.661203861236572,
        -1.3521575927734375,
        -1.7389986515045166
      ],
      [
        -7.2889604568481445,
        3.7503020763397217,
        -0.8834588527679443
      ],
      [
        -0.8829110860824585,
        -8.909103393554688,
        -5.936387062072754
      ],
      [
        0.9138879776000977,
        -6.656118869781494,
        8.61087703704834
      ],
      [
        0.4909188747406006,
        10.664713859558105,
        2.1042442321777344
      ],
      [
        -3.5407657623291016,
        8.120017051696777,
        -3.470156669616699
      ],
      [
        5.6208624839782715,
        1.237036108970642,
        -0.5262168645858765
      ],
      [
        12.266633987426758,
        3.115665912628174,
        -1.592023253440857
      ],
      [
        -4.434453964233398,
        -2.4823243618011475,
        -1.6963801383972168
      ],
      [
        -3.4934613704681396,
        -7.418028354644775,
        -0.49859777092933655
      ],
      [
        5.031674385070801,
        0.14173512160778046,
        0.9127429723739624
      ],
      [
        -5.48701286315918,
        -3.934163808822632,
        2.6522161960601807
      ],
      [
        -2.5632731914520264,
        -5.158482551574707,
        0.6374285221099854
      ],
      [
        6.049932956695557,
        -0.2335474044084549,
        -0.5338531136512756
      ],
      [
        1.636500597000122,
        3.092954158782959,
        0.9380845427513123
      ],
      [
        9.091731071472168,
        3.656588315963745,
        5.728972434997559
      ],
      [
        -4.007731914520264,
        1.5422381162643433,
        -3.7803738117218018
      ],
      [
        -6.018357276916504,
        3.5290822982788086,
        -6.533741474151611
      ],
      [
        -8.662160873413086,
        -5.630219459533691,
        -2.0681934356689453
      ],
      [
        2.5973904132843018,
        -4.363648891448975,
        1.5141282081604004
      ],
      [
        -6.8167548179626465,
        0.41899731755256653,
        0.9092041254043579
      ],
      [
        -1.9957302808761597,
        -4.259696960449219,
        -1.7980735301971436
      ],
      [
        6.938748359680176,
        -3.127106189727783,
        0.30387842655181885
      ],
      [
        -4.2936015129089355,
        -2.3411970138549805,
        -0.5838028192520142
      ],
      [
        -10.973265647888184,
        2.720752239227295,
        -7.572420597076416
      ],
      [
        -7.165812015533447,
        -0.3670189082622528,
        -4.3299641609191895
      ],
      [
        -13.143016815185547,
        3.3264071941375732,
        -9.34082317352295
      ],
      [
        0.981042206287384,
        4.984505653381348,
        -0.457235187292099
      ],
      [
        4.958715915679932,
        -5.501628398895264,
        2.9249584674835205
      ],
      [
        -3.2833595275878906,
        2.5905981063842773,
        -6.588806629180908
      ],
      [
        2.983442544937134,
        -6.739620685577393,
        -4.149565696716309
      ],
      [
        -9.594400405883789,
        0.7184260487556458,
        -0.38005056977272034
      ],
      [
        4.637657165527344,
        4.6835856437683105,
        -3.331608772277832
      ],
      [
        0.4509967565536499,
        -5.05610990524292,
        -5.924725532531738
      ],
      [
        -6.302867412567139,
        5.253633499145508,
        3.9403295516967773
      ]
    ]
  },
  "kind": "prefit_pls_readout",
  "output_standardize": false,
  "rank": 3,
  "rna": {
    "bias": [
      -194.44415283203125,
      72.4874038696289,
      33.310577392578125
    ],
    "input_dim": 128,
    "output_dim": 3,
    "weight": [
      [
        -0.19393931329250336,
        -0.7844882607460022,
        -0.9308515787124634
      ],
      [
        0.7139907479286194,
        0.8380762338638306,
        -0.18392349779605865
      ],
      [
        0.9291706681251526,
        0.582966685295105,
        -0.8286083936691284
      ],
      [
        0.9246201515197754,
        0.22694870829582214,
        -0.17041486501693726
      ],
      [
        0.3320450484752655,
        -0.5232704281806946,
        -0.004916136618703604
      ],
      [
        -0.24023224413394928,
        -1.033118724822998,
        -1.7911765575408936
      ],
      [
        -0.1267845183610916,
        0.9822510480880737,
        -0.5774601697921753
      ],
      [
        1.3999000787734985,
        -0.7583156824111938,
        0.15622937679290771
      ],
      [
        0.22872011363506317,
        -0.8166325688362122,
        0.635198175907135
      ],
      [
        0.01875566504895687,
        0.4384170472621918,
        0.11142467707395554
      ],
      [
        0.7858617305755615,
        0.4911130666732788,
        -0.7243688106536865
      ],
      [
        -0.1969081163406372,
        -0.8258975148200989,
        0.03351267799735069
      ],
      [
        0.13291329145431519,
        -0.9224462509155273,
        -0.060072120279073715
      ],
      [
        -0.36567944288253784,
        -0.8391956090927124,
        -1.4084668159484863
      ],
      [
        1.4592375755310059,
        -0.1835303157567978,
        0.10932479798793793
      ],
      [
        0.7174350023269653,
        0.1561037302017212,
        -0.9290688037872314
      ],
      [
        1.315065622329712,
        -0.6154995560646057,
        0.28099021315574646
      ],
      [
        -0.16213692724704742,
        -0.5651639103889465,
        -0.1015283465385437
      ],
      [
        0.5822310447692871,
        0.6927159428596497,
        -0.17704123258590698
      ],
      [
        0.6760634183883667,
        -0.7992987632751465,
        -0.2320449948310852
      ],
      [
        0.7265995740890503,
        0.4601639211177826,
        -0.07072817534208298
      ],
      [
        1.333704948425293,
        -0.011782770045101643,
        -0.6811108589172363
      ],
      [
        1.1310806274414062,
        0.74297696352005,
        -0.08942986279726028
      ],
      [
        1.310079574584961,
        -0.013331872411072254,
        0.2508714497089386
      ],
      [
        -0.5468050241470337,
        0.9074828028678894,
        0.5144166946411133
      ],
      [
        1.4074680805206299,
        0.04699331149458885,
        0.1816740781068802
      ],
      [
        0.8258349299430847,
        -0.44671979546546936,
        0.369726300239563
      ],
      [
        -0.6004301905632019,
        -0.024117056280374527,
        -0.39389559626579285
      ],
      [
        1.141827940940857,
        -0.036702197045087814,
        0.14021122455596924
      ],
      [
        0.9196096062660217,
        -0.06051456555724144,
        0.29804813861846924
      ],
      [
        0.5477555394172668,
        0.4321610927581787,
        -0.10155484080314636
      ],
      [
        0.6962550282478333,
        -0.05750388652086258,
        0.8417583107948303
      ],
      [
        1.2017433643341064,
        0.3845735490322113,
        -0.6071995496749878
      ],
      [
        0.7575570940971375,
        1.1141266822814941,
        0.44055259227752686
      ],
      [
        1.2362797260284424,
        -0.28010326623916626,
        0.3924575448036194
      ],
      [
        1.2739918231964111,
        -0.5015904307365417,
        0.11517982184886932
      ],
      [
        0.9692521095275879,
        -0.4238893687725067,
        0.21328245103359222
      ],
      [
        -0.6074569821357727,
        -0.8499611616134644,
        0.2783200740814209
      ],
      [
        -0.8530357480049133,
        -0.4044317603111267,
        -0.3637171685695648
      ],
      [
        1.2346426248550415,
        0.0004095069016329944,
        0.21878232061862946
      ],
      [
        0.27382373809814453,
        -1.228844404220581,
        -0.12984462082386017
      ],
      [
        0.8935666084289551,
        -0.4354400038719177,
        -0.38702353835105896
      ],
      [
        -0.21631202101707458,
        0.1542617529630661,
        -0.23360610008239746
      ],
      [
        0.7277190089225769,
        1.114016056060791,
        0.16339851915836334
      ],
      [
        0.8891092538833618,
        -0.11527683585882187,
        0.10506825894117355
      ],
      [
        -0.24404464662075043,
        -0.7742286920547485,
        0.19212085008621216
      ],
      [
        0.41947370767593384,
        -0.33338209986686707,
        -0.5062178373336792
      ],
      [
        0.9435563087463379,
        -0.21982073783874512,
        -0.3296453356742859
      ],
      [
        0.3664056658744812,
        0.43187516927719116,
        -0.17526882886886597
      ],
      [
        -0.530276358127594,
        0.2719023823738098,
        -0.18436041474342346
      ],
      [
        -0.08225724846124649,
        -1.1586240530014038,
        0.060785844922065735
      ],
      [
        0.5460050106048584,
        0.2239842265844345,
        -0.732593297958374
      ],
      [
        0.05516564100980759,
        -0.5950368642807007,
        0.6316589117050171
      ],
      [
        0.9478194117546082,
        -0.10683301836252213,
        0.19433367252349854
      ],
      [
        0.1398981809616089,
        -0.4556693732738495,
        -0.06700758635997772
      ],
      [
        1.3401316404342651,
        0.15366971492767334,
        0.500710129737854
      ],
      [
        1.780713677406311,
        0.1640239804983139,
        0.1103067472577095
      ],
      [
        0.3698904812335968,
        0.00040194159373641014,
        0.5788141489028931
      ],
      [
        0.7500355839729309,
        -0.365572065114975,
        0.41810643672943115
      ],
      [
        -0.8528251051902771,
        -0.4325806200504303,
        -0.1412639170885086
      ],
      [
        -1.068063735961914,
        -0.7778798937797546,
        0.018391340970993042
      ],
      [
        0.33669498562812805,
        -1.4728202819824219,
        -0.9971833229064941
      ],
      [
        0.6092201471328735,
        0.09621778130531311,
        -0.35117340087890625
      ],
      [
        -0.2901506721973419,
        -0.6512874960899353,
        0.8949083685874939
      ],
      [
        0.4127112329006195,
        0.020874807611107826,
        -0.04728951305150986
      ],
      [
        0.4484334886074066,
        0.5816547274589539,
        -0.1793842911720276
      ],
      [
        0.9524291753768921,
        -0.5582433938980103,
        0.33083152770996094
      ],
      [
        0.9469122886657715,
        0.33222803473472595,
        -0.15151651203632355
      ],
      [
        0.2360929697751999,
        -0.06257372349500656,
        -0.060398299247026443
      ],
      [
        0.9357644319534302,
        0.8853062987327576,
        -0.1444048434495926
      ],
      [
        0.8082261681556702,
        0.21584054827690125,
        -0.7522115707397461
      ],
      [
        -0.6884157657623291,
        -0.7712962627410889,
        -0.6918584108352661
      ],
      [
        -0.17724861204624176,
        0.1214866042137146,
        -0.22998087108135223
      ],
      [
        1.0232256650924683,
        0.19580194354057312,
        0.0004327917122282088
      ],
      [
        1.1679637432098389,
        0.4567870497703552,
        -0.0763673335313797
      ],
      [
        0.4030951261520386,
        -0.6128439903259277,
        0.4682184159755707
      ],
      [
        -0.4344119131565094,
        -0.7614580392837524,
        -0.901309609413147
      ],
      [
        0.9362616539001465,
        -0.7029687166213989,
        -0.454472154378891
      ],
      [
        -0.6457796692848206,
        -1.02249276638031,
        -0.026769308373332024
      ],
      [
        -0.28837111592292786,
        -1.1025551557540894,
        0.19536930322647095
      ],
      [
        0.178151935338974,
        0.5173535943031311,
        -0.10093104839324951
      ],
      [
        0.20310477912425995,
        -0.7622805237770081,
        0.10212453454732895
      ],
      [
        1.0339274406433105,
        -0.5154820680618286,
        0.01930398866534233
      ],
      [
        -0.1444890797138214,
        -0.3100643455982208,
        -0.886159360408783
      ],
      [
        0.22571371495723724,
        -1.3150979280471802,
        -0.012123468331992626
      ],
      [
        0.9752470850944519,
        0.8896006941795349,
        0.1798035353422165
      ],
      [
        0.37401071190834045,
        -0.9999301433563232,
        -1.051571249961853
      ],
      [
        1.2485718727111816,
        -0.20635448396205902,
        -0.011365950107574463
      ],
      [
        0.7126546502113342,
        0.14270184934139252,
        -0.3406241536140442
      ],
      [
        0.6308319568634033,
        -0.10790489614009857,
        -0.4255272448062897
      ],
      [
        0.5951743125915527,
        -0.5521936416625977,
        0.34490135312080383
      ],
      [
        0.08101543039083481,
        0.5130141973495483,
        -0.11776388436555862
      ],
      [
        -0.2647324800491333,
        -1.071467399597168,
        0.2421497404575348
      ],
      [
        -0.18811239302158356,
        -0.6613333225250244,
        0.20034751296043396
      ],
      [
        -0.5457385778427124,
        -1.416824221611023,
        -0.9630662798881531
      ],
      [
        -0.6444588899612427,
        -1.2775641679763794,
        0.26559358835220337
      ],
      [
        1.0873887538909912,
        -0.03509020805358887,
        0.10287399590015411
      ],
      [
        -0.07672251760959625,
        -0.576876699924469,
        0.6828674674034119
      ],
      [
        0.8092367053031921,
        0.3192242681980133,
        -0.03976769000291824
      ],
      [
        0.7443949580192566,
        0.40139371156692505,
        -0.12740333378314972
      ],
      [
        0.13424287736415863,
        0.17426568269729614,
        0.25146904587745667
      ],
      [
        0.22549450397491455,
        -1.2757989168167114,
        -1.1682833433151245
      ],
      [
        0.8724072575569153,
        -0.3632343113422394,
        0.3916262686252594
      ],
      [
        0.7503967881202698,
        -0.4678839147090912,
        0.4042876064777374
      ],
      [
        0.8684377670288086,
        -0.40511026978492737,
        0.053519271314144135
      ],
      [
        0.5548823475837708,
        -0.3569772243499756,
        -0.8602892160415649
      ],
      [
        1.1390453577041626,
        0.025509914383292198,
        0.30219388008117676
      ],
      [
        0.9682512283325195,
        -0.11990947276353836,
        -0.43531012535095215
      ],
      [
        0.8219130635261536,
        -0.19405780732631683,
        -0.07081232219934464
      ],
      [
        0.17194165289402008,
        -1.439907431602478,
        -0.8432250618934631
      ],
      [
        0.7469069957733154,
        0.07516634464263916,
        -1.138272762298584
      ],
      [
        1.411676049232483,
        -0.21519815921783447,
        0.2833978533744812
      ],
      [
        0.9417375922203064,
        -0.43924209475517273,
        0.3188975155353546
      ],
      [
        1.073226809501648,
        -0.5031346082687378,
        -0.3612065017223358
      ],
      [
        -0.04297422990202904,
        -1.9980552196502686,
        -0.6280620694160461
      ],
      [
        0.15924693644046783,
        -0.36004865169525146,
        -0.10949855297803879
      ],
      [
        0.23298543691635132,
        -0.14608800411224365,
        -0.4753637909889221
      ],
      [
        0.5514436364173889,
        0.22718839347362518,
        0.016049452126026154
      ],
      [
        1.0991424322128296,
        -0.11300206184387207,
        -0.4017072021961212
      ],
      [
        0.353394478559494,
        0.3277134895324707,
        -0.46333837509155273
      ],
      [
        1.1705001592636108,
        0.1299261450767517,
        -0.28871282935142517
      ],
      [
        0.4708227515220642,
        -0.3361133933067322,
        0.1671253740787506
      ],
      [
        -0.46669232845306396,
        -1.311558723449707,
        -0.04591616243124008
      ],
      [
        1.0073437690734863,
        -0.3801683783531189,
        0.33438578248023987
      ],
      [
        0.2348214089870453,
        -0.774062991142273,
        -0.9525603652000427
      ],
      [
        0.9019503593444824,
        -0.5175673961639404,
        0.024143701419234276
      ],
      [
        0.9114968776702881,
        0.35530686378479004,
        -0.492536723613739
      ],
      [
        0.5226120352745056,
        -0.5588200092315674,
        -0.023803727701306343
      ]
    ]
  },
  "singular_values": [
    50.169857025146484,
    26.246990203857422,
    14.126592636108398
  ]
}
