{
  "action_mean": [
    [
      0.0,
      0.125,
      0.125,
      0.125,
      0.125,
      0.125,
      0.125,
      0.125,
      0.125,
      0.0,
      0.0,
      0.0,
      0.125,
      0.125,
      0.125,
      0.125,
      0.125,
      0.125,
      0.125,
      0.125
    ]
  ],
  "action_shift_weight": [
    [
      0.0,
      -0.0012318401131778955,
      0.02961830422282219,
      0.005535907112061977,
      -0.015911005437374115,
      -0.009447276592254639,
      0.010359766893088818,
      -0.06715961545705795,
      0.06244194507598877,
      0.0,
      0.0,
      0.0,
      0.06244194507598877,
      -0.0012318401131778955,
      0.02961830422282219,
      0.005535907112061977,
      -0.015911005437374115,
      -0.009447276592254639,
      0.010359766893088818,
      -0.06715961545705795
    ],
    [
      0.0,
      -0.011062169447541237,
      -0.02244178205728531,
      0.0032120957039296627,
      -0.009750287979841232,
      0.010493578389286995,
      0.0159309022128582,
      0.04271256923675537,
      -0.020100660622119904,
      0.0,
      0.0,
      0.0,
      -0.020100660622119904,
      -0.011062169447541237,
      -0.02244178205728531,
      0.0032120957039296627,
      -0.009750287979841232,
      0.010493578389286995,
      0.0159309022128582,
      0.04271256923675537
    ],
    [
      0.0,
      -0.02317875064909458,
      0.06164846196770668,
      -0.013191018253564835,
      0.003245168598368764,
      0.012454014271497726,
      -0.02053065039217472,
      -0.01591786928474903,
      -0.005438442807644606,
      0.0,
      0.0,
      0.0,
      -0.005438442807644606,
      -0.02317875064909458,
      0.06164846196770668,
      -0.013191018253564835,
      0.003245168598368764,
      0.012454014271497726,
      -0.02053065039217472,
      -0.01591786928474903
    ],
    [
      0.0,
      0.00976214837282896,
      0.018875975161790848,
      0.01997840777039528,
      -0.019221199676394463,
      -0.017592620104551315,
      -0.023934297263622284,
      0.054659780114889145,
      -0.0388774648308754,
      0.0,
      0.0,
      0.0,
      -0.0388774648308754,
      0.00976214837282896,
      0.018875975161790848,
      0.01997840777039528,
      -0.019221199676394463,
      -0.017592620104551315,
      -0.023934297263622284,
      0.054659780114889145
    ],
    [
      0.0,
      0.029691193252801895,
      -0.06631635129451752,
      0.012116353027522564,
      0.007199832703918219,
      0.0023430476430803537,
      0.0017516916850581765,
      0.03643157333135605,
      -0.028284838423132896,
      0.0,
      0.0,
      0.0,
      -0.028284838423132896,
      0.029691193252801895,
      -0.06631635129451752,
      0.012116353027522564,
      0.007199832703918219,
      0.0023430476430803537,
      0.0017516916850581765,
      0.03643157333135605
    ],
    [
      0.0,
      0.018993424251675606,
      -0.013289520516991615,
      -0.0040418654680252075,
      0.009074695408344269,
      -0.013490530662238598,
      -0.00026317843003198504,
      0.018810464069247246,
      -0.014012902975082397,
      0.0,
      0.0,
      0.0,
      -0.014012902975082397,
      0.018993424251675606,
      -0.013289520516991615,
      -0.0040418654680252075,
      0.009074695408344269,
      -0.013490530662238598,
      -0.00026317843003198504,
      0.018810464069247246
    ],
    [
      0.0,
      -0.013949492946267128,
      0.04102101922035217,
      -0.01353753637522459,
      -0.019120221957564354,
      -0.0018319260561838746,
      -0.00300589413382113,
      -0.03104396164417267,
      0.03510342538356781,
      0.0,
      0.0,
      0.0,
      0.03510342538356781,
      -0.013949492946267128,
      0.04102101922035217,
      -0.01353753637522459,
      -0.019120221957564354,
      -0.0018319260561838746,
      -0.00300589413382113,
      -0.03104396164417267
    ],
    [
      0.0,
      -0.0003438187704887241,
      0.03012007474899292,
      0.0027521331794559956,
      -0.01508912444114685,
      -0.0016125678084790707,
      -0.002991489367559552,
      -0.028683708980679512,
      0.01271745003759861,
      0.0,
      0.0,
      0.0,
      0.01271745003759861,
      -0.0003438187704887241,
      0.03012007474899292,
      0.0027521331794559956,
      -0.01508912444114685,
      -0.0016125678084790707,
      -0.002991489367559552,
      -0.028683708980679512
    ],
    [
      0.0,
      -0.012830587103962898,
      0.011052487418055534,
      -0.028228256851434708,
      0.009992627426981926,
      0.0291584525257349,
      0.005964864976704121,
      -0.03544631227850914,
      0.01642654836177826,
      0.0,
      0.0,
      0.0,
      0.01642654836177826,
      -0.012830587103962898,
      0.011052487418055534,
      -0.028228256851434708,
      0.009992627426981926,
      0.0291584525257349,
      0.005964864976704121,
      -0.03544631227850914
    ],
    [
      0.0,
      0.026308052241802216,
      -0.02343863807618618,
      -0.0027449410408735275,
      0.007800345309078693,
      0.0045471396297216415,
      -0.004053675569593906,
      0.023489903658628464,
      -0.018577996641397476,
      0.0,
      0.0,
      0.0,
      -0.018577996641397476,
      0.026308052241802216,
      -0.02343863807618618,
      -0.0027449410408735275,
      0.007800345309078693,
      0.0045471396297216415,
      -0.004053675569593906,
      0.023489903658628464
    ],
    [
      0.0,
      0.0150964530184865,
      0.020854778587818146,
      0.005458390805870295,
      -0.03016911819577217,
      -0.0321529246866703,
      -0.010512142442166805,
      0.04827803000807762,
      -0.0010937693296000361,
      0.0,
      0.0,
      0.0,
      -0.0010937693296000361,
      0.0150964530184865,
      0.020854778587818146,
      0.005458390805870295,
      -0.03016911819577217,
      -0.0321529246866703,
      -0.010512142442166805,
      0.04827803000807762
    ],
    [
      0.0,
      -0.01914323680102825,
      0.014043997973203659,
      -0.0014757573371753097,
      0.001495988923124969,
      0.010628764517605305,
      -0.008757533505558968,
      0.009383860975503922,
      -0.01769985817372799,
      0.0,
      0.0,
      0.0,
      -0.01769985817372799,
      -0.01914323680102825,
      0.014043997973203659,
      -0.0014757573371753097,
      0.001495988923124969,
      0.010628764517605305,
      -0.008757533505558968,
      0.009383860975503922
    ],
    [
      0.0,
      -0.005886988248676062,
      -0.0021712002344429493,
      -0.015628375113010406,
      -0.015547903254628181,
      -0.018673956394195557,
      0.005720355547964573,
      0.0076541234739124775,
      0.04184607043862343,
      0.0,
      0.0,
      0.0,
      0.04184607043862343,
      -0.005886988248676062,
      -0.0021712002344429493,
      -0.015628375113010406,
      -0.015547903254628181,
      -0.018673956394195557,
      0.005720355547964573,
      0.0076541234739124775
    ],
    [
      0.0,
      0.02910989336669445,
      0.022237611934542656,
      0.0011995261302217841,
      0.01584787480533123,
      0.005971800535917282,
      -0.030101453885436058,
      0.02142735943198204,
      -0.048190269619226456,
      0.0,
      0.0,
      0.0,
      -0.048190269619226456,
      0.02910989336669445,
      0.022237611934542656,
      0.0011995261302217841,
      0.01584787480533123,
      0.005971800535917282,
      -0.030101453885436058,
      0.02142735943198204
    ],
    [
      0.0,
      -0.0019574996549636126,
      -0.012469516135752201,
      -0.02736637368798256,
      -0.002161476295441389,
      0.029778847470879555,
      0.012284306809306145,
      -0.02764858305454254,
      0.015954531729221344,
      0.0,
      0.0,
      0.0,
      0.015954531729221344,
      -0.0019574996549636126,
      -0.012469516135752201,
      -0.02736637368798256,
      -0.002161476295441389,
      0.029778847470879555,
      0.012284306809306145,
      -0.02764858305454254
    ],
    [
      0.0,
      0.011666514910757542,
      0.005341085139662027,
      -0.012496676295995712,
      0.02273467555642128,
      0.0010277651017531753,
      -0.014050755649805069,
      0.01231942605227232,
      -0.01811860129237175,
      0.0,
      0.0,
      0.0,
      -0.01811860129237175,
      0.011666514910757542,
      0.005341085139662027,
      -0.012496676295995712,
      0.02273467555642128,
      0.0010277651017531753,
      -0.014050755649805069,
      0.01231942605227232
    ],
    [
      0.0,
      -0.028990797698497772,
      0.02481413073837757,
      -0.008691410534083843,
      -0.0035783001221716404,
      0.002340329345315695,
      0.016653425991535187,
      -0.03041073866188526,
      0.02262321673333645,
      0.0,
      0.0,
      0.0,
      0.02262321673333645,
      -0.028990797698497772,
      0.02481413073837757,
      -0.008691410534083843,
      -0.0035783001221716404,
      0.002340329345315695,
      0.016653425991535187,
      -0.03041073866188526
    ],
    [
      0.0,
      -0.00034973540459759533,
      0.021103739738464355,
      -0.022808445617556572,
      -0.0032918762881308794,
      0.021230261772871017,
      0.023824235424399376,
      -0.08371038734912872,
      0.04664436727762222,
      0.0,
      0.0,
      0.0,
      0.04664436727762222,
      -0.00034973540459759533,
      0.021103739738464355,
      -0.022808445617556572,
      -0.0032918762881308794,
      0.021230261772871017,
      0.023824235424399376,
      -0.08371038734912872
    ],
    [
      0.0,
      0.017947109416127205,
      -0.028261655941605568,
      0.006568431854248047,
      0.00264247739687562,
      0.007545423693954945,
      -0.004807977471500635,
      0.010210782289505005,
      -0.013077456504106522,
      0.0,
      0.0,
      0.0,
      -0.013077456504106522,
      0.017947109416127205,
      -0.028261655941605568,
      0.006568431854248047,
      0.00264247739687562,
      0.007545423693954945,
      -0.004807977471500635,
      0.010210782289505005
    ],
    [
      0.0,
      0.01149240043014288,
      -0.016834378242492676,
      0.024067068472504616,
      -0.0036727003753185272,
      -0.026034563779830933,
      0.002946695080026984,
      0.022610465064644814,
      -0.010246021673083305,
      0.0,
      0.0,
      0.0,
      -0.010246021673083305,
      0.01149240043014288,
      -0.016834378242492676,
      0.024067068472504616,
      -0.0036727003753185272,
      -0.026034563779830933,
      0.002946695080026984,
      0.022610465064644814
    ],
    [
      0.0,
      0.004084926098585129,
      -0.0018144934438169003,
      0.004544943105429411,
      0.012081194669008255,
      -0.006109780166298151,
      0.012594920583069324,
      -0.03957102447748184,
      0.0027704164385795593,
      0.0,
      0.0,
      0.0,
      0.0027704164385795593,
      0.004084926098585129,
      -0.0018144934438169003,
      0.004544943105429411,
      0.012081194669008255,
      -0.006109780166298151,
      0.012594920583069324,
      -0.03957102447748184
    ],
    [
      0.0,
      0.010023465380072594,
      0.0013157522771507502,
      0.012128434143960476,
      0.004394249990582466,
      -0.028294939547777176,
      -0.010385272093117237,
      0.06066884845495224,
      -0.030908776447176933,
      0.0,
      0.0,
      0.0,
      -0.030908776447176933,
      0.010023465380072594,
      0.0013157522771507502,
      0.012128434143960476,
      0.004394249990582466,
      -0.028294939547777176,
      -0.010385272093117237,
      0.06066884845495224
    ],
    [
      0.0,
      0.02754545770585537,
      -0.01494648214429617,
      0.01276333536952734,
      -0.010910449549555779,
      -0.018376082181930542,
      -0.01923501119017601,
      0.04078668728470802,
      -0.011269096285104752,
      0.0,
      0.0,
      0.0,
      -0.011269096285104752,
      0.02754545770585537,
      -0.01494648214429617,
      0.01276333536952734,
      -0.010910449549555779,
      -0.018376082181930542,
      -0.01923501119017601,
      0.04078668728470802
    ],
    [
      0.0,
      -0.017713654786348343,
      -0.0034199825022369623,
      0.0071234991773962975,
      0.01668473705649376,
      -0.010172118432819843,
      0.003802468767389655,
      0.010294383391737938,
      0.0013460270129144192,
      0.0,
      0.0,
      0.0,
      0.0013460270129144192,
      -0.017713654786348343,
      -0.0034199825022369623,
      0.0071234991773962975,
      0.01668473705649376,
      -0.010172118432819843,
      0.003802468767389655,
      0.010294383391737938
    ]
  ],
  "delta_mean": [
    [
      -0.04590534791350365,
      -0.019267713651061058,
      0.014682990498840809,
      0.03837905824184418,
      0.02022736333310604,
      -0.008804796263575554,
      -0.029888829216361046,
      0.011508098803460598,
      -0.049679890275001526,
      0.0014458317309617996,
      0.04590531438589096,
      0.006653397809714079,
      -0.010489310137927532,
      -0.0017890240997076035,
      -0.04032043740153313,
      -0.005961974151432514,
      -0.009271916933357716,
      -0.0759529322385788,
      0.02251540683209896,
      0.04141588509082794,
      -0.04890890046954155,
      0.011612712405622005,
      0.012707419693470001,
      0.04212108999490738
    ]
  ],
  "left": [
    [
      0.09446153044700623,
      -0.10802257806062698,
      -0.002930734073743224,
      0.037658028304576874,
      0.26069244742393494,
      -0.026995878666639328,
      0.0255278293043375,
      -0.04063195735216141
    ],
    [
      0.18196424841880798,
      -0.40763798356056213,
      -0.024289686232805252,
      -0.1600441038608551,
      0.2150760293006897,
      -0.40173768997192383,
      -0.2171698659658432,
      -0.03160576894879341
    ],
    [
      -0.04116839915513992,
      -0.2071681022644043,
      0.17397791147232056,
      0.08022850006818771,
      0.08824983984231949,
      0.038844019174575806,
      -0.0047701275907456875,
      0.11902574449777603
    ],
    [
      0.3066079318523407,
      -0.5499034523963928,
      0.19711098074913025,
      0.20608092844486237,
      0.04905468970537186,
      0.03628198057413101,
      0.05865371599793434,
      0.08932860195636749
    ],
    [
      -0.09340783208608627,
      0.1097809448838234,
      0.5097818374633789,
      -0.38440918922424316,
      0.11868470162153244,
      0.4344128966331482,
      -0.013658060692250729,
      0.10000781714916229
    ],
    [
      -0.06258625537157059,
      -0.21988677978515625,
      0.28672710061073303,
      -0.07309321314096451,
      0.12938673794269562,
      0.09725496172904968,
      -0.1715640276670456,
      -0.030766304582357407
    ],
    [
      -0.2621800899505615,
      0.18659555912017822,
      0.16907136142253876,
      0.32339486479759216,
      -0.004608707036823034,
      0.030216926708817482,
      0.10345248878002167,
      0.1169566661119461
    ],
    [
      0.162204310297966,
      -0.25060179829597473,
      -0.20845463871955872,
      -0.1843540370464325,
      -0.14088846743106842,
      0.37582889199256897,
      0.1939573436975479,
      -0.1987692266702652
    ],
    [
      0.20668716728687286,
      0.5211890339851379,
      -0.11565078049898148,
      -0.0969088152050972,
      -0.13125988841056824,
      -0.016122352331876755,
      0.022638631984591484,
      0.2832212448120117
    ],
    [
      -0.08618427813053131,
      -0.009695960208773613,
      -0.40250295400619507,
      0.26908957958221436,
      0.009401186369359493,
      0.03299794718623161,
      -0.27259406447410583,
      -0.14993540942668915
    ],
    [
      -0.31692156195640564,
      0.1619127094745636,
      0.4110267460346222,
      -0.4398644268512726,
      -0.18288710713386536,
      -0.07967700064182281,
      0.40215855836868286,
      -0.054728563874959946
    ],
    [
      -0.4405050277709961,
      0.022951388731598854,
      0.2100030928850174,
      0.188316211104393,
      -0.14154264330863953,
      0.2790541648864746,
      0.21457435190677643,
      -0.3700965344905853
    ],
    [
      0.30978667736053467,
      -0.05094286799430847,
      -0.5330051183700562,
      0.013336394913494587,
      0.03171086311340332,
      -0.2533928155899048,
      0.0011812382144853473,
      0.0694645345211029
    ],
    [
      0.12272176891565323,
      -0.21600812673568726,
      0.2194957137107849,
      -0.40050721168518066,
      -0.21729277074337006,
      -0.08572743088006973,
      -0.22917260229587555,
      0.25658878684043884
    ],
    [
      -0.34541037678718567,
      -0.32775944471359253,
      -0.2819531559944153,
      0.023261113092303276,
      0.238220676779747,
      -0.13563093543052673,
      0.40521225333213806,
      0.253013014793396
    ],
    [
      -0.47343412041664124,
      0.14972437918186188,
      0.1836755871772766,
      -0.08046185970306396,
      0.14683875441551208,
      0.5030121207237244,
      -0.21758033335208893,
      0.4843749403953552
    ],
    [
      0.2622866928577423,
      -0.22643008828163147,
      -0.150313600897789,
      -0.028434647247195244,
      0.4827226400375366,
      0.05165313184261322,
      0.31061187386512756,
      -0.18475869297981262
    ],
    [
      -0.18665580451488495,
      -0.14130380749702454,
      0.3931156098842621,
      -0.20220980048179626,
      -0.14424701035022736,
      -0.3224330246448517,
      0.11669384688138962,
      -0.08080592751502991
    ],
    [
      -0.08937957137823105,
      0.2117086499929428,
      -0.295464426279068,
      0.17793920636177063,
      -0.2306956648826599,
      0.10404147952795029,
      0.08115753531455994,
      -0.07741529494524002
    ],
    [
      -0.21845896542072296,
      0.04024559259414673,
      0.2507038712501526,
      0.17564304172992706,
      -0.29604434967041016,
      -0.4525853395462036,
      0.19816158711910248,
      0.3232209086418152
    ],
    [
      0.08528102934360504,
      -0.35014939308166504,
      -0.3711269199848175,
      -0.3600468337535858,
      -0.46662360429763794,
      0.402241051197052,
      -0.09786548465490341,
      -0.3734265863895416
    ],
    [
      -0.4974062740802765,
      0.07795624434947968,
      -0.2848080098628998,
      -0.15088951587677002,
      0.050881706178188324,
      0.11475998908281326,
      0.09571206569671631,
      0.03320789709687233
    ],
    [
      0.19476228952407837,
      -0.07791951298713684,
      0.13085131347179413,
      0.0059814490377902985,
      -0.26354166865348816,
      0.28353118896484375,
      0.14440318942070007,
      0.5359196662902832
    ],
    [
      0.1330118179321289,
      0.38525235652923584,
      0.2096462845802307,
      -0.2319139987230301,
      0.012697793543338776,
      -0.10932240635156631,
      0.14244872331619263,
      0.19946534931659698
    ]
  ],
  "mode": "frozen_control_affine",
  "operator_rank": 8,
  "right": [
    [
      -0.9315776228904724,
      0.5300807356834412,
      -0.6373592019081116,
      0.7365202903747559,
      1.1707758903503418,
      0.8170819878578186,
      -0.9859308004379272,
      -0.4090684950351715,
      -1.1687233448028564,
      1.0618816614151,
      1.0787996053695679,
      0.31016770005226135,
      0.20557087659835815,
      -0.19499355554580688,
      0.14361470937728882,
      0.2934774160385132,
      -0.2750495672225952,
      -1.5989097356796265,
      0.708787739276886,
      1.118848204612732,
      -0.37368541955947876,
      0.6830124855041504,
      0.6171379089355469,
      -0.040692612528800964
    ],
    [
      -0.013240632601082325,
      0.41237735748291016,
      0.9806914329528809,
      1.029161810874939,
      -1.2448104619979858,
      0.2944878935813904,
      1.0315661430358887,
      0.3795112371444702,
      -0.1395196169614792,
      -0.1761092096567154,
      0.7485319375991821,
      0.335801362991333,
      0.21315371990203857,
      1.1071467399597168,
      -0.48747560381889343,
      0.2725086510181427,
      0.16406689584255219,
      0.2006685435771942,
      -0.763226330280304,
      -0.4582483768463135,
      0.2822609543800354,
      1.1396561861038208,
      0.1825234293937683,
      -0.7831767201423645
    ],
    [
      0.9758615493774414,
      0.6075962781906128,
      -0.3761422634124756,
      -0.21876634657382965,
      -0.09379870444536209,
      0.20442599058151245,
      0.31104806065559387,
      -0.4148925244808197,
      0.5902295112609863,
      0.4713921546936035,
      -0.4741814434528351,
      0.36384645104408264,
      0.7157741189002991,
      -0.4860962927341461,
      0.44222769141197205,
      0.2896938621997833,
      0.12524384260177612,
      0.15560133755207062,
      0.005347711965441704,
      -0.12970341742038727,
      0.8081862330436707,
      0.42466768622398376,
      0.27288830280303955,
      -0.8361160755157471
    ],
    [
      -0.20294378697872162,
      -0.2991924583911896,
      -0.9042395949363708,
      0.029729634523391724,
      0.13271735608577728,
      0.19596271216869354,
      -0.20486584305763245,
      0.30137330293655396,
      0.05442202091217041,
      -0.2593267261981964,
      0.22984057664871216,
      -0.9620910882949829,
      -0.200452983379364,
      0.10586728155612946,
      -0.09693673253059387,
      0.10932393372058868,
      0.2237265259027481,
      0.3828020691871643,
      -0.45351290702819824,
      -0.008097575977444649,
      0.3509078323841095,
      0.6808189153671265,
      -0.4913228750228882,
      -0.07847282290458679
    ],
    [
      0.29177793860435486,
      -0.24410124123096466,
      -0.22878120839595795,
      -0.07389921694993973,
      -0.023782046511769295,
      -0.23346388339996338,
      0.028965575620532036,
      0.27091383934020996,
      -0.45322179794311523,
      -0.006834128405898809,
      0.13907593488693237,
      -0.2112932652235031,
      -0.10207020491361618,
      0.12836724519729614,
      -0.4057696759700775,
      -0.2521536946296692,
      -0.6990224123001099,
      0.16124877333641052,
      0.30022865533828735,
      0.5279195308685303,
      0.37657269835472107,
      -0.03386436775326729,
      0.5768614411354065,
      -0.15542392432689667
    ],
    [
      -0.35722798109054565,
      0.6707925796508789,
      -0.004492258187383413,
      -0.20487186312675476,
      -0.178312286734581,
      -0.09245827049016953,
      0.5787671208381653,
      -0.2647545039653778,
      -0.3208138942718506,
      -0.011783158406615257,
      -0.38567307591438293,
      0.09054765105247498,
      0.48881176114082336,
      -0.3592841327190399,
      -0.5224164128303528,
      -0.5175230503082275,
      0.00803543720394373,
      0.6050268411636353,
      0.00028854465926997364,
      0.06590275466442108,
      -0.07010697573423386,
      0.09556550532579422,
      -0.3405015766620636,
      0.16704249382019043
    ],
    [
      0.0048125204630196095,
      -0.07382220029830933,
      -0.0001665971940383315,
      0.04343082010746002,
      0.17610658705234528,
      0.23477321863174438,
      0.10256185382604599,
      -0.3239760994911194,
      0.04424652084708214,
      0.2650217115879059,
      -0.5126051902770996,
      -0.04907183721661568,
      -0.28712791204452515,
      0.5529367923736572,
      -0.20192687213420868,
      0.18783992528915405,
      -0.25797396898269653,
      0.15175236761569977,
      0.021062767133116722,
      -0.3459215760231018,
      -0.026531288400292397,
      -0.05501216650009155,
      -0.03578048199415207,
      -0.156483992934227
    ],
    [
      0.37807831168174744,
      -0.09927741438150406,
      0.15115582942962646,
      0.18513402342796326,
      -0.046999987214803696,
      0.3280545175075531,
      0.1784483790397644,
      0.06378048658370972,
      -0.17000184953212738,
      0.056736040860414505,
      0.07837100327014923,
      0.3482738137245178,
      -0.27030760049819946,
      0.07064757496118546,
      -0.11913446336984634,
      -0.04530085250735283,
      0.4353407919406891,
      0.06937527656555176,
      -0.15008974075317383,
      0.10366436839103699,
      0.3454636335372925,
      -0.01231167372316122,
      -0.1989615559577942,
      -0.15485112369060516
    ]
  ],
  "source_mean": [
    [
      -0.0972733199596405,
      0.018445298075675964,
      -0.03003006987273693,
      -0.051947690546512604,
      0.24362508952617645,
      0.3098290264606476,
      0.018177734687924385,
      0.1903369426727295,
      -0.35768887400627136,
      0.21677885949611664,
      -0.08105765283107758,
      0.15125566720962524,
      -0.017238594591617584,
      0.027029141783714294,
      0.03360361233353615,
      -0.07105407118797302,
      0.2818797528743744,
      0.23828548192977905,
      0.03912094607949257,
      -0.10044518858194351,
      0.36429956555366516,
      0.07007135450839996,
      -0.42328163981437683,
      -0.12940408289432526
    ]
  ]
}
