{
  "image": {
    "bias": [
      51.946876525878906,
      30.082469940185547,
      -88.26496124267578
    ],
    "input_dim": 256,
    "output_dim": 3,
    "weight": [
      [
        -9.18579387664795,
        8.385641098022461,
        3.7892887592315674
      ],
      [
        5.215457439422607,
        -5.905434608459473,
        1.7572104930877686
      ],
      [
        -3.297437906265259,
        0.4228368401527405,
        -0.2573868930339813
      ],
      [
        -5.496823787689209,
        13.210104942321777,
        5.644195079803467
      ],
      [
        -9.023368835449219,
        -6.542591571807861,
        -16.775808334350586
      ],
      [
        8.467073440551758,
        -8.163320541381836,
        -4.422989845275879
      ],
      [
        11.3736572265625,
        3.6055407524108887,
        9.43624496459961
      ],
      [
        10.796859741210938,
        2.1305878162384033,
        3.347985029220581
      ],
      [
        2.665616989135742,
        -8.510494232177734,
        -5.458874702453613
      ],
      [
        0.3508228659629822,
        9.089442253112793,
        0.9666051268577576
      ],
      [
        7.291595458984375,
        1.9672549962997437,
        -0.9838008880615234
      ],
      [
        -5.607027530670166,
        -2.3881781101226807,
        1.1715837717056274
      ],
      [
        -8.2809476852417,
        -13.076642990112305,
        -1.3992364406585693
      ],
      [
        10.87641429901123,
        -6.379751682281494,
        0.041605379432439804
      ],
      [
        -6.457815647125244,
        -4.618057727813721,
        -0.9899036884307861
      ],
      [
        5.55612850189209,
        -6.297237396240234,
        0.7720105648040771
      ],
      [
        -7.10659122467041,
        -0.5295298099517822,
        13.832242965698242
      ],
      [
        -8.589961051940918,
        -0.01950279250741005,
        -3.0248422622680664
      ],
      [
        3.060340166091919,
        -5.205503940582275,
        0.3399040400981903
      ],
      [
        -12.922595024108887,
        -1.5406979322433472,
        4.083693504333496
      ],
      [
        -11.973859786987305,
        5.371574878692627,
        2.0906715393066406
      ],
      [
        -10.089494705200195,
        4.477560997009277,
        -2.603915214538574
      ],
      [
        12.3956880569458,
        2.3571693897247314,
        -0.8363627195358276
      ],
      [
        -4.994122505187988,
        0.13020634651184082,
        -1.1773790121078491
      ],
      [
        -11.03100299835205,
        9.248512268066406,
        10.959288597106934
      ],
      [
        -5.08427095413208,
        1.2724329233169556,
        2.056645631790161
      ],
      [
        7.602548599243164,
        -7.011415958404541,
        -0.39819464087486267
      ],
      [
        9.389253616333008,
        -0.623781144618988,
        -2.2967870235443115
      ],
      [
        3.6630046367645264,
        -1.574782371520996,
        0.7416818737983704
      ],
      [
        9.452513694763184,
        -6.382131576538086,
        0.28445321321487427
      ],
      [
        -3.1300597190856934,
        6.148159503936768,
        7.926995754241943
      ],
      [
        -11.354187965393066,
        4.236466884613037,
        8.220110893249512
      ],
      [
        11.011796951293945,
        2.6802916526794434,
        -4.932753562927246
      ],
      [
        5.506100654602051,
        3.0871875286102295,
        -4.71006965637207
      ],
      [
        -1.585928201675415,
        -6.857551574707031,
        5.5474700927734375
      ],
      [
        5.270964622497559,
        5.007171630859375,
        -3.042137384414673
      ],
      [
        -4.676661968231201,
        4.539718151092529,
        4.427638053894043
      ],
      [
        -4.20982027053833,
        10.330957412719727,
        -2.035029649734497
      ],
      [
        -4.270805835723877,
        -11.967107772827148,
        9.972124099731445
      ],
      [
        -4.522848606109619,
        0.6550597548484802,
        -0.9112823605537415
      ],
      [
        -1.5583261251449585,
        -7.476700782775879,
        0.8529151082038879
      ],
      [
        11.08002758026123,
        -4.865201950073242,
        -0.5592930316925049
      ],
      [
        -5.495845794677734,
        0.06271222233772278,
        -1.9056204557418823
      ],
      [
        7.362173080444336,
        0.8996245265007019,
        1.292742371559143
      ],
      [
        -5.213437557220459,
        -8.296136856079102,
        4.7092204093933105
      ],
      [
        -18.76399040222168,
        0.34883520007133484,
        0.3949244022369385
      ],
      [
        -6.073827266693115,
        4.709475040435791,
        -3.370457410812378
      ],
      [
        5.3018598556518555,
        4.328981876373291,
        -0.5515523552894592
      ],
      [
        1.2433024644851685,
        -10.685120582580566,
        0.9757641553878784
      ],
      [
        -4.348094940185547,
        6.810885906219482,
        -3.7548987865448
      ],
      [
        7.817899703979492,
        10.53294849395752,
        1.0418658256530762
      ],
      [
        -7.243765354156494,
        -2.5978546142578125,
        0.5195960402488708
      ],
      [
        -7.142819404602051,
        4.501033782958984,
        3.457916021347046
      ],
      [
        -6.6943769454956055,
        0.3286132216453552,
        -0.6814160943031311
      ],
      [
        -8.622015953063965,
        -4.028678894042969,
        0.5373207926750183
      ],
      [
        6.04142427444458,
        -5.743927478790283,
        -0.5364052057266235
      ],
      [
        -6.066356658935547,
        -1.4234130382537842,
        -2.2051243782043457
      ],
      [
        2.9951820373535156,
        5.192591667175293,
        -0.9898715615272522
      ],
      [
        4.787664890289307,
        -1.3377370834350586,
        -1.0982786417007446
      ],
      [
        -5.7573323249816895,
        -5.461912155151367,
        2.1185877323150635
      ],
      [
        7.921102046966553,
        -0.3805254101753235,
        0.9953919053077698
      ],
      [
        10.55607795715332,
        -1.4681837558746338,
        0.226355642080307
      ],
      [
        -6.325793266296387,
        2.4908223152160645,
        2.900974988937378
      ],
      [
        8.407391548156738,
        5.422217845916748,
        -2.001312494277954
      ],
      [
        -5.480684280395508,
        -3.02400803565979,
        -0.874015212059021
      ],
      [
        4.148015975952148,
        -1.4358106851577759,
        -4.588862419128418
      ],
      [
        -4.5248332023620605,
        6.759690284729004,
        -5.436951160430908
      ],
      [
        6.566770553588867,
        -4.337099552154541,
        -2.3070945739746094
      ],
      [
        3.365455389022827,
        0.627198338508606,
        -0.279058039188385
      ],
      [
        8.412574768066406,
        -4.041747093200684,
        -4.789276123046875
      ],
      [
        -5.923677444458008,
        -0.7721118330955505,
        1.9661065340042114
      ],
      [
        -6.878954887390137,
        2.3341898918151855,
        1.047317385673523
      ],
      [
        -5.147019863128662,
        1.6809556484222412,
        0.6735852360725403
      ],
      [
        5.752957820892334,
        -1.7187213897705078,
        0.16476120054721832
      ],
      [
        -3.6150994300842285,
        -10.021361351013184,
        -2.5572521686553955
      ],
      [
        5.634613513946533,
        8.114595413208008,
        -4.85512113571167
      ],
      [
        -5.153568744659424,
        9.093412399291992,
        2.7182509899139404
      ],
      [
        4.627549648284912,
        -1.2481456995010376,
        0.1515897810459137
      ],
      [
        -5.208010673522949,
        -3.034238576889038,
        1.149591088294983
      ],
      [
        6.8629560470581055,
        -3.53946590423584,
        0.6201558709144592
      ],
      [
        1.869665503501892,
        -8.72017765045166,
        1.2392066717147827
      ],
      [
        6.374383449554443,
        0.8792667388916016,
        0.4677068889141083
      ],
      [
        7.874869346618652,
        -0.6415778994560242,
        -0.6227496266365051
      ],
      [
        4.59715461730957,
        -5.890501022338867,
        2.504978895187378
      ],
      [
        6.018840312957764,
        -0.952326238155365,
        -1.7730824947357178
      ],
      [
        -14.336210250854492,
        -2.4369046688079834,
        -6.536839008331299
      ],
      [
        4.691322326660156,
        9.97548770904541,
        2.314983606338501
      ],
      [
        -6.494166374206543,
        -8.315239906311035,
        0.8572523593902588
      ],
      [
        -6.75924825668335,
        3.23241925239563,
        -2.256756544113159
      ],
      [
        4.8976850509643555,
        -2.459198474884033,
        1.5365171432495117
      ],
      [
        2.443570375442505,
        0.7314231991767883,
        6.0601043701171875
      ],
      [
        -3.972062349319458,
        0.07266131788492203,
        0.08287634700536728
      ],
      [
        -9.468897819519043,
        0.9677756428718567,
        0.9995482563972473
      ],
      [
        -4.151435375213623,
        -6.970407962799072,
        -0.8629710674285889
      ],
      [
        6.030838966369629,
        6.829900741577148,
        -0.7742539644241333
      ],
      [
        4.827073574066162,
        -1.2141400575637817,
        7.238609790802002
      ],
      [
        -6.811598300933838,
        -0.5716807842254639,
        0.40716537833213806
      ],
      [
        -13.35609245300293,
        -2.7893054485321045,
        -6.653610706329346
      ],
      [
        -5.901546955108643,
        -1.772178053855896,
        0.046247486025094986
      ],
      [
        -8.291770935058594,
        -6.763549327850342,
        -2.341806173324585
      ],
      [
        -5.986573219299316,
        0.8910934925079346,
        -2.8981781005859375
      ],
      [
        9.69467544555664,
        -3.5954501628875732,
        2.509312629699707
      ],
      [
        -5.345681667327881,
        -0.9252049922943115,
        -0.4292371869087219
      ],
      [
        5.407943248748779,
        5.4692511558532715,
        -2.9756853580474854
      ],
      [
        -3.7454230785369873,
        -3.7693841457366943,
        -1.7654533386230469
      ],
      [
        -5.15686559677124,
        -8.21362590789795,
        -3.6977338790893555
      ],
      [
        10.083481788635254,
        3.040882110595703,
        -0.466189444065094
      ],
      [
        -0.5053468346595764,
        -4.2416534423828125,
        -7.207004070281982
      ],
      [
        -4.406064033508301,
        2.5126726627349854,
        -2.918989419937134
      ],
      [
        1.13211190700531,
        -4.9526824951171875,
        -10.073654174804688
      ],
      [
        5.430103302001953,
        4.172323226928711,
        -1.0426902770996094
      ],
      [
        1.0573203563690186,
        -2.478935956954956,
        7.424604415893555
      ],
      [
        -9.342637062072754,
        5.287917613983154,
        5.337852954864502
      ],
      [
        -4.508056640625,
        0.47430098056793213,
        9.517939567565918
      ],
      [
        -5.472379684448242,
        -4.864154815673828,
        0.7079716324806213
      ],
      [
        4.167781352996826,
        0.7607213258743286,
        0.4577200710773468
      ],
      [
        4.132972717285156,
        3.521152973175049,
        1.589690089225769
      ],
      [
        7.239421844482422,
        4.504631996154785,
        -3.672805070877075
      ],
      [
        6.080942153930664,
        0.12228059768676758,
        1.0653682947158813
      ],
      [
        8.897549629211426,
        5.049030303955078,
        -3.1620516777038574
      ],
      [
        -9.482433319091797,
        1.2561109066009521,
        4.226800918579102
      ],
      [
        -2.857773542404175,
        6.2017974853515625,
        1.3660311698913574
      ],
      [
        6.297883033752441,
        -7.5627288818359375,
        -1.3420875072479248
      ],
      [
        -4.515531539916992,
        -0.6756278276443481,
        1.246392846107483
      ],
      [
        -5.941436767578125,
        1.6481566429138184,
        -1.2716498374938965
      ],
      [
        7.523849964141846,
        -0.8785966634750366,
        -0.0399453304708004
      ],
      [
        5.039755821228027,
        6.830770015716553,
        -0.038402967154979706
      ],
      [
        -3.981827974319458,
        4.909824848175049,
        1.0284600257873535
      ],
      [
        6.462457180023193,
        -4.9513258934021,
        -4.648640155792236
      ],
      [
        3.04764723777771,
        7.215456962585449,
        -1.3854235410690308
      ],
      [
        -6.770270347595215,
        0.32478561997413635,
        1.806899905204773
      ],
      [
        -6.830339431762695,
        1.5994369983673096,
        -0.6575368642807007
      ],
      [
        9.01491928100586,
        4.180545806884766,
        2.2894766330718994
      ],
      [
        -4.058928489685059,
        -4.168402671813965,
        -0.8539956212043762
      ],
      [
        -7.6486616134643555,
        1.1398860216140747,
        1.1864032745361328
      ],
      [
        4.389174938201904,
        3.6535091400146484,
        0.4439515173435211
      ],
      [
        1.3052873611450195,
        -7.905951499938965,
        1.5701149702072144
      ],
      [
        -3.504267930984497,
        -10.373528480529785,
        -7.800442695617676
      ],
      [
        7.581492900848389,
        0.13601207733154297,
        2.961289405822754
      ],
      [
        6.043056964874268,
        9.453131675720215,
        -0.3239668905735016
      ],
      [
        6.704353332519531,
        3.2608377933502197,
        -3.063992977142334
      ],
      [
        -5.565516471862793,
        4.156290531158447,
        -1.0058894157409668
      ],
      [
        3.70786452293396,
        9.587889671325684,
        0.5919471383094788
      ],
      [
        -4.639886856079102,
        2.2832765579223633,
        1.4562714099884033
      ],
      [
        7.313478469848633,
        8.322623252868652,
        5.821793556213379
      ],
      [
        -7.1486711502075195,
        -8.375484466552734,
        -4.466715335845947
      ],
      [
        -0.051432054489851,
        14.59322452545166,
        -6.1562676429748535
      ],
      [
        -5.750063419342041,
        -3.6402297019958496,
        0.4843561053276062
      ],
      [
        0.5759925842285156,
        9.13454532623291,
        4.880221843719482
      ],
      [
        -11.527129173278809,
        -7.2215728759765625,
        7.9702067375183105
      ],
      [
        -7.985087871551514,
        -1.9156352281570435,
        -0.016797365620732307
      ],
      [
        12.151693344116211,
        -3.513723134994507,
        6.258092880249023
      ],
      [
        5.682745456695557,
        -4.093271732330322,
        -1.269517421722412
      ],
      [
        6.854331016540527,
        3.382477045059204,
        1.3341764211654663
      ],
      [
        -6.539883613586426,
        -4.871551990509033,
        0.4062962532043457
      ],
      [
        7.846829414367676,
        -4.074625492095947,
        3.388648509979248
      ],
      [
        -0.9680699706077576,
        8.447476387023926,
        -9.44046401977539
      ],
      [
        -2.7722949981689453,
        -10.249007225036621,
        -1.9125896692276
      ],
      [
        1.437453269958496,
        11.997167587280273,
        -0.9081352949142456
      ],
      [
        -3.717961072921753,
        5.246129989624023,
        -1.27899968624115
      ],
      [
        6.008449554443359,
        -1.7622816562652588,
        3.137066125869751
      ],
      [
        -5.250560283660889,
        6.254979610443115,
        -1.285721778869629
      ],
      [
        -7.5513811111450195,
        -0.0670398399233818,
        1.4382658004760742
      ],
      [
        4.661696434020996,
        -5.425098419189453,
        0.13600210845470428
      ],
      [
        -5.396651744842529,
        -0.6307238936424255,
        0.3926105797290802
      ],
      [
        5.753824710845947,
        -0.9012095928192139,
        0.24159377813339233
      ],
      [
        -3.199183940887451,
        -9.363914489746094,
        -2.8957834243774414
      ],
      [
        -3.025916337966919,
        12.86982250213623,
        -4.973319053649902
      ],
      [
        -9.39417552947998,
        7.909302711486816,
        -7.7617082595825195
      ],
      [
        5.338082313537598,
        1.2941256761550903,
        -0.826983630657196
      ],
      [
        -4.1743483543396,
        -10.720309257507324,
        1.3207319974899292
      ],
      [
        5.560810565948486,
        -11.307501792907715,
        5.997795581817627
      ],
      [
        4.486032962799072,
        5.025479316711426,
        5.81866455078125
      ],
      [
        5.227138996124268,
        -2.1043827533721924,
        0.40022215247154236
      ],
      [
        -5.673642158508301,
        7.8187737464904785,
        1.0756921768188477
      ],
      [
        7.936628341674805,
        -4.107571125030518,
        -2.682499885559082
      ],
      [
        5.20564079284668,
        1.1969428062438965,
        -0.7752947211265564
      ],
      [
        -5.926342010498047,
        -1.5930417776107788,
        0.5216955542564392
      ],
      [
        -9.249464988708496,
        7.606267929077148,
        -0.18961986899375916
      ],
      [
        6.381648063659668,
        5.323578834533691,
        10.064102172851562
      ],
      [
        5.732054233551025,
        -1.8431843519210815,
        -0.1636834740638733
      ],
      [
        1.8414057493209839,
        -6.066205978393555,
        -0.8435853719711304
      ],
      [
        -12.98658275604248,
        -3.1455581188201904,
        0.7314521074295044
      ],
      [
        -5.74215841293335,
        -0.29916316270828247,
        0.8788117170333862
      ],
      [
        -2.1786606311798096,
        7.039903163909912,
        7.767157077789307
      ],
      [
        6.875895023345947,
        -4.7004218101501465,
        10.532816886901855
      ],
      [
        2.3340694904327393,
        -4.576364040374756,
        4.530069828033447
      ],
      [
        6.790709972381592,
        2.3783986568450928,
        1.996588110923767
      ],
      [
        5.803552150726318,
        0.07035365700721741,
        0.2126561552286148
      ],
      [
        -3.8995513916015625,
        0.09625592827796936,
        -0.07359723001718521
      ],
      [
        -3.8571648597717285,
        2.0843045711517334,
        2.120490074157715
      ],
      [
        -6.094537258148193,
        -1.1325786113739014,
        -2.563300609588623
      ],
      [
        -5.119803428649902,
        2.86236572265625,
        -1.4980463981628418
      ],
      [
        -1.039597988128662,
        -10.297771453857422,
        -2.7875545024871826
      ],
      [
        -2.5474228858947754,
        -11.790200233459473,
        10.144651412963867
      ],
      [
        -6.267099857330322,
        0.9892609715461731,
        -0.20012007653713226
      ],
      [
        6.36472749710083,
        -5.5892438888549805,
        0.8862613439559937
      ],
      [
        5.5650129318237305,
        1.085433006286621,
        1.9940524101257324
      ],
      [
        8.664752006530762,
        0.4124695658683777,
        -5.932164669036865
      ],
      [
        -8.385351181030273,
        -12.24604320526123,
        1.006547212600708
      ],
      [
        8.964571952819824,
        4.229142665863037,
        0.8742543458938599
      ],
      [
        5.738674640655518,
        -1.625108003616333,
        -5.694819927215576
      ],
      [
        6.168587684631348,
        -3.036245822906494,
        14.406726837158203
      ],
      [
        -8.136842727661133,
        2.859037399291992,
        2.096391201019287
      ],
      [
        9.821165084838867,
        -0.8051857352256775,
        -2.975332736968994
      ],
      [
        -8.057952880859375,
        -1.8393752574920654,
        6.391159534454346
      ],
      [
        5.073556900024414,
        1.6583197116851807,
        0.8209019303321838
      ],
      [
        4.997303009033203,
        -2.913304090499878,
        4.247486591339111
      ],
      [
        3.620925188064575,
        -6.759316444396973,
        7.405798435211182
      ],
      [
        5.773166656494141,
        0.35420724749565125,
        -1.1404125690460205
      ],
      [
        7.453248977661133,
        -0.18462716042995453,
        0.19807064533233643
      ],
      [
        0.08515559136867523,
        6.1098551750183105,
        4.003967761993408
      ],
      [
        -7.637627601623535,
        -12.645291328430176,
        1.9951359033584595
      ],
      [
        -7.678354263305664,
        0.284090131521225,
        -2.6372625827789307
      ],
      [
        -6.440251350402832,
        -0.7254620790481567,
        -0.3773573338985443
      ],
      [
        -8.576751708984375,
        -5.921298027038574,
        0.01525369193404913
      ],
      [
        4.176860809326172,
        5.336771488189697,
        -2.7118890285491943
      ],
      [
        -13.728094100952148,
        5.850961685180664,
        -6.54445743560791
      ],
      [
        6.027008056640625,
        2.1387012004852295,
        -0.6087167859077454
      ],
      [
        4.0914692878723145,
        16.85818862915039,
        -7.045346736907959
      ],
      [
        -8.444601058959961,
        0.8036389946937561,
        2.561124086380005
      ],
      [
        -6.764016151428223,
        -2.525630474090576,
        -0.1042160764336586
      ],
      [
        -7.034372329711914,
        2.4684293270111084,
        0.371368408203125
      ],
      [
        4.162823677062988,
        -2.313509702682495,
        0.03364847972989082
      ],
      [
        3.691053867340088,
        -1.1295042037963867,
        -0.2549671232700348
      ],
      [
        0.4233885407447815,
        2.899413585662842,
        -12.434294700622559
      ],
      [
        -7.131440162658691,
        -3.1410412788391113,
        -4.092789173126221
      ],
      [
        8.58101749420166,
        -6.046700477600098,
        0.08533331751823425
      ],
      [
        -7.214578151702881,
        0.15218034386634827,
        -0.3951571583747864
      ],
      [
        -7.900790214538574,
        10.866287231445312,
        -2.4003634452819824
      ],
      [
        4.960879802703857,
        0.5756774544715881,
        -1.6375144720077515
      ],
      [
        4.329914093017578,
        -7.015417098999023,
        -1.2585660219192505
      ],
      [
        -6.249522686004639,
        5.348657131195068,
        -0.9762892127037048
      ],
      [
        3.707017183303833,
        6.376498699188232,
        2.9230270385742188
      ],
      [
        6.640408515930176,
        -10.738750457763672,
        2.0332744121551514
      ],
      [
        -3.8920040130615234,
        -0.2013489305973053,
        -0.12199127674102783
      ],
      [
        -10.322650909423828,
        -5.713648319244385,
        -4.03782844543457
      ],
      [
        -5.100484371185303,
        -2.1334757804870605,
        -2.2730677127838135
      ],
      [
        8.068976402282715,
        -2.146087169647217,
        0.06702332943677902
      ],
      [
        7.299538612365723,
        8.419361114501953,
        -7.029065132141113
      ],
      [
        5.5590362548828125,
        -1.7904627323150635,
        -0.15846380591392517
      ],
      [
        -7.730212211608887,
        -3.350830316543579,
        -9.306063652038574
      ],
      [
        -5.0589165687561035,
        2.236550807952881,
        1.1207435131072998
      ],
      [
        8.7149076461792,
        -10.974641799926758,
        -7.936084747314453
      ],
      [
        -6.167228698730469,
        3.5667080879211426,
        -2.726106882095337
      ],
      [
        1.3457355499267578,
        -10.212838172912598,
        1.828735589981079
      ],
      [
        -11.616930961608887,
        -2.1631548404693604,
        0.6726720333099365
      ],
      [
        1.0009028911590576,
        -5.507565021514893,
        19.32208824157715
      ],
      [
        2.8827321529388428,
        -5.393832206726074,
        -2.6018364429473877
      ],
      [
        -6.5861687660217285,
        5.825296878814697,
        -1.091356635093689
      ],
      [
        -7.879106044769287,
        3.5054290294647217,
        -0.8091106414794922
      ],
      [
        8.299845695495605,
        7.12412691116333,
        2.982290744781494
      ],
      [
        6.346545696258545,
        0.2220270335674286,
        -0.39511168003082275
      ],
      [
        5.666887283325195,
        1.4218236207962036,
        -11.824441909790039
      ],
      [
        -7.7327423095703125,
        4.244309902191162,
        -0.22451886534690857
      ],
      [
        -3.7815239429473877,
        5.287570476531982,
        6.991291522979736
      ]
    ]
  },
  "kind": "prefit_pls_readout",
  "output_standardize": 0,
  "rank": 3,
  "rna": {
    "bias": [
      27.997066497802734,
      137.61285400390625,
      -75.37052154541016
    ],
    "input_dim": 128,
    "output_dim": 3,
    "weight": [
      [
        -0.7833786606788635,
        -0.5746363401412964,
        0.20159929990768433
      ],
      [
        0.7244130373001099,
        -0.7481811046600342,
        0.4618707597255707
      ],
      [
        -1.1604135036468506,
        -0.7077037692070007,
        -0.05494225397706032
      ],
      [
        0.8742688894271851,
        -0.7196234464645386,
        -0.1864733248949051
      ],
      [
        -0.9253832101821899,
        -1.038254976272583,
        -0.07046932727098465
      ],
      [
        -0.9999617338180542,
        -0.5218198895454407,
        -0.04563097283244133
      ],
      [
        1.0975627899169922,
        -0.7346556186676025,
        -0.1838197112083435
      ],
      [
        -0.27547401189804077,
        -0.46173298358917236,
        0.6421077847480774
      ],
      [
        -0.9429382085800171,
        0.19510744512081146,
        0.05779828503727913
      ],
      [
        1.074623465538025,
        -0.18804723024368286,
        -0.6870174407958984
      ],
      [
        -0.24063609540462494,
        -1.347372055053711,
        -0.08290834724903107
      ],
      [
        0.7994405627250671,
        0.2007867991924286,
        0.4397640526294708
      ],
      [
        0.861361026763916,
        0.055494651198387146,
        0.10172520577907562
      ],
      [
        -0.5341384410858154,
        -0.8077017068862915,
        -0.03857750818133354
      ],
      [
        -0.718078076839447,
        -0.5303307771682739,
        0.09543730318546295
      ],
      [
        -0.09821275621652603,
        -0.9218077063560486,
        0.10185342282056808
      ],
      [
        -0.2404308021068573,
        0.12762588262557983,
        0.9187337160110474
      ],
      [
        -0.6623349189758301,
        -1.3902232646942139,
        -0.36914363503456116
      ],
      [
        0.675932765007019,
        -0.33429986238479614,
        -0.049170367419719696
      ],
      [
        -0.8810341954231262,
        -0.12285559624433517,
        0.047914158552885056
      ],
      [
        -0.957939088344574,
        -1.1636625528335571,
        0.17894099652767181
      ],
      [
        -0.1775881052017212,
        0.08490171283483505,
        0.3398407995700836
      ],
      [
        -0.8817318081855774,
        -1.0093648433685303,
        -0.5154446959495544
      ],
      [
        -0.6196303367614746,
        -0.11333076655864716,
        0.25615036487579346
      ],
      [
        1.3077884912490845,
        -0.3539573550224304,
        -0.48937350511550903
      ],
      [
        -0.1917799711227417,
        -0.04913705587387085,
        0.20909254252910614
      ],
      [
        -0.8068180680274963,
        0.026817113161087036,
        0.35468506813049316
      ],
      [
        1.1193938255310059,
        0.043963223695755005,
        0.508152425289154
      ],
      [
        -0.22714290022850037,
        0.3086450695991516,
        0.4254726767539978
      ],
      [
        -0.5853590369224548,
        0.12165475636720657,
        0.4233088791370392
      ],
      [
        0.7918949127197266,
        -0.7501713633537292,
        0.0038220216520130634
      ],
      [
        0.12172670662403107,
        -0.17059820890426636,
        0.48379984498023987
      ],
      [
        -0.5061752200126648,
        -0.8841742277145386,
        -0.22469455003738403
      ],
      [
        0.538472056388855,
        -0.9836799502372742,
        -0.07944797724485397
      ],
      [
        0.23759320378303528,
        -0.04895215108990669,
        0.5363067984580994
      ],
      [
        -0.6359262466430664,
        -0.3141602873802185,
        0.5887572169303894
      ],
      [
        -1.113516926765442,
        0.17438922822475433,
        -0.2744603455066681
      ],
      [
        0.9176508188247681,
        -0.1092563048005104,
        0.2818322479724884
      ],
      [
        -0.8243585824966431,
        -1.0207180976867676,
        0.05874648317694664
      ],
      [
        -0.028094731271266937,
        -0.7195183038711548,
        0.3893064558506012
      ],
      [
        -0.13009122014045715,
        -0.20014773309230804,
        0.6059043407440186
      ],
      [
        -0.8860960006713867,
        -0.7174824476242065,
        0.18319693207740784
      ],
      [
        0.5584179162979126,
        -0.7357801795005798,
        -0.3813397288322449
      ],
      [
        0.9454466104507446,
        -1.0405012369155884,
        -0.15303295850753784
      ],
      [
        -0.4856839179992676,
        -0.15895096957683563,
        0.10353356599807739
      ],
      [
        0.6799436807632446,
        -0.0672561451792717,
        0.4123612344264984
      ],
      [
        -0.29020974040031433,
        -0.9896870255470276,
        -0.14607934653759003
      ],
      [
        -0.6205623149871826,
        -0.4655344784259796,
        0.07004301249980927
      ],
      [
        0.8440294861793518,
        -0.7427026629447937,
        -0.35124287009239197
      ],
      [
        1.2599997520446777,
        -0.6584948897361755,
        -0.3614913523197174
      ],
      [
        1.1041373014450073,
        0.03275299444794655,
        0.3234291076660156
      ],
      [
        -0.500828742980957,
        -1.11815345287323,
        -0.044269952923059464
      ],
      [
        -0.2223266363143921,
        0.7320318222045898,
        0.17318803071975708
      ],
      [
        -1.208930253982544,
        -0.6691552400588989,
        0.10491520911455154
      ],
      [
        0.49686187505722046,
        -0.9156920313835144,
        0.0934382751584053
      ],
      [
        -0.24066326022148132,
        -0.7799688577651978,
        -0.27732139825820923
      ],
      [
        -0.177911177277565,
        -0.8507559299468994,
        0.4254835546016693
      ],
      [
        0.9608928561210632,
        -0.4101591408252716,
        -0.8072495460510254
      ],
      [
        -1.073853850364685,
        -0.3445301651954651,
        0.21148186922073364
      ],
      [
        0.6704246401786804,
        -0.1588447391986847,
        0.6061968207359314
      ],
      [
        1.0159896612167358,
        0.14880874752998352,
        0.25212204456329346
      ],
      [
        -0.9876037240028381,
        -0.16625535488128662,
        0.2406112104654312
      ],
      [
        -0.6728509068489075,
        -0.7600393295288086,
        0.275066614151001
      ],
      [
        0.804172933101654,
        -0.006641035433858633,
        0.5692958235740662
      ],
      [
        0.6425460577011108,
        -0.18897180259227753,
        0.600687563419342
      ],
      [
        0.9661098122596741,
        -0.17881041765213013,
        -0.052943501621484756
      ],
      [
        -0.9340236186981201,
        0.3921094238758087,
        0.0897727757692337
      ],
      [
        0.2908152639865875,
        -0.9099127650260925,
        -0.20134367048740387
      ],
      [
        0.9666711688041687,
        -0.6970159411430359,
        -0.23185649514198303
      ],
      [
        0.8450376987457275,
        -0.4927939176559448,
        0.047854114323854446
      ],
      [
        -0.420876145362854,
        -1.1594324111938477,
        -0.04248343035578728
      ],
      [
        -0.9847528338432312,
        -0.22342216968536377,
        0.27141162753105164
      ],
      [
        -0.8414268493652344,
        -0.4238300621509552,
        0.24426022171974182
      ],
      [
        1.0540157556533813,
        -0.48634758591651917,
        0.278052419424057
      ],
      [
        0.5044598579406738,
        -0.9818171262741089,
        0.01884174346923828
      ],
      [
        -1.0551660060882568,
        0.4883265197277069,
        0.5079668760299683
      ],
      [
        -0.9794145226478577,
        -0.5349024534225464,
        0.1822095811367035
      ],
      [
        -0.5749228596687317,
        -0.1687583178281784,
        0.06446323543787003
      ],
      [
        0.7844741940498352,
        0.014518015086650848,
        0.3264397978782654
      ],
      [
        0.7815309166908264,
        0.09828103333711624,
        0.1746271550655365
      ],
      [
        -1.0527093410491943,
        -0.5892671346664429,
        0.013826473616063595
      ],
      [
        -0.32662805914878845,
        0.6790265440940857,
        -0.12398320436477661
      ],
      [
        -0.33347705006599426,
        0.11138810962438583,
        0.2758972644805908
      ],
      [
        1.3929517269134521,
        0.013693338260054588,
        -0.4272633492946625
      ],
      [
        0.8313505053520203,
        -0.0736524686217308,
        0.60561203956604
      ],
      [
        -0.6832082271575928,
        -0.5040463805198669,
        0.15911982953548431
      ],
      [
        -0.6725101470947266,
        -0.43042147159576416,
        -0.09892091900110245
      ],
      [
        -0.282254159450531,
        -1.1048004627227783,
        0.1725706309080124
      ],
      [
        0.4814584255218506,
        -0.7409484386444092,
        -0.06455691158771515
      ],
      [
        -0.3691493570804596,
        -1.2659622430801392,
        -0.24993793666362762
      ],
      [
        -0.16104617714881897,
        -0.06933508813381195,
        0.02197633683681488
      ],
      [
        0.7866982221603394,
        -0.6004878878593445,
        -0.05135665461421013
      ],
      [
        1.0247242450714111,
        0.16348348557949066,
        0.5207000970840454
      ],
      [
        0.8592690229415894,
        -0.04321611300110817,
        0.6017127633094788
      ],
      [
        -1.0807526111602783,
        -0.3043718934059143,
        0.21067127585411072
      ],
      [
        1.14924156665802,
        -0.39939501881599426,
        0.28148168325424194
      ],
      [
        0.8353103399276733,
        -0.24039237201213837,
        0.3710392117500305
      ],
      [
        -0.22859540581703186,
        -0.5422841310501099,
        -0.031135376542806625
      ],
      [
        0.9490290880203247,
        -0.8510550260543823,
        0.025798723101615906
      ],
      [
        0.9630246758460999,
        -0.5325814485549927,
        0.19131073355674744
      ],
      [
        -0.2875753343105316,
        0.30434128642082214,
        0.22804510593414307
      ],
      [
        -0.8796766996383667,
        -0.12382083386182785,
        0.1363527625799179
      ],
      [
        -0.5486836433410645,
        0.27319231629371643,
        0.5807477235794067
      ],
      [
        -0.47435006499290466,
        0.5717145204544067,
        0.4978470802307129
      ],
      [
        -0.8262633085250854,
        0.1646503359079361,
        0.3816145658493042
      ],
      [
        1.11574387550354,
        -0.8660724759101868,
        0.3012898564338684
      ],
      [
        1.243032455444336,
        -0.7751580476760864,
        -0.08391455560922623
      ],
      [
        0.6563947200775146,
        -1.1396543979644775,
        0.2508814036846161
      ],
      [
        -0.9376606345176697,
        0.12673142552375793,
        -0.254682719707489
      ],
      [
        -0.7483437061309814,
        -0.4730343818664551,
        -0.00465096440166235
      ],
      [
        0.37798580527305603,
        -0.2632289230823517,
        0.5965868830680847
      ],
      [
        -0.33376893401145935,
        0.07260763645172119,
        0.49814921617507935
      ],
      [
        -0.35817399621009827,
        0.4039268493652344,
        -0.1347712129354477
      ],
      [
        -0.09719687700271606,
        -0.5540472269058228,
        0.24741801619529724
      ],
      [
        -0.9781472086906433,
        -0.5408859848976135,
        0.16511794924736023
      ],
      [
        -0.5032019019126892,
        -0.32249364256858826,
        0.16313408315181732
      ],
      [
        1.020905613899231,
        -1.0325459241867065,
        0.003189262468367815
      ],
      [
        -0.4787350296974182,
        -1.2342703342437744,
        0.05598186329007149
      ],
      [
        -0.08211324363946915,
        0.019537607207894325,
        0.09114707261323929
      ],
      [
        0.8854186534881592,
        -0.6065099239349365,
        -0.48812511563301086
      ],
      [
        0.013131734915077686,
        -0.5956535935401917,
        0.2898472845554352
      ],
      [
        -1.0187933444976807,
        0.3297905921936035,
        0.04646456986665726
      ],
      [
        0.7031955122947693,
        0.04936429485678673,
        0.3084835112094879
      ],
      [
        -0.36438697576522827,
        -0.16240614652633667,
        0.6653695702552795
      ],
      [
        -0.4443618655204773,
        -0.7335851788520813,
        0.18388301134109497
      ],
      [
        -0.9006946086883545,
        0.1846511960029602,
        0.5972806811332703
      ],
      [
        0.5276790261268616,
        -1.1244887113571167,
        0.4618385434150696
      ],
      [
        -0.9831316471099854,
        0.2578602731227875,
        0.31232941150665283
      ]
    ]
  },
  "singular_values": [
    63.78508377075195,
    31.924806594848633,
    12.368382453918457
  ]
}
