{
  "image": {
    "bias": [
      124.70671844482422,
      -18.810314178466797,
      33.86298370361328
    ],
    "input_dim": 256,
    "output_dim": 3,
    "weight": [
      [
        -2.517298460006714,
        -0.20070089399814606,
        0.03072921745479107
      ],
      [
        -6.750992774963379,
        3.4470772743225098,
        5.184487342834473
      ],
      [
        -4.225179195404053,
        6.047675609588623,
        1.1118744611740112
      ],
      [
        -6.934550762176514,
        0.07352768629789352,
        -1.5031780004501343
      ],
      [
        9.818841934204102,
        -1.488296389579773,
        3.896963596343994
      ],
      [
        -6.930281162261963,
        -0.39084234833717346,
        1.183801531791687
      ],
      [
        -8.721247673034668,
        6.605634689331055,
        -1.398898959159851
      ],
      [
        -11.113194465637207,
        4.341742992401123,
        -0.17570166289806366
      ],
      [
        10.035917282104492,
        4.695368766784668,
        2.0141522884368896
      ],
      [
        2.7364087104797363,
        8.610136985778809,
        -5.612526893615723
      ],
      [
        -2.0571980476379395,
        6.210790157318115,
        -6.165894031524658
      ],
      [
        -3.420774459838867,
        1.0014731884002686,
        0.4089362919330597
      ],
      [
        -4.8115410804748535,
        0.3185862898826599,
        -1.218761682510376
      ],
      [
        -6.512105941772461,
        -1.703694462776184,
        -0.2735046446323395
      ],
      [
        7.614668369293213,
        1.8900362253189087,
        2.5591702461242676
      ],
      [
        -5.824912071228027,
        -1.903098225593567,
        3.5525617599487305
      ],
      [
        8.276817321777344,
        -0.9233032464981079,
        -1.8377339839935303
      ],
      [
        2.4076855182647705,
        5.126813888549805,
        -2.6008334159851074
      ],
      [
        3.5079939365386963,
        -4.375193119049072,
        0.6438893675804138
      ],
      [
        9.863754272460938,
        3.046440601348877,
        -1.1705732345581055
      ],
      [
        -10.615464210510254,
        6.067091941833496,
        -4.539282321929932
      ],
      [
        -8.202835083007812,
        2.4446370601654053,
        -1.8106716871261597
      ],
      [
        -0.6689513921737671,
        0.7962454557418823,
        4.451197624206543
      ],
      [
        -4.286860466003418,
        2.2239584922790527,
        1.5054012537002563
      ],
      [
        -5.4112749099731445,
        0.23666447401046753,
        -0.5439410209655762
      ],
      [
        6.634700775146484,
        1.5465445518493652,
        3.53092360496521
      ],
      [
        6.029006481170654,
        -1.227335810661316,
        0.2441587746143341
      ],
      [
        -7.88917350769043,
        -2.2189276218414307,
        0.7929762601852417
      ],
      [
        3.904086112976074,
        -4.814263820648193,
        -0.4505159258842468
      ],
      [
        3.4713001251220703,
        0.1276502162218094,
        0.21505632996559143
      ],
      [
        -10.130070686340332,
        1.0431814193725586,
        -2.7646381855010986
      ],
      [
        -3.7784745693206787,
        -0.6795185804367065,
        0.16723625361919403
      ],
      [
        -10.790335655212402,
        2.400559902191162,
        -0.0950920358300209
      ],
      [
        -6.231870651245117,
        -1.2683758735656738,
        -1.7904937267303467
      ],
      [
        9.32245922088623,
        0.5169460773468018,
        -5.398138046264648
      ],
      [
        6.644662857055664,
        1.624828815460205,
        -1.8822883367538452
      ],
      [
        -6.435908317565918,
        -0.01745396852493286,
        0.6835759282112122
      ],
      [
        -4.815191268920898,
        0.7906627058982849,
        -0.3972443640232086
      ],
      [
        7.798031330108643,
        2.0220584869384766,
        1.0821239948272705
      ],
      [
        -4.52867317199707,
        1.386338233947754,
        0.07367385923862457
      ],
      [
        3.5384953022003174,
        13.707497596740723,
        4.203212261199951
      ],
      [
        -6.75359582901001,
        -0.59308260679245,
        -0.16462016105651855
      ],
      [
        -1.4461854696273804,
        19.245365142822266,
        -10.632624626159668
      ],
      [
        5.785173416137695,
        -1.3758938312530518,
        0.9181442856788635
      ],
      [
        -4.016765594482422,
        -0.1039971187710762,
        -0.0895526185631752
      ],
      [
        6.3299880027771,
        3.433568000793457,
        0.6539881825447083
      ],
      [
        5.1048359870910645,
        0.3038099408149719,
        0.27395814657211304
      ],
      [
        -8.124752044677734,
        -11.138078689575195,
        -1.0356838703155518
      ],
      [
        -6.398839473724365,
        -4.336376667022705,
        -2.579451322555542
      ],
      [
        3.9655354022979736,
        -0.26428890228271484,
        -0.2291765809059143
      ],
      [
        6.538309097290039,
        0.8746750354766846,
        0.7977451682090759
      ],
      [
        -6.030642986297607,
        1.0474129915237427,
        0.7529264092445374
      ],
      [
        -15.25356388092041,
        -0.8722347021102905,
        -4.744892120361328
      ],
      [
        -5.483935832977295,
        0.8731048107147217,
        -0.1468776911497116
      ],
      [
        -4.351326942443848,
        0.34395456314086914,
        1.884585976600647
      ],
      [
        4.692487716674805,
        -1.8216360807418823,
        -0.5124819874763489
      ],
      [
        -5.057453632354736,
        0.6271810531616211,
        -1.3286378383636475
      ],
      [
        3.993744134902954,
        0.24059534072875977,
        0.016542252153158188
      ],
      [
        -7.935544490814209,
        -0.6318215727806091,
        -1.731641411781311
      ],
      [
        -4.499892234802246,
        0.012218104675412178,
        0.44803333282470703
      ],
      [
        -0.5099741220474243,
        -1.80308198928833,
        -9.263886451721191
      ],
      [
        -5.931114196777344,
        -1.4049129486083984,
        -1.7631651163101196
      ],
      [
        4.332268238067627,
        1.096173882484436,
        -0.5313949584960938
      ],
      [
        2.9984073638916016,
        -2.8521623611450195,
        5.4675068855285645
      ],
      [
        -5.27841329574585,
        8.984200477600098,
        0.5136445760726929
      ],
      [
        -11.581684112548828,
        -8.952945709228516,
        -2.883897542953491
      ],
      [
        -4.706115245819092,
        0.9945843815803528,
        1.2519950866699219
      ],
      [
        10.404621124267578,
        3.177882432937622,
        -7.025360584259033
      ],
      [
        5.496397495269775,
        -5.612425804138184,
        0.030238237231969833
      ],
      [
        -0.5196899175643921,
        -10.19598388671875,
        4.869139194488525
      ],
      [
        -5.726364612579346,
        11.237153053283691,
        -1.2914968729019165
      ],
      [
        6.299670696258545,
        -0.7436276078224182,
        -0.5715780854225159
      ],
      [
        -1.252900242805481,
        10.201872825622559,
        2.592555522918701
      ],
      [
        -5.854691505432129,
        -5.825379848480225,
        -3.272160053253174
      ],
      [
        -3.5507330894470215,
        -0.3195478618144989,
        0.2512649893760681
      ],
      [
        -9.81013298034668,
        3.026240348815918,
        -0.8265267014503479
      ],
      [
        -6.186482906341553,
        3.7873330116271973,
        -4.905184268951416
      ],
      [
        3.0005364418029785,
        -0.5426038503646851,
        0.21955177187919617
      ],
      [
        -5.720761299133301,
        -0.9156192541122437,
        4.215092658996582
      ],
      [
        -0.5757176280021667,
        -7.050699234008789,
        2.9208433628082275
      ],
      [
        -4.553314208984375,
        -7.833117961883545,
        -1.0344948768615723
      ],
      [
        5.682436466217041,
        -6.166500568389893,
        -0.4360876977443695
      ],
      [
        5.553597450256348,
        0.3049094080924988,
        -1.1437580585479736
      ],
      [
        -5.984588146209717,
        -2.7219903469085693,
        10.995970726013184
      ],
      [
        -4.766413688659668,
        0.4526706635951996,
        -0.4364370107650757
      ],
      [
        -8.116744995117188,
        3.135133981704712,
        0.301052451133728
      ],
      [
        -7.376662731170654,
        -0.2846335172653198,
        -0.1905655562877655
      ],
      [
        -10.203417778015137,
        -7.233667373657227,
        4.796664237976074
      ],
      [
        5.576392650604248,
        2.78975772857666,
        4.860456466674805
      ],
      [
        3.9286181926727295,
        -3.314955711364746,
        -3.773545503616333
      ],
      [
        -0.07859393954277039,
        4.946134090423584,
        8.845964431762695
      ],
      [
        -4.695052146911621,
        2.4124138355255127,
        0.8052448034286499
      ],
      [
        1.9290045499801636,
        8.026365280151367,
        -7.230338096618652
      ],
      [
        -6.46004056930542,
        1.9416022300720215,
        4.944576740264893
      ],
      [
        5.727731227874756,
        -0.11501037329435349,
        0.00883975438773632
      ],
      [
        4.875119209289551,
        0.42522794008255005,
        -1.5972626209259033
      ],
      [
        -6.104071140289307,
        0.7913544774055481,
        -0.5509111881256104
      ],
      [
        -7.93721866607666,
        1.4195314645767212,
        -0.001852413290180266
      ],
      [
        -9.329514503479004,
        5.4260783195495605,
        0.5994138717651367
      ],
      [
        7.633886814117432,
        2.3921711444854736,
        -4.169300079345703
      ],
      [
        -5.250429630279541,
        -0.40575259923934937,
        0.08638238161802292
      ],
      [
        4.456826210021973,
        0.08495602756738663,
        -0.12102878838777542
      ],
      [
        -5.946928024291992,
        -1.4784127473831177,
        0.18029600381851196
      ],
      [
        4.035585403442383,
        0.03717939183115959,
        -0.6054894328117371
      ],
      [
        -3.5242791175842285,
        -0.6004813313484192,
        0.07433640956878662
      ],
      [
        -3.6585733890533447,
        -0.3562763035297394,
        -0.30889248847961426
      ],
      [
        6.6952409744262695,
        1.097538709640503,
        -2.970900297164917
      ],
      [
        8.764264106750488,
        1.315625786781311,
        -0.6899252533912659
      ],
      [
        -6.801754951477051,
        1.5409165620803833,
        -2.4963340759277344
      ],
      [
        -2.9011316299438477,
        -0.04612617939710617,
        0.1223454400897026
      ],
      [
        6.662227630615234,
        0.26455575227737427,
        -4.709015369415283
      ],
      [
        13.281073570251465,
        -2.4902100563049316,
        -2.311596632003784
      ],
      [
        -13.382113456726074,
        -0.27031517028808594,
        2.6846516132354736
      ],
      [
        9.029717445373535,
        3.098088502883911,
        1.639796495437622
      ],
      [
        -5.2906575202941895,
        -0.3346731960773468,
        1.1618876457214355
      ],
      [
        4.817708492279053,
        -7.20735502243042,
        -3.643928289413452
      ],
      [
        -8.447748184204102,
        -6.0167927742004395,
        0.7800631523132324
      ],
      [
        5.206830024719238,
        -2.021258592605591,
        -5.798273086547852
      ],
      [
        4.496213436126709,
        0.13783502578735352,
        -0.6822212934494019
      ],
      [
        -6.508594989776611,
        2.4849612712860107,
        -1.6994484663009644
      ],
      [
        3.265444040298462,
        -1.7259109020233154,
        9.596162796020508
      ],
      [
        -13.838141441345215,
        2.865187406539917,
        4.502222061157227
      ],
      [
        -6.787299633026123,
        0.01018544565886259,
        -1.037735104560852
      ],
      [
        -6.082522392272949,
        0.19138914346694946,
        0.5696216225624084
      ],
      [
        6.797286510467529,
        7.5632524490356445,
        5.275397777557373
      ],
      [
        3.5466244220733643,
        -0.39333465695381165,
        0.34560272097587585
      ],
      [
        3.9487650394439697,
        7.73902702331543,
        -3.2425949573516846
      ],
      [
        4.206000328063965,
        0.318868488073349,
        -0.2767934203147888
      ],
      [
        7.221321105957031,
        1.4061964750289917,
        2.8108644485473633
      ],
      [
        -6.665913105010986,
        4.588695526123047,
        -0.19534340500831604
      ],
      [
        5.797288417816162,
        1.9964070320129395,
        -1.6162828207015991
      ],
      [
        -9.297423362731934,
        0.6474881172180176,
        -1.911489486694336
      ],
      [
        -6.3480610847473145,
        -10.125110626220703,
        10.568733215332031
      ],
      [
        -4.201669216156006,
        -0.677078366279602,
        0.42822927236557007
      ],
      [
        8.224311828613281,
        0.4639197885990143,
        -1.2704228162765503
      ],
      [
        3.2632081508636475,
        0.08661084622144699,
        0.36293110251426697
      ],
      [
        -6.553696632385254,
        -4.735527038574219,
        -2.292046308517456
      ],
      [
        -7.126028060913086,
        1.1018471717834473,
        2.688709020614624
      ],
      [
        3.7889721393585205,
        -0.5390439629554749,
        -0.18559233844280243
      ],
      [
        -5.672631740570068,
        1.2658767700195312,
        -0.4728641211986542
      ],
      [
        -5.776004314422607,
        -0.29898300766944885,
        -2.869886636734009
      ],
      [
        9.517850875854492,
        7.116235256195068,
        -0.23519180715084076
      ],
      [
        15.104232788085938,
        4.8984503746032715,
        0.8258877396583557
      ],
      [
        11.063613891601562,
        2.0047833919525146,
        2.649216890335083
      ],
      [
        3.6270670890808105,
        -0.3430102467536926,
        -0.4675096571445465
      ],
      [
        -4.290764808654785,
        -0.18042705953121185,
        0.06259065121412277
      ],
      [
        -4.566281318664551,
        0.6824865937232971,
        -0.37781286239624023
      ],
      [
        -4.487005233764648,
        -0.32234007120132446,
        0.04211818426847458
      ],
      [
        4.052878379821777,
        0.9451190829277039,
        -0.028382517397403717
      ],
      [
        -8.262925148010254,
        -1.260962963104248,
        -1.3885202407836914
      ],
      [
        3.3358194828033447,
        0.5171950459480286,
        -0.10607308894395828
      ],
      [
        7.983307361602783,
        2.617457389831543,
        -3.5208115577697754
      ],
      [
        -5.244913578033447,
        -0.20236103236675262,
        -0.6465638279914856
      ],
      [
        1.5655192136764526,
        -9.182914733886719,
        1.9239656925201416
      ],
      [
        0.21962182223796844,
        0.06349412351846695,
        -5.345062732696533
      ],
      [
        -3.859217643737793,
        -5.429160118103027,
        -2.6144063472747803
      ],
      [
        -8.063422203063965,
        -2.0025839805603027,
        -1.0801762342453003
      ],
      [
        -4.211045742034912,
        0.49566158652305603,
        -0.1512071043252945
      ],
      [
        -9.183762550354004,
        5.9904398918151855,
        -4.444404125213623
      ],
      [
        -4.162146091461182,
        1.2594071626663208,
        0.0979166328907013
      ],
      [
        4.311887264251709,
        -0.937095046043396,
        -0.12295553088188171
      ],
      [
        -5.385003089904785,
        0.9022448062896729,
        -0.09048603475093842
      ],
      [
        12.773296356201172,
        -1.7362160682678223,
        -1.9871212244033813
      ],
      [
        2.8701820373535156,
        0.06326282024383545,
        -0.20428702235221863
      ],
      [
        -0.8223072290420532,
        16.530065536499023,
        1.9737722873687744
      ],
      [
        -7.027856826782227,
        -9.458051681518555,
        -3.324685573577881
      ],
      [
        7.0283403396606445,
        -0.8622636795043945,
        -4.807856559753418
      ],
      [
        6.537459850311279,
        0.6576567888259888,
        0.4998219311237335
      ],
      [
        -11.434319496154785,
        -0.22112885117530823,
        -1.7476239204406738
      ],
      [
        6.322566032409668,
        -0.4329177141189575,
        0.2584163546562195
      ],
      [
        -4.608811855316162,
        -0.1434549242258072,
        -0.30367815494537354
      ],
      [
        -3.3072009086608887,
        -0.01568196527659893,
        0.09747675806283951
      ],
      [
        5.121433258056641,
        0.8340896368026733,
        0.194408118724823
      ],
      [
        3.9850573539733887,
        -0.9077539443969727,
        0.3038282096385956
      ],
      [
        5.166304588317871,
        1.6248414516448975,
        -1.0045158863067627
      ],
      [
        -8.496733665466309,
        -3.6279449462890625,
        3.4700775146484375
      ],
      [
        4.754730224609375,
        -5.655682563781738,
        -0.8348076939582825
      ],
      [
        -4.070414066314697,
        0.37395885586738586,
        -0.0536990649998188
      ],
      [
        8.019909858703613,
        7.740289688110352,
        1.0708757638931274
      ],
      [
        8.550759315490723,
        6.132601737976074,
        -2.239269733428955
      ],
      [
        10.71908187866211,
        -11.791576385498047,
        1.2931360006332397
      ],
      [
        -3.9100239276885986,
        -0.2167648822069168,
        -0.22820238769054413
      ],
      [
        6.3103346824646,
        1.1779983043670654,
        2.254535436630249
      ],
      [
        13.808162689208984,
        5.410624980926514,
        5.455878257751465
      ],
      [
        5.774555683135986,
        0.0477214939892292,
        -0.48130035400390625
      ],
      [
        5.177376747131348,
        0.35937902331352234,
        0.06347791105508804
      ],
      [
        -5.691671848297119,
        -2.609022855758667,
        0.17377744615077972
      ],
      [
        -7.378111839294434,
        0.30347082018852234,
        0.7021483182907104
      ],
      [
        7.695981979370117,
        -5.5395941734313965,
        -1.5669039487838745
      ],
      [
        -2.897109270095825,
        0.6933073997497559,
        -0.31838130950927734
      ],
      [
        3.673426628112793,
        0.5043302178382874,
        0.5262134075164795
      ],
      [
        -2.305513620376587,
        10.348429679870605,
        9.248577117919922
      ],
      [
        -2.8944103717803955,
        0.24902893602848053,
        -0.07705408334732056
      ],
      [
        -4.094193935394287,
        0.659845232963562,
        0.2013273984193802
      ],
      [
        3.6495420932769775,
        -0.621452808380127,
        0.5464863181114197
      ],
      [
        -6.40061616897583,
        -1.9838618040084839,
        1.1444836854934692
      ],
      [
        4.252420425415039,
        2.80359148979187,
        11.806770324707031
      ],
      [
        -2.8333916664123535,
        -4.23747444152832,
        8.1815767288208
      ],
      [
        -9.254959106445312,
        0.3725832998752594,
        -3.311326026916504
      ],
      [
        -4.022099018096924,
        -0.3427775204181671,
        0.08937031775712967
      ],
      [
        3.8423879146575928,
        -0.7322930097579956,
        0.47312936186790466
      ],
      [
        -7.682731628417969,
        -0.4864436089992523,
        -25.51743507385254
      ],
      [
        5.8675971031188965,
        -1.0180439949035645,
        -0.6350484490394592
      ],
      [
        -4.750904560089111,
        0.11810982972383499,
        1.0861492156982422
      ],
      [
        10.436793327331543,
        -5.703371524810791,
        4.319765090942383
      ],
      [
        -10.516501426696777,
        5.9220404624938965,
        -2.587925434112549
      ],
      [
        5.7292070388793945,
        -2.8144185543060303,
        4.870459079742432
      ],
      [
        -5.169498920440674,
        -1.0979187488555908,
        2.1297383308410645
      ],
      [
        4.7298994064331055,
        -0.9026618003845215,
        -0.35568517446517944
      ],
      [
        6.598343372344971,
        -1.2196829319000244,
        -0.13519085943698883
      ],
      [
        4.905703544616699,
        -0.2625206410884857,
        -0.5199086666107178
      ],
      [
        5.4376654624938965,
        -0.633750319480896,
        -10.050601959228516
      ],
      [
        11.303049087524414,
        -8.316682815551758,
        -1.770979404449463
      ],
      [
        -7.408279895782471,
        0.5032338500022888,
        -1.6342848539352417
      ],
      [
        -4.381572723388672,
        0.0775446966290474,
        0.521105170249939
      ],
      [
        5.225014686584473,
        -0.07301495224237442,
        5.553627014160156
      ],
      [
        4.077276706695557,
        -0.43852829933166504,
        -0.07822680473327637
      ],
      [
        -6.43133020401001,
        0.047926437109708786,
        3.146714687347412
      ],
      [
        6.758066177368164,
        -6.878688812255859,
        1.6584566831588745
      ],
      [
        4.866964817047119,
        0.6878721714019775,
        0.4530643820762634
      ],
      [
        -5.354017734527588,
        9.632041931152344,
        -4.714619159698486
      ],
      [
        -3.7406980991363525,
        0.29233312606811523,
        0.08994527161121368
      ],
      [
        -7.388051509857178,
        0.6189113855361938,
        -4.624697208404541
      ],
      [
        -7.800215244293213,
        -2.6571850776672363,
        0.5043542981147766
      ],
      [
        0.3528749346733093,
        -8.781756401062012,
        -6.052751064300537
      ],
      [
        -8.105130195617676,
        -0.7372892498970032,
        0.07660020887851715
      ],
      [
        -7.306811809539795,
        1.6682898998260498,
        -0.6218356490135193
      ],
      [
        -10.00981330871582,
        -5.811023712158203,
        3.2558271884918213
      ],
      [
        -2.6204705238342285,
        0.7356719970703125,
        -13.102995872497559
      ],
      [
        -3.755885124206543,
        1.0082757472991943,
        -0.2725662589073181
      ],
      [
        -6.708017826080322,
        -0.2745687663555145,
        -2.4664528369903564
      ],
      [
        3.9306840896606445,
        -1.0481672286987305,
        -0.9609630703926086
      ],
      [
        3.6042213439941406,
        0.3150195777416229,
        -0.16313248872756958
      ],
      [
        -11.35151481628418,
        2.4681642055511475,
        2.218264579772949
      ],
      [
        12.460186958312988,
        9.640518188476562,
        12.081989288330078
      ],
      [
        7.850325107574463,
        -0.2892746329307556,
        1.7867112159729004
      ],
      [
        -8.88013744354248,
        -0.2527517080307007,
        1.774326205253601
      ],
      [
        5.765819549560547,
        8.71091365814209,
        0.8163005709648132
      ],
      [
        6.8553996086120605,
        -0.07330650836229324,
        0.7986167073249817
      ],
      [
        6.302234649658203,
        0.9563571810722351,
        0.36777904629707336
      ],
      [
        3.5247132778167725,
        -2.2993600368499756,
        -2.3952770233154297
      ],
      [
        -8.067843437194824,
        -1.709472417831421,
        -2.9242606163024902
      ],
      [
        3.967475652694702,
        5.276937007904053,
        1.5940619707107544
      ],
      [
        7.076942443847656,
        0.42508187890052795,
        2.004558563232422
      ],
      [
        -8.293686866760254,
        3.6520960330963135,
        -2.457015037536621
      ],
      [
        -8.325815200805664,
        -4.157683372497559,
        -5.030972480773926
      ],
      [
        15.049259185791016,
        2.641303062438965,
        -5.827894687652588
      ],
      [
        -8.003822326660156,
        -0.7681300044059753,
        0.9510459899902344
      ],
      [
        -5.531745910644531,
        -1.7644318342208862,
        1.885237216949463
      ],
      [
        5.900704860687256,
        1.0419996976852417,
        -0.3928366005420685
      ],
      [
        5.808917999267578,
        4.355051040649414,
        1.4073894023895264
      ],
      [
        5.0846734046936035,
        1.0633833408355713,
        -0.5303764343261719
      ],
      [
        8.211294174194336,
        -3.408935308456421,
        1.0472699403762817
      ],
      [
        -13.778564453125,
        -4.847208023071289,
        -6.930879592895508
      ],
      [
        -4.358671188354492,
        1.9924122095108032,
        0.13733221590518951
      ],
      [
        6.420165061950684,
        -14.915512084960938,
        -1.4231139421463013
      ]
    ]
  },
  "kind": "prefit_pls_readout",
  "output_standardize": false,
  "rank": 3,
  "rna": {
    "bias": [
      181.2852783203125,
      30.851064682006836,
      14.454818725585938
    ],
    "input_dim": 128,
    "output_dim": 3,
    "weight": [
      [
        -0.8531649708747864,
        0.12921825051307678,
        0.38612937927246094
      ],
      [
        -0.8069151639938354,
        -0.2502995729446411,
        0.047687284648418427
      ],
      [
        -0.8269741535186768,
        -0.20380055904388428,
        -0.1172683835029602
      ],
      [
        -0.6930428147315979,
        -0.07443239539861679,
        0.08147674798965454
      ],
      [
        -0.9166424870491028,
        -0.058654844760894775,
        0.009564852342009544
      ],
      [
        0.8142467737197876,
        0.5445894002914429,
        0.8361226320266724
      ],
      [
        1.0646133422851562,
        -1.2204221487045288,
        0.34763044118881226
      ],
      [
        -1.0014392137527466,
        -0.14553989470005035,
        -0.18915992975234985
      ],
      [
        0.5691782236099243,
        0.7778266668319702,
        -0.4421611726284027
      ],
      [
        0.0235645342618227,
        -0.8499047160148621,
        -0.11577931046485901
      ],
      [
        -1.2204347848892212,
        0.1720915287733078,
        0.40148887038230896
      ],
      [
        0.6734997034072876,
        -0.30509433150291443,
        -0.5501273274421692
      ],
      [
        1.0360790491104126,
        -0.1712869256734848,
        -0.28164947032928467
      ],
      [
        0.7439298629760742,
        0.7334738373756409,
        -0.8849582672119141
      ],
      [
        -0.8173719644546509,
        0.09635595977306366,
        -0.23947933316230774
      ],
      [
        -1.1912659406661987,
        0.11205238103866577,
        0.5491858124732971
      ],
      [
        -0.9606232047080994,
        0.022455910220742226,
        -0.06607633084058762
      ],
      [
        -1.1125924587249756,
        -0.009342738427221775,
        0.4507809579372406
      ],
      [
        -0.7918707132339478,
        -0.06740931421518326,
        0.049907341599464417
      ],
      [
        -0.848537027835846,
        0.14390245079994202,
        0.1178210899233818
      ],
      [
        -0.8049674034118652,
        0.06042935326695442,
        0.22534768283367157
      ],
      [
        -0.7763110399246216,
        0.16875171661376953,
        -0.20887061953544617
      ],
      [
        -0.7650611400604248,
        -0.046476125717163086,
        0.16126109659671783
      ],
      [
        -0.8176470398902893,
        0.1598651260137558,
        -0.06925831735134125
      ],
      [
        0.3291552662849426,
        -0.6994322538375854,
        0.4565872251987457
      ],
      [
        -1.1747479438781738,
        0.23614120483398438,
        -0.17951709032058716
      ],
      [
        -0.7104734778404236,
        0.10023230314254761,
        -0.11074401438236237
      ],
      [
        0.35875728726387024,
        -0.23234693706035614,
        0.33746111392974854
      ],
      [
        -0.8449001312255859,
        0.15590448677539825,
        -0.07319747656583786
      ],
      [
        -0.655656099319458,
        0.08500374853610992,
        -0.22412385046482086
      ],
      [
        -0.9546511769294739,
        -0.09891217201948166,
        -0.06510709971189499
      ],
      [
        -0.7738376259803772,
        -0.10837443172931671,
        -0.028641637414693832
      ],
      [
        -0.9478780627250671,
        0.04456418380141258,
        0.15071091055870056
      ],
      [
        -0.7918092608451843,
        -0.8446609973907471,
        -0.04247660934925079
      ],
      [
        -0.8431801795959473,
        0.15169209241867065,
        -0.24293017387390137
      ],
      [
        -0.7998803853988647,
        -0.03006693907082081,
        -0.1848679631948471
      ],
      [
        0.3450186550617218,
        1.0802122354507446,
        0.1934763789176941
      ],
      [
        -0.04827241227030754,
        -0.07313909381628036,
        0.4082512855529785
      ],
      [
        1.0628902912139893,
        0.8515775203704834,
        0.2619253993034363
      ],
      [
        -0.7818311452865601,
        -0.1293986737728119,
        0.29295456409454346
      ],
      [
        -0.07332506030797958,
        0.5464648604393005,
        0.08670426160097122
      ],
      [
        -0.9380110502243042,
        -0.043157078325748444,
        0.08728965371847153
      ],
      [
        -0.3950895667076111,
        -0.9785318374633789,
        0.5845671892166138
      ],
      [
        -0.41037067770957947,
        -0.9550698399543762,
        0.17586927115917206
      ],
      [
        -0.6600502729415894,
        0.11483241617679596,
        -0.25353145599365234
      ],
      [
        0.41339007019996643,
        -0.12991344928741455,
        -0.6569118499755859
      ],
      [
        -0.7873292565345764,
        0.13528180122375488,
        0.32461053133010864
      ],
      [
        -0.9389726519584656,
        0.1496277004480362,
        0.035343755036592484
      ],
      [
        -0.6439185738563538,
        -0.6060178875923157,
        -0.02517193742096424
      ],
      [
        0.6416722536087036,
        -1.275800108909607,
        0.013540551997721195
      ],
      [
        0.7039633989334106,
        -0.4749431312084198,
        0.328550785779953
      ],
      [
        -0.953505277633667,
        0.04821201413869858,
        0.22802090644836426
      ],
      [
        0.015522124245762825,
        -0.42361512780189514,
        -0.10158221423625946
      ],
      [
        -0.9603770971298218,
        -0.027920356020331383,
        0.08340857923030853
      ],
      [
        -1.0467251539230347,
        -0.14614561200141907,
        -0.24421532452106476
      ],
      [
        -0.8951364159584045,
        0.042339298874139786,
        0.021507523953914642
      ],
      [
        -0.7793029546737671,
        -0.029694098979234695,
        0.005242676008492708
      ],
      [
        -0.5016294717788696,
        -0.7591369152069092,
        -0.296405166387558
      ],
      [
        -1.0190128087997437,
        0.2806699275970459,
        -0.6375294923782349
      ],
      [
        -0.31242039799690247,
        -0.15685968101024628,
        -0.35862791538238525
      ],
      [
        0.7787016034126282,
        -0.4144435226917267,
        -0.2602789103984833
      ],
      [
        -0.660030722618103,
        0.4393559694290161,
        0.4191761016845703
      ],
      [
        -1.0438566207885742,
        -0.09941785037517548,
        0.11573527008295059
      ],
      [
        0.29055097699165344,
        -0.5850425958633423,
        -0.29009097814559937
      ],
      [
        -0.9280545711517334,
        -0.04303230345249176,
        0.09662336856126785
      ],
      [
        -0.932034432888031,
        -0.2908960282802582,
        0.020080193877220154
      ],
      [
        -0.4643215835094452,
        -0.5580145120620728,
        -0.63984614610672
      ],
      [
        -0.8932238221168518,
        -0.05428712069988251,
        -0.009344188496470451
      ],
      [
        0.16867132484912872,
        -0.500848650932312,
        0.4255356788635254
      ],
      [
        -0.8695167899131775,
        0.048604756593704224,
        -0.10769841820001602
      ],
      [
        -1.0829294919967651,
        0.010606068186461926,
        0.16196727752685547
      ],
      [
        1.268341302871704,
        0.5130629539489746,
        0.29962828755378723
      ],
      [
        -0.22829768061637878,
        0.8134776949882507,
        -0.2949674129486084
      ],
      [
        -0.7670533061027527,
        -0.1969146430492401,
        0.04823993518948555
      ],
      [
        -1.0263489484786987,
        0.05744339898228645,
        -0.037747111171483994
      ],
      [
        -0.09663031250238419,
        0.11564718931913376,
        -0.6526975631713867
      ],
      [
        0.5704714059829712,
        1.0747023820877075,
        0.28164270520210266
      ],
      [
        -0.9370670318603516,
        0.32604798674583435,
        0.024852367118000984
      ],
      [
        0.4336351156234741,
        -0.059214867651462555,
        -0.7373255491256714
      ],
      [
        0.09310004860162735,
        -1.117365837097168,
        -0.15983976423740387
      ],
      [
        -0.9929343461990356,
        0.06387461721897125,
        0.310667484998703
      ],
      [
        -0.12585176527500153,
        -0.790602445602417,
        -0.41882336139678955
      ],
      [
        -0.8459986448287964,
        0.25229784846305847,
        -0.17599545419216156
      ],
      [
        -0.05426068603992462,
        -0.7898442149162292,
        0.5268476009368896
      ],
      [
        0.4412113428115845,
        -0.23272407054901123,
        -0.41925227642059326
      ],
      [
        -0.7452922463417053,
        0.1753888726234436,
        -0.33831876516342163
      ],
      [
        -0.3052211105823517,
        0.11572515219449997,
        0.39353787899017334
      ],
      [
        -0.7540198564529419,
        0.09499423950910568,
        -0.02530444972217083
      ],
      [
        -0.7435351610183716,
        -0.11439143866300583,
        0.09622610360383987
      ],
      [
        -1.0500519275665283,
        0.1869751363992691,
        0.09231580048799515
      ],
      [
        0.09262832999229431,
        0.12308913469314575,
        -0.7255062460899353
      ],
      [
        -0.5325684547424316,
        -0.8887410759925842,
        0.020557262003421783
      ],
      [
        0.10115443170070648,
        -0.4461434781551361,
        -1.0890717506408691
      ],
      [
        0.7041682600975037,
        -0.21136175096035004,
        -0.5775380730628967
      ],
      [
        1.1117018461227417,
        0.40440112352371216,
        -0.055006224662065506
      ],
      [
        0.41372150182724,
        -0.05046799033880234,
        0.2368050068616867
      ],
      [
        -0.6298609972000122,
        -0.10029314458370209,
        -0.039763953536748886
      ],
      [
        -0.06575988978147507,
        -0.07124443352222443,
        -0.08116205781698227
      ],
      [
        -0.6739929914474487,
        -0.9102644324302673,
        -0.1694386750459671
      ],
      [
        -0.8059568405151367,
        0.001375545165501535,
        -0.05362093821167946
      ],
      [
        -0.21691538393497467,
        0.15000097453594208,
        -0.344664067029953
      ],
      [
        0.13470639288425446,
        0.8920443654060364,
        0.2506486177444458
      ],
      [
        -0.6755333542823792,
        0.15578940510749817,
        -0.010474284179508686
      ],
      [
        0.41020217537879944,
        0.3460428714752197,
        -0.0205475352704525
      ],
      [
        0.08074826002120972,
        0.10725310444831848,
        -0.6156308054924011
      ],
      [
        -0.5750465989112854,
        -0.8251372575759888,
        -0.660412073135376
      ],
      [
        -0.8585091233253479,
        -0.21659095585346222,
        0.0937979444861412
      ],
      [
        -0.8349632620811462,
        -0.1569823920726776,
        0.07117833942174911
      ],
      [
        -0.191771999001503,
        0.10925089567899704,
        0.5280606746673584
      ],
      [
        -0.7745253443717957,
        0.43499380350112915,
        -0.1724843531847
      ],
      [
        -0.7457202076911926,
        -0.10990002006292343,
        0.12612898647785187
      ],
      [
        -0.6529340147972107,
        0.0752260610461235,
        -0.11670003086328506
      ],
      [
        -0.7845948934555054,
        0.11436496675014496,
        -0.2658969461917877
      ],
      [
        -0.7883220314979553,
        -0.06402450799942017,
        -0.016978677362203598
      ],
      [
        0.24911408126354218,
        0.3571867048740387,
        0.9136751890182495
      ],
      [
        -1.0494827032089233,
        0.3651854693889618,
        0.06035052612423897
      ],
      [
        0.14137208461761475,
        -1.0596693754196167,
        -0.1604762077331543
      ],
      [
        -1.1304283142089844,
        0.1459454447031021,
        0.7703376412391663
      ],
      [
        -0.9298016428947449,
        -0.1192142441868782,
        0.05873257666826248
      ],
      [
        -0.40865567326545715,
        -0.462394654750824,
        0.5841358304023743
      ],
      [
        -0.7504669427871704,
        0.12565474212169647,
        -0.2221619337797165
      ],
      [
        -0.02515122853219509,
        0.11137425154447556,
        -0.3920934796333313
      ],
      [
        0.5657016038894653,
        -0.7856298089027405,
        -0.25426194071769714
      ],
      [
        -0.9621485471725464,
        0.028069304302334785,
        -0.19448134303092957
      ],
      [
        0.3653712868690491,
        0.07194480299949646,
        -0.05432095378637314
      ],
      [
        -0.31747740507125854,
        0.17104384303092957,
        -0.4265930950641632
      ],
      [
        -0.6633347272872925,
        -0.12206640094518661,
        0.09201931208372116
      ],
      [
        1.148256778717041,
        -0.11379294097423553,
        0.32381707429885864
      ]
    ]
  },
  "singular_values": [
    90.88313293457031,
    15.050403594970703,
    9.473469734191895
  ]
}
