{
  "image": {
    "bias": [
      68.18455505371094,
      -39.531700134277344,
      -6.215490341186523
    ],
    "input_dim": 256,
    "output_dim": 3,
    "weight": [
      [
        -5.859852313995361,
        -7.713018417358398,
        7.213616371154785
      ],
      [
        -1.752614140510559,
        -5.022120475769043,
        -1.8877780437469482
      ],
      [
        -1.5949825048446655,
        -5.103297710418701,
        -1.1448277235031128
      ],
      [
        -4.091899394989014,
        4.566755771636963,
        -6.896264553070068
      ],
      [
        -2.7991225719451904,
        -10.160726547241211,
        5.816771984100342
      ],
      [
        1.4204984903335571,
        2.9966623783111572,
        -1.005392074584961
      ],
      [
        -5.541057586669922,
        -3.2500863075256348,
        -1.276639461517334
      ],
      [
        -5.947858810424805,
        -0.2439480572938919,
        -0.6538000106811523
      ],
      [
        -0.46261104941368103,
        6.173000335693359,
        -0.7749465107917786
      ],
      [
        -2.7423059940338135,
        4.915830612182617,
        1.1712762117385864
      ],
      [
        7.512362957000732,
        4.858686447143555,
        0.21812285482883453
      ],
      [
        0.6043267846107483,
        -0.42413243651390076,
        -7.947473049163818
      ],
      [
        0.2201356440782547,
        -3.0613417625427246,
        7.356809616088867
      ],
      [
        -3.360267400741577,
        -0.9910730123519897,
        6.5860466957092285
      ],
      [
        5.955279350280762,
        -0.7554542422294617,
        -0.8921447992324829
      ],
      [
        -7.660116672515869,
        -0.07949666678905487,
        -3.1779072284698486
      ],
      [
        -8.96956729888916,
        0.15818147361278534,
        -0.7242597341537476
      ],
      [
        -4.183888912200928,
        6.33528470993042,
        -2.5416862964630127
      ],
      [
        -5.11093807220459,
        0.9524765014648438,
        -2.4620895385742188
      ],
      [
        1.3447521924972534,
        2.5953714847564697,
        -6.4383955001831055
      ],
      [
        -1.0231404304504395,
        3.117008924484253,
        -3.606555223464966
      ],
      [
        -2.8458988666534424,
        7.776081085205078,
        2.5124378204345703
      ],
      [
        7.041924953460693,
        -2.037785768508911,
        1.0049452781677246
      ],
      [
        -2.371156930923462,
        4.400510311126709,
        -0.6575459241867065
      ],
      [
        -4.727029800415039,
        -0.7355102896690369,
        -0.5098134875297546
      ],
      [
        -6.020047664642334,
        -0.8629239201545715,
        0.5892297029495239
      ],
      [
        1.3448554277420044,
        3.428431272506714,
        -9.068646430969238
      ],
      [
        5.141957759857178,
        2.1921236515045166,
        -4.249314308166504
      ],
      [
        1.6328072547912598,
        -0.7102712392807007,
        -3.945789098739624
      ],
      [
        -3.256615400314331,
        5.188530921936035,
        0.12133924663066864
      ],
      [
        2.7535269260406494,
        0.5767358541488647,
        -0.5740678310394287
      ],
      [
        -3.6257574558258057,
        -4.825619697570801,
        -2.640828847885132
      ],
      [
        7.574587821960449,
        1.2149680852890015,
        -10.436283111572266
      ],
      [
        -6.461140155792236,
        8.496121406555176,
        -1.6768263578414917
      ],
      [
        3.182394027709961,
        4.245344161987305,
        6.707792282104492
      ],
      [
        1.1875797510147095,
        7.39375638961792,
        2.272846221923828
      ],
      [
        -0.12919959425926208,
        1.0184751749038696,
        -6.754426956176758
      ],
      [
        -4.374866008758545,
        -8.225259780883789,
        -3.1944289207458496
      ],
      [
        4.063944339752197,
        -6.069544792175293,
        2.5487000942230225
      ],
      [
        -1.8513884544372559,
        -0.6790223717689514,
        6.799252033233643
      ],
      [
        6.430927753448486,
        1.2166281938552856,
        -0.6958767175674438
      ],
      [
        -0.5459657311439514,
        -1.2338206768035889,
        -8.51929759979248
      ],
      [
        -10.842133522033691,
        -3.856611967086792,
        -3.9972357749938965
      ],
      [
        -5.005303859710693,
        3.403263807296753,
        0.4466533362865448
      ],
      [
        3.6381731033325195,
        -3.5366368293762207,
        -0.4527454972267151
      ],
      [
        -3.2588508129119873,
        2.548473834991455,
        1.0681034326553345
      ],
      [
        0.5231676697731018,
        2.026015281677246,
        3.9953720569610596
      ],
      [
        -4.2877583503723145,
        1.7004176378250122,
        0.49361804127693176
      ],
      [
        -3.3483986854553223,
        7.895594120025635,
        3.0718770027160645
      ],
      [
        -3.256687641143799,
        4.89725923538208,
        2.893258810043335
      ],
      [
        -5.807450294494629,
        1.0745359659194946,
        -0.831262469291687
      ],
      [
        -1.865775227546692,
        2.5537497997283936,
        -3.0399158000946045
      ],
      [
        4.154289245605469,
        0.5751762986183167,
        -3.4721391201019287
      ],
      [
        6.103349208831787,
        9.766033172607422,
        0.5195532441139221
      ],
      [
        -6.556316375732422,
        5.464260101318359,
        0.9684070348739624
      ],
      [
        -1.7042896747589111,
        -4.141287326812744,
        -3.089724540710449
      ],
      [
        -3.865015983581543,
        -1.287745714187622,
        4.242682456970215
      ],
      [
        -6.532934188842773,
        0.3482666015625,
        0.7381546497344971
      ],
      [
        -3.2286899089813232,
        6.794580936431885,
        3.393923759460449
      ],
      [
        -3.555609941482544,
        1.4238293170928955,
        1.9606146812438965
      ],
      [
        4.333726406097412,
        -0.9369089007377625,
        0.6881771087646484
      ],
      [
        4.871468544006348,
        7.77229118347168,
        5.492903232574463
      ],
      [
        3.0951952934265137,
        7.194353103637695,
        -2.5148301124572754
      ],
      [
        8.520364761352539,
        4.6297197341918945,
        -2.910383701324463
      ],
      [
        9.263083457946777,
        -1.6531528234481812,
        0.09692837297916412
      ],
      [
        -5.16232442855835,
        -5.5047502517700195,
        1.064184308052063
      ],
      [
        -5.817878246307373,
        1.8224046230316162,
        -1.3816872835159302
      ],
      [
        4.698328495025635,
        2.8481082916259766,
        -2.033536672592163
      ],
      [
        -0.5722792744636536,
        -5.434439182281494,
        -2.256232261657715
      ],
      [
        -1.5397120714187622,
        3.591094970703125,
        -1.5922338962554932
      ],
      [
        -6.151818752288818,
        1.16728937625885,
        -4.220874786376953
      ],
      [
        -0.9608123302459717,
        1.352124810218811,
        -4.711530685424805
      ],
      [
        -2.7689995765686035,
        3.3213305473327637,
        2.2826547622680664
      ],
      [
        -4.948794364929199,
        -0.703226625919342,
        -3.233873128890991
      ],
      [
        -7.088471412658691,
        -3.7314348220825195,
        1.0790820121765137
      ],
      [
        -6.757979869842529,
        -3.6142826080322266,
        -1.2224845886230469
      ],
      [
        -1.0324268341064453,
        5.722011089324951,
        0.206795334815979
      ],
      [
        -4.3211669921875,
        -5.6402268409729,
        -4.4013566970825195
      ],
      [
        -5.848071098327637,
        -0.681833028793335,
        0.9092532992362976
      ],
      [
        -3.7197234630584717,
        4.581867218017578,
        -0.29874351620674133
      ],
      [
        -5.119947910308838,
        -5.163213729858398,
        1.0760338306427002
      ],
      [
        4.593952655792236,
        3.0421512126922607,
        0.08420708030462265
      ],
      [
        0.883047342300415,
        -3.1935365200042725,
        -5.439525127410889
      ],
      [
        -5.078015327453613,
        1.0332952737808228,
        -0.9500019550323486
      ],
      [
        11.126741409301758,
        -5.151670455932617,
        2.6575515270233154
      ],
      [
        -5.351309299468994,
        -3.633835792541504,
        4.780302047729492
      ],
      [
        -5.129528522491455,
        1.385929822921753,
        0.8179399967193604
      ],
      [
        -8.672677040100098,
        0.15344640612602234,
        -1.4112110137939453
      ],
      [
        3.6637487411499023,
        -1.7481036186218262,
        -1.6049648523330688
      ],
      [
        0.5805673003196716,
        -3.1895642280578613,
        -3.0905051231384277
      ],
      [
        -3.284977674484253,
        -7.489416599273682,
        -0.4752918481826782
      ],
      [
        8.058831214904785,
        -2.0578737258911133,
        -1.7772752046585083
      ],
      [
        5.153416156768799,
        1.6116427183151245,
        -2.8299343585968018
      ],
      [
        -4.8598737716674805,
        -3.8738796710968018,
        0.9445903301239014
      ],
      [
        -11.786885261535645,
        -3.9013640880584717,
        -3.035116195678711
      ],
      [
        -8.393394470214844,
        -3.626505136489868,
        -0.24377042055130005
      ],
      [
        -5.293091297149658,
        -5.523752689361572,
        0.8516351580619812
      ],
      [
        -5.77773904800415,
        1.2977031469345093,
        -1.5273940563201904
      ],
      [
        -3.755047559738159,
        1.0732139348983765,
        0.5876851081848145
      ],
      [
        4.223156452178955,
        0.624996542930603,
        -7.343319892883301
      ],
      [
        8.283777236938477,
        -0.296675443649292,
        3.1301729679107666
      ],
      [
        2.5358166694641113,
        -4.988585472106934,
        1.7947944402694702
      ],
      [
        2.0935709476470947,
        -1.6414892673492432,
        -2.1768345832824707
      ],
      [
        5.673129558563232,
        -4.71146821975708,
        0.9380308985710144
      ],
      [
        2.2358222007751465,
        -0.3800290822982788,
        -1.226730227470398
      ],
      [
        -8.732035636901855,
        -2.4642691612243652,
        -7.469449996948242
      ],
      [
        -9.239730834960938,
        0.9500295519828796,
        0.5241028070449829
      ],
      [
        7.5080647468566895,
        0.6070843935012817,
        1.2478065490722656
      ],
      [
        -3.579854726791382,
        3.811800718307495,
        -1.1585602760314941
      ],
      [
        2.5290908813476562,
        -4.723934650421143,
        -1.024733066558838
      ],
      [
        -5.97918176651001,
        0.6418020725250244,
        3.841658115386963
      ],
      [
        -2.2271289825439453,
        -7.041665554046631,
        5.358534336090088
      ],
      [
        -0.8582866191864014,
        -3.6351473331451416,
        1.2040294408798218
      ],
      [
        2.6831161975860596,
        -1.150291919708252,
        4.032637119293213
      ],
      [
        -3.2620081901550293,
        -0.043277036398649216,
        1.7878223657608032
      ],
      [
        4.490288734436035,
        -0.2802935838699341,
        0.030427290126681328
      ],
      [
        -4.949830055236816,
        -5.540875434875488,
        -2.247265100479126
      ],
      [
        -3.658229112625122,
        1.387037992477417,
        5.829458713531494
      ],
      [
        -6.86887788772583,
        2.880589485168457,
        -0.7319678068161011
      ],
      [
        -4.870550632476807,
        0.08020330965518951,
        -0.8692785501480103
      ],
      [
        -4.743798732757568,
        2.893186569213867,
        0.7885710597038269
      ],
      [
        5.297781944274902,
        -1.8018970489501953,
        1.7420598268508911
      ],
      [
        -5.929401397705078,
        -3.6294915676116943,
        0.2583138644695282
      ],
      [
        -8.380425453186035,
        -4.18832540512085,
        -0.6954300999641418
      ],
      [
        -2.7973318099975586,
        -6.724050521850586,
        2.0279839038848877
      ],
      [
        -2.613572597503662,
        2.9169962406158447,
        0.5854912996292114
      ],
      [
        3.615006446838379,
        -1.5486699342727661,
        -0.6653006076812744
      ],
      [
        -1.642499566078186,
        4.784116268157959,
        -0.4878344237804413
      ],
      [
        0.6922224164009094,
        6.745063781738281,
        1.2187575101852417
      ],
      [
        -7.8344807624816895,
        1.6892509460449219,
        -2.662196397781372
      ],
      [
        -6.096879959106445,
        6.41165828704834,
        -7.479800224304199
      ],
      [
        -4.3805623054504395,
        6.295644283294678,
        -1.05747652053833
      ],
      [
        -0.4850125312805176,
        4.299488067626953,
        4.587686061859131
      ],
      [
        -6.712346076965332,
        -3.5966851711273193,
        -2.043672800064087
      ],
      [
        9.666617393493652,
        -5.114494800567627,
        -3.6939847469329834
      ],
      [
        -3.2591753005981445,
        1.3236557245254517,
        0.03363462910056114
      ],
      [
        -6.400463581085205,
        1.4608432054519653,
        0.4581308364868164
      ],
      [
        -3.970397472381592,
        -4.618183612823486,
        -0.8383840322494507
      ],
      [
        0.7440078854560852,
        4.013911247253418,
        2.235316753387451
      ],
      [
        6.945087909698486,
        -0.38400620222091675,
        3.1699447631835938
      ],
      [
        -4.500711917877197,
        3.1009562015533447,
        1.407912015914917
      ],
      [
        1.437622308731079,
        -3.04282283782959,
        -6.526254653930664
      ],
      [
        5.709964752197266,
        -0.847283124923706,
        1.567655324935913
      ],
      [
        -1.887958288192749,
        -0.6096261143684387,
        -5.55684232711792
      ],
      [
        -3.9153854846954346,
        1.6180639266967773,
        -1.4208619594573975
      ],
      [
        1.0794318914413452,
        7.155004024505615,
        -1.4143915176391602
      ],
      [
        -5.667471408843994,
        0.29251694679260254,
        -0.526346743106842
      ],
      [
        -4.3262619972229,
        -4.15226411819458,
        1.7468749284744263
      ],
      [
        -7.746686935424805,
        -3.043856382369995,
        -1.2576390504837036
      ],
      [
        -1.4370942115783691,
        5.275950908660889,
        0.736816942691803
      ],
      [
        5.810910701751709,
        -0.5923009514808655,
        -1.275912880897522
      ],
      [
        -1.0829615592956543,
        2.7726125717163086,
        -3.368422746658325
      ],
      [
        -1.5889862775802612,
        -5.276215076446533,
        1.880569577217102
      ],
      [
        -1.087082862854004,
        9.146302223205566,
        -1.108797550201416
      ],
      [
        -5.914614200592041,
        -1.940233588218689,
        0.35323870182037354
      ],
      [
        2.8782317638397217,
        -3.7750070095062256,
        2.736668825149536
      ],
      [
        5.806687831878662,
        -0.37200018763542175,
        4.0955281257629395
      ],
      [
        -2.7820889949798584,
        -1.9998328685760498,
        7.374983310699463
      ],
      [
        -4.843334197998047,
        1.6648615598678589,
        -0.34556299448013306
      ],
      [
        -4.249312400817871,
        -0.3043771982192993,
        1.3211514949798584
      ],
      [
        -4.257329940795898,
        2.7873177528381348,
        -1.5884743928909302
      ],
      [
        -6.5901103019714355,
        -0.6022390127182007,
        -5.3732991218566895
      ],
      [
        -2.627246618270874,
        6.295333385467529,
        -0.7110912799835205
      ],
      [
        3.8702404499053955,
        -0.2813297510147095,
        -6.018162727355957
      ],
      [
        -1.0836066007614136,
        8.558501243591309,
        1.1062744855880737
      ],
      [
        -7.976512908935547,
        1.810896396636963,
        -6.422811508178711
      ],
      [
        4.025002479553223,
        -1.8567596673965454,
        -1.7429982423782349
      ],
      [
        -2.6734516620635986,
        2.948941946029663,
        -0.8853141069412231
      ],
      [
        -1.1768302917480469,
        5.341953277587891,
        5.213392734527588
      ],
      [
        7.444183826446533,
        -1.4113373756408691,
        0.9940746426582336
      ],
      [
        -0.34407874941825867,
        -1.541455626487732,
        0.22748172283172607
      ],
      [
        6.627185344696045,
        1.344712734222412,
        -4.715898513793945
      ],
      [
        3.426727771759033,
        -0.6767677068710327,
        -0.25716865062713623
      ],
      [
        -0.7405787706375122,
        3.5012850761413574,
        1.0942449569702148
      ],
      [
        -0.9980880618095398,
        -5.486593723297119,
        1.8543592691421509
      ],
      [
        3.2519898414611816,
        -4.881922245025635,
        0.12507091462612152
      ],
      [
        1.6224443912506104,
        -1.8984086513519287,
        2.7491908073425293
      ],
      [
        2.378410577774048,
        2.6856935024261475,
        -8.388725280761719
      ],
      [
        5.010394096374512,
        1.9224698543548584,
        -3.8864400386810303
      ],
      [
        -3.1842446327209473,
        -3.4603521823883057,
        -9.947050094604492
      ],
      [
        -2.234133005142212,
        6.663529872894287,
        -0.4031587243080139
      ],
      [
        1.9958058595657349,
        6.556612491607666,
        -2.866335153579712
      ],
      [
        2.609449863433838,
        5.965834140777588,
        -0.5594875812530518
      ],
      [
        3.1785881519317627,
        -2.487327814102173,
        1.8425811529159546
      ],
      [
        -5.689411163330078,
        -2.734724998474121,
        -3.5620572566986084
      ],
      [
        -5.628159523010254,
        -5.410442352294922,
        -2.979081630706787
      ],
      [
        5.331516265869141,
        0.7048425674438477,
        -2.9528846740722656
      ],
      [
        9.597539901733398,
        3.143373489379883,
        5.130661964416504
      ],
      [
        -7.663879871368408,
        -1.4958791732788086,
        -1.1549376249313354
      ],
      [
        3.603543996810913,
        0.5440763831138611,
        -0.9125483632087708
      ],
      [
        -6.754344463348389,
        -5.9525628089904785,
        5.346027851104736
      ],
      [
        -5.951310157775879,
        0.3733847737312317,
        1.822476863861084
      ],
      [
        -5.386424541473389,
        -2.600719451904297,
        0.3163074851036072
      ],
      [
        -4.876738548278809,
        2.9644439220428467,
        1.7424333095550537
      ],
      [
        -2.243551015853882,
        -4.916580677032471,
        1.9577325582504272
      ],
      [
        -5.403237342834473,
        -0.04648206755518913,
        1.6563458442687988
      ],
      [
        -1.891805648803711,
        0.3500552773475647,
        -2.0968477725982666
      ],
      [
        3.0565404891967773,
        4.185912609100342,
        -0.14306172728538513
      ],
      [
        4.515836715698242,
        0.0911082997918129,
        -2.6323812007904053
      ],
      [
        -4.048779010772705,
        -5.469720363616943,
        1.096900224685669
      ],
      [
        -5.181005954742432,
        -4.769861698150635,
        -1.1886241436004639
      ],
      [
        2.342501640319824,
        -4.087413311004639,
        -0.8410875201225281
      ],
      [
        -0.29044851660728455,
        7.9741644859313965,
        -3.6481945514678955
      ],
      [
        -6.477795124053955,
        -3.036837339401245,
        -1.5153175592422485
      ],
      [
        -3.0366580486297607,
        5.05365514755249,
        3.070833921432495
      ],
      [
        4.970675468444824,
        0.4118524193763733,
        -0.11402471363544464
      ],
      [
        -3.977086067199707,
        0.2784842848777771,
        -1.9936565160751343
      ],
      [
        -3.05668568611145,
        -4.16812801361084,
        -1.1869792938232422
      ],
      [
        -5.583075046539307,
        -0.040095314383506775,
        -0.1123122125864029
      ],
      [
        -5.142033576965332,
        -6.025400161743164,
        -3.54822039604187
      ],
      [
        4.122550964355469,
        3.1483991146087646,
        2.4448487758636475
      ],
      [
        -1.701005220413208,
        4.641662120819092,
        9.567493438720703
      ],
      [
        7.668569087982178,
        4.157070636749268,
        12.232868194580078
      ],
      [
        3.266829252243042,
        -1.1005185842514038,
        -1.246221661567688
      ],
      [
        -6.727836608886719,
        -0.9106971025466919,
        3.9323484897613525
      ],
      [
        -5.491146087646484,
        0.07895461469888687,
        0.16878625750541687
      ],
      [
        5.921175956726074,
        2.1369924545288086,
        4.876884937286377
      ],
      [
        -5.648410320281982,
        0.7954925894737244,
        -1.6344537734985352
      ],
      [
        3.7256579399108887,
        -3.136277675628662,
        -0.77047199010849
      ],
      [
        6.328659534454346,
        -0.24576985836029053,
        1.9453659057617188
      ],
      [
        -1.3431318998336792,
        2.0925214290618896,
        2.557539701461792
      ],
      [
        5.3189263343811035,
        -1.630397915840149,
        6.111911773681641
      ],
      [
        -9.285118103027344,
        -3.7578561305999756,
        1.7264832258224487
      ],
      [
        -0.15201930701732635,
        -6.661174774169922,
        6.373687267303467
      ],
      [
        -2.040987491607666,
        3.802081346511841,
        4.237554550170898
      ],
      [
        5.052438259124756,
        4.158820152282715,
        1.370723009109497
      ],
      [
        7.853044509887695,
        -4.710241317749023,
        0.31999632716178894
      ],
      [
        -4.926738262176514,
        -3.1646642684936523,
        11.389427185058594
      ],
      [
        4.488826751708984,
        5.579545497894287,
        7.686194896697998
      ],
      [
        -2.871246099472046,
        -3.683955192565918,
        -1.289713978767395
      ],
      [
        -0.6326061487197876,
        -2.146143913269043,
        -0.8046111464500427
      ],
      [
        7.658061504364014,
        4.251479148864746,
        -2.2828595638275146
      ],
      [
        0.001232203678227961,
        1.0266952514648438,
        -0.5431752800941467
      ],
      [
        -5.261082172393799,
        -2.0181963443756104,
        -0.4036664068698883
      ],
      [
        -4.79182243347168,
        0.6729511618614197,
        -1.7282960414886475
      ],
      [
        1.7957886457443237,
        8.074707984924316,
        -3.4639883041381836
      ],
      [
        6.00568151473999,
        0.5197480320930481,
        2.3219494819641113
      ],
      [
        -5.057724475860596,
        2.697429656982422,
        0.8175368309020996
      ],
      [
        2.0349860191345215,
        -3.1279942989349365,
        -0.24131669104099274
      ],
      [
        -7.988890647888184,
        -1.1593689918518066,
        1.5687061548233032
      ],
      [
        3.9696311950683594,
        -2.056391716003418,
        -1.8182576894760132
      ],
      [
        -5.2487711906433105,
        2.184760808944702,
        4.344658374786377
      ],
      [
        5.879249095916748,
        -2.662867784500122,
        -1.2531561851501465
      ],
      [
        1.6185600757598877,
        -4.840811729431152,
        0.54848712682724
      ],
      [
        3.3697540760040283,
        0.5068320035934448,
        -0.0802018940448761
      ],
      [
        -3.7081170082092285,
        3.449289560317993,
        -1.538469910621643
      ],
      [
        3.886033535003662,
        -4.456441879272461,
        1.555668830871582
      ],
      [
        -3.316159248352051,
        -5.622931003570557,
        -2.733640193939209
      ],
      [
        2.3697807788848877,
        0.5871153473854065,
        -6.995266437530518
      ],
      [
        1.2383601665496826,
        -1.4151057004928589,
        -2.967139720916748
      ],
      [
        -3.9231066703796387,
        -3.5171608924865723,
        1.8828233480453491
      ],
      [
        -0.09183846414089203,
        6.970384120941162,
        0.7015599012374878
      ],
      [
        -3.5499870777130127,
        -0.8821335434913635,
        -10.092538833618164
      ],
      [
        -1.0229600667953491,
        4.857947826385498,
        3.0145533084869385
      ],
      [
        -3.022414445877075,
        8.670133590698242,
        4.176353454589844
      ],
      [
        6.126486778259277,
        -1.1163768768310547,
        -1.4363374710083008
      ]
    ]
  },
  "kind": "prefit_pls_readout",
  "output_standardize": 0,
  "rank": 3,
  "rna": {
    "bias": [
      34.55523681640625,
      49.227447509765625,
      179.48992919921875
    ],
    "input_dim": 384,
    "output_dim": 3,
    "weight": [
      [
        -0.5028495192527771,
        -0.5008666515350342,
        -0.06771059334278107
      ],
      [
        0.5461457371711731,
        -0.2716678977012634,
        0.26711562275886536
      ],
      [
        0.5532587766647339,
        -0.10762006789445877,
        0.2434399127960205
      ],
      [
        0.7338229417800903,
        -0.12829194962978363,
        -0.047487273812294006
      ],
      [
        0.12698638439178467,
        -0.590775191783905,
        -0.30098751187324524
      ],
      [
        -0.9803603887557983,
        -0.6150594353675842,
        -0.02892783097922802
      ],
      [
        -0.9184262752532959,
        -0.3914572596549988,
        -0.06488653272390366
      ],
      [
        -1.0857224464416504,
        -0.35207599401474,
        -0.4458652138710022
      ],
      [
        0.09661876410245895,
        0.5525752902030945,
        0.08138211816549301
      ],
      [
        -0.621917188167572,
        0.29637080430984497,
        -0.0718567743897438
      ],
      [
        0.5742210149765015,
        0.19386541843414307,
        -0.37086254358291626
      ],
      [
        -0.30283108353614807,
        0.5746285915374756,
        0.19586323201656342
      ],
      [
        -0.8951478600502014,
        -0.5247682332992554,
        -0.06545329093933105
      ],
      [
        0.5633583068847656,
        -0.34167540073394775,
        0.40572619438171387
      ],
      [
        -0.4404211640357971,
        -0.5540651679039001,
        -0.16991277039051056
      ],
      [
        -0.3170921206474304,
        0.5613005757331848,
        0.0163644440472126
      ],
      [
        0.6333467364311218,
        -0.019583910703659058,
        -0.5189835429191589
      ],
      [
        -0.6626031398773193,
        0.2663634121417999,
        0.015553486533463001
      ],
      [
        -0.9065409898757935,
        -0.8245691657066345,
        -0.34005796909332275
      ],
      [
        0.6417164206504822,
        0.10819137841463089,
        -0.4489934742450714
      ],
      [
        0.0310565996915102,
        -0.7734714150428772,
        -0.25173938274383545
      ],
      [
        -0.27983829379081726,
        0.6233801245689392,
        0.1561698317527771
      ],
      [
        0.7024840712547302,
        0.00441443407908082,
        -0.36162424087524414
      ],
      [
        -0.3246084153652191,
        -0.7129395604133606,
        -0.3769628405570984
      ],
      [
        -1.3042221069335938,
        -0.26447799801826477,
        -0.1664000302553177
      ],
      [
        -0.6112452745437622,
        -0.49963998794555664,
        0.003537313314154744
      ],
      [
        -0.673582911491394,
        0.2692193388938904,
        -0.05924317613244057
      ],
      [
        -0.3727928400039673,
        -0.49973955750465393,
        -0.2392323911190033
      ],
      [
        0.7287190556526184,
        -0.12619024515151978,
        -0.2941369414329529
      ],
      [
        0.6575056314468384,
        0.02531879022717476,
        -0.3823074400424957
      ],
      [
        0.6196287870407104,
        0.10571017116308212,
        -0.29978618025779724
      ],
      [
        -0.12462949007749557,
        0.5320367813110352,
        -0.011398334987461567
      ],
      [
        0.06260135769844055,
        -0.8160673975944519,
        -0.1608639806509018
      ],
      [
        -0.019280802458524704,
        -0.7672529220581055,
        -0.26604074239730835
      ],
      [
        0.04564198851585388,
        0.24441979825496674,
        -0.810102641582489
      ],
      [
        -0.25479021668434143,
        -0.6756325364112854,
        -0.1952221691608429
      ],
      [
        0.04191426932811737,
        0.14716291427612305,
        -0.6950311660766602
      ],
      [
        -0.09969675540924072,
        0.13596032559871674,
        -0.708318829536438
      ],
      [
        -0.4633427858352661,
        -0.5960106253623962,
        -0.12468677014112473
      ],
      [
        0.1763809621334076,
        -0.7744849324226379,
        -0.40706270933151245
      ],
      [
        -0.18678034842014313,
        0.5674442648887634,
        0.000430783984484151
      ],
      [
        0.5975878238677979,
        -0.1426800638437271,
        0.18734191358089447
      ],
      [
        -0.6244979500770569,
        0.3090447187423706,
        -0.15407197177410126
      ],
      [
        -0.6075586080551147,
        0.2983994483947754,
        -0.11466331779956818
      ],
      [
        -0.15956711769104004,
        0.5346350073814392,
        -0.1707366555929184
      ],
      [
        0.48629826307296753,
        -0.033031564205884933,
        0.3026960790157318
      ],
      [
        0.15375055372714996,
        0.3125668466091156,
        -0.7074001431465149
      ],
      [
        0.5646640658378601,
        0.06544406712055206,
        -0.3935398459434509
      ],
      [
        -0.45207613706588745,
        -0.4994748830795288,
        -0.2962295114994049
      ],
      [
        0.5391207933425903,
        -0.003024944569915533,
        -0.3780547082424164
      ],
      [
        -1.0833128690719604,
        -0.48199746012687683,
        -0.2810141444206238
      ],
      [
        -0.6534970998764038,
        0.3980013430118561,
        -0.06804553419351578
      ],
      [
        0.6747952699661255,
        -0.11396215111017227,
        0.25871697068214417
      ],
      [
        -0.1840687394142151,
        0.5670183897018433,
        0.03643830120563507
      ],
      [
        0.6032095551490784,
        -0.015424061566591263,
        -0.4357684552669525
      ],
      [
        -0.25964656472206116,
        0.586965024471283,
        0.1364775002002716
      ],
      [
        0.6527053117752075,
        -0.16447468101978302,
        -0.5850297808647156
      ],
      [
        -0.015103557147085667,
        0.06920062005519867,
        -0.7457285523414612
      ],
      [
        -0.4621151387691498,
        -0.6997483968734741,
        -0.14905321598052979
      ],
      [
        -0.4192653298377991,
        -0.5992941856384277,
        -0.05379929393529892
      ],
      [
        -0.6677207946777344,
        0.35967743396759033,
        -0.009303418919444084
      ],
      [
        0.06541420519351959,
        0.17076759040355682,
        -0.7784349918365479
      ],
      [
        0.5396762490272522,
        -0.004436954855918884,
        -0.31873905658721924
      ],
      [
        -0.2458706647157669,
        -0.7347602844238281,
        -0.31739315390586853
      ],
      [
        -0.08413514494895935,
        0.571649968624115,
        -0.06959455460309982
      ],
      [
        -0.21484531462192535,
        -0.5453316569328308,
        -0.1183873862028122
      ],
      [
        -0.7727164030075073,
        0.27939698100090027,
        0.029073867946863174
      ],
      [
        0.6370235681533813,
        -0.16327917575836182,
        0.24447952210903168
      ],
      [
        0.5620226860046387,
        -0.17981906235218048,
        0.19700996577739716
      ],
      [
        -0.20431065559387207,
        0.5222138166427612,
        -0.07584946602582932
      ],
      [
        0.292339950799942,
        0.4799942970275879,
        -0.616366982460022
      ],
      [
        0.6794453263282776,
        0.007085155695676804,
        -0.37787988781929016
      ],
      [
        -0.07199051976203918,
        0.5079432129859924,
        -0.06074843183159828
      ],
      [
        -1.3117746114730835,
        -0.3366127014160156,
        -0.08840512484312057
      ],
      [
        -0.7409155368804932,
        0.3430027663707733,
        0.005863316357135773
      ],
      [
        -0.5301567316055298,
        -0.5079975724220276,
        -0.3098766803741455
      ],
      [
        -0.5980860590934753,
        0.39151209592819214,
        -0.03278585523366928
      ],
      [
        0.6013219356536865,
        0.005101542454212904,
        -0.3385190963745117
      ],
      [
        -0.9406848549842834,
        -0.6673494577407837,
        -0.3934941291809082
      ],
      [
        -0.7681488990783691,
        -0.5688294768333435,
        -0.03487321361899376
      ],
      [
        -1.0739818811416626,
        -0.24157100915908813,
        0.064107745885849
      ],
      [
        -0.5247517824172974,
        -0.3742365539073944,
        -0.23096626996994019
      ],
      [
        -0.5965675115585327,
        0.2933887541294098,
        -0.03859521821141243
      ],
      [
        0.17021256685256958,
        0.2689439058303833,
        -0.7191785573959351
      ],
      [
        -0.1640494465827942,
        0.36350685358047485,
        -0.7380126118659973
      ],
      [
        -0.6259522438049316,
        0.4783959686756134,
        -0.13969649374485016
      ],
      [
        -0.017592083662748337,
        0.5441070795059204,
        -0.02042452059686184
      ],
      [
        0.6071985960006714,
        0.08030211180448532,
        -0.4802800416946411
      ],
      [
        -0.011623428203165531,
        0.22373677790164948,
        -0.5827378034591675
      ],
      [
        0.5692527890205383,
        -0.028555363416671753,
        -0.4000643789768219
      ],
      [
        0.1457536816596985,
        0.5249555110931396,
        -0.18657058477401733
      ],
      [
        -0.7438335418701172,
        0.30277663469314575,
        -0.04703548550605774
      ],
      [
        -0.5911897420883179,
        0.37787607312202454,
        0.0346202477812767
      ],
      [
        0.010737673379480839,
        0.5421934127807617,
        -0.018162108957767487
      ],
      [
        0.18923334777355194,
        0.23591427505016327,
        -0.8846731185913086
      ],
      [
        -0.12198217213153839,
        0.29892897605895996,
        -0.7106799483299255
      ],
      [
        -1.0362482070922852,
        -0.5058223605155945,
        -0.32935306429862976
      ],
      [
        -0.12910209596157074,
        0.2373238205909729,
        -0.6067531108856201
      ],
      [
        0.6047102808952332,
        -0.18902099132537842,
        0.21389926970005035
      ],
      [
        0.7005423903465271,
        -0.3387853503227234,
        0.15077126026153564
      ],
      [
        0.5582117438316345,
        0.021978069096803665,
        -0.32328808307647705
      ],
      [
        -1.233202576637268,
        -0.2817952036857605,
        -0.09692385792732239
      ],
      [
        -0.505759596824646,
        -0.4259619414806366,
        -0.09558984637260437
      ],
      [
        0.5975859761238098,
        -0.1754489243030548,
        0.2859296500682831
      ],
      [
        -0.39532455801963806,
        -0.4819011092185974,
        -0.07822207361459732
      ],
      [
        0.07175778597593307,
        0.5876778960227966,
        -0.1447116583585739
      ],
      [
        -0.13579434156417847,
        -0.8699408769607544,
        -0.23550790548324585
      ],
      [
        -0.5539255738258362,
        0.2389007806777954,
        -0.0010312821250408888
      ],
      [
        0.02625579945743084,
        0.2875925600528717,
        -0.7152416706085205
      ],
      [
        0.08376444876194,
        0.33538633584976196,
        -0.6265959143638611
      ],
      [
        0.3516383171081543,
        0.3320988714694977,
        -0.6551693081855774
      ],
      [
        -0.5181238055229187,
        -0.3460313677787781,
        0.023180954158306122
      ],
      [
        -1.0853245258331299,
        -0.5104050040245056,
        -0.39706528186798096
      ],
      [
        0.09731336683034897,
        -0.7816615104675293,
        -0.2836296856403351
      ],
      [
        -0.34454721212387085,
        -0.7477933764457703,
        -0.18265172839164734
      ],
      [
        -0.5147689580917358,
        -0.49407318234443665,
        -0.21276117861270905
      ],
      [
        -0.5940368175506592,
        -0.5050381422042847,
        -0.1699119359254837
      ],
      [
        -1.108255386352539,
        -0.25125670433044434,
        -0.4199204444885254
      ],
      [
        0.5706755518913269,
        -0.04444093629717827,
        -0.4006883203983307
      ],
      [
        0.5759874582290649,
        -0.15287910401821136,
        0.08762767165899277
      ],
      [
        -0.43149206042289734,
        -0.7498517036437988,
        -0.3288404643535614
      ],
      [
        -0.06913557648658752,
        0.5209085941314697,
        -0.008604766800999641
      ],
      [
        -0.650241494178772,
        -0.7225295305252075,
        -0.4128786027431488
      ],
      [
        -0.493222713470459,
        -0.4619675874710083,
        -0.2593688368797302
      ],
      [
        -0.3316359221935272,
        -0.7962014675140381,
        -0.22377175092697144
      ],
      [
        0.182319775223732,
        0.3658663332462311,
        -0.676297664642334
      ],
      [
        -0.5664356350898743,
        0.5457184910774231,
        -0.21402639150619507
      ],
      [
        -0.4051983654499054,
        -0.6732448935508728,
        -0.2993868887424469
      ],
      [
        -0.6460691094398499,
        0.30232176184654236,
        -0.14088687300682068
      ],
      [
        -1.0061476230621338,
        -0.5902238488197327,
        -0.18822646141052246
      ],
      [
        -1.0859051942825317,
        -0.35282769799232483,
        -0.24440263211727142
      ],
      [
        -0.25340375304222107,
        -0.6387349963188171,
        -0.37927010655403137
      ],
      [
        0.16516216099262238,
        -0.5839685201644897,
        -0.3757544457912445
      ],
      [
        0.5626706480979919,
        -0.01458452083170414,
        -0.3685588240623474
      ],
      [
        0.3166556656360626,
        0.16117137670516968,
        -0.5330823659896851
      ],
      [
        -0.5831701159477234,
        0.45393216609954834,
        -0.13531559705734253
      ],
      [
        0.0804024264216423,
        0.20641469955444336,
        -0.8919680118560791
      ],
      [
        -0.04493102431297302,
        -0.5954463481903076,
        -0.34214696288108826
      ],
      [
        -0.3994298279285431,
        -0.45168063044548035,
        -0.29264336824417114
      ],
      [
        -0.052215032279491425,
        -0.6937882900238037,
        -0.3409120738506317
      ],
      [
        -0.5699888467788696,
        0.42133083939552307,
        -0.11574991792440414
      ],
      [
        0.6479120850563049,
        -0.12260593473911285,
        -0.4719424545764923
      ],
      [
        0.49651333689689636,
        -0.3596074879169464,
        0.3264836370944977
      ],
      [
        -1.066473364830017,
        -0.32693538069725037,
        -0.18163162469863892
      ],
      [
        0.08064928650856018,
        -0.8743383288383484,
        -0.43240758776664734
      ],
      [
        -0.5680598020553589,
        -0.2944256365299225,
        -0.16105525195598602
      ],
      [
        -0.03724469617009163,
        0.4758910536766052,
        0.047160495072603226
      ],
      [
        -0.024363869801163673,
        -0.6412739753723145,
        -0.2116435021162033
      ],
      [
        -1.00662100315094,
        -0.04758666455745697,
        -0.09010400623083115
      ],
      [
        -0.6578783392906189,
        0.5193943977355957,
        -0.11196458339691162
      ],
      [
        -0.08201298117637634,
        0.23518489301204681,
        -0.73131263256073
      ],
      [
        -0.049502380192279816,
        0.2898792326450348,
        -0.8355780839920044
      ],
      [
        -0.14011919498443604,
        0.6650946736335754,
        -0.2148924469947815
      ],
      [
        -0.6131241917610168,
        0.5603378415107727,
        -0.1913096159696579
      ],
      [
        -0.9309995174407959,
        -0.7532840967178345,
        -0.4168170690536499
      ],
      [
        -0.4078613817691803,
        0.4960145652294159,
        -0.7074306011199951
      ],
      [
        -0.767581582069397,
        0.27673763036727905,
        0.10263489186763763
      ],
      [
        -0.0604201965034008,
        -0.9862908720970154,
        -0.1908179223537445
      ],
      [
        -0.40783002972602844,
        -0.6542824506759644,
        -0.2690347135066986
      ],
      [
        0.6086575388908386,
        -0.20125019550323486,
        0.1650497317314148
      ],
      [
        -0.6008732914924622,
        0.32741254568099976,
        -0.08190538734197617
      ],
      [
        -0.29602599143981934,
        -0.8234867453575134,
        -0.26304709911346436
      ],
      [
        0.5057262182235718,
        -0.37331265211105347,
        0.4225024878978729
      ],
      [
        0.19847986102104187,
        0.3830176293849945,
        -0.6296720504760742
      ],
      [
        0.03395039215683937,
        0.20255695283412933,
        -0.7786570191383362
      ],
      [
        -0.5201788544654846,
        -0.7291259765625,
        -0.3469559848308563
      ],
      [
        -0.8029956221580505,
        -0.621387243270874,
        -0.054528333246707916
      ],
      [
        -0.5955083966255188,
        -0.5192057490348816,
        -0.16910861432552338
      ],
      [
        -0.031795866787433624,
        -0.673533022403717,
        -0.070994071662426
      ],
      [
        0.18017829954624176,
        -0.8924567699432373,
        -0.4096764028072357
      ],
      [
        -0.7720023393630981,
        0.25229981541633606,
        -0.10600892454385757
      ],
      [
        -0.23532237112522125,
        0.6019185781478882,
        -0.01766292005777359
      ],
      [
        0.07182956486940384,
        0.5049685835838318,
        -0.09285527467727661
      ],
      [
        -0.0501721128821373,
        0.4687768816947937,
        -0.1203051432967186
      ],
      [
        -0.3430999517440796,
        0.5875535607337952,
        -0.08366265892982483
      ],
      [
        0.6757346391677856,
        0.01144555862993002,
        -0.4203851521015167
      ],
      [
        -1.2014377117156982,
        -0.26478996872901917,
        -0.16289354860782623
      ],
      [
        -0.9496510624885559,
        -0.5554290413856506,
        -0.520252525806427
      ],
      [
        0.12206339836120605,
        0.35409730672836304,
        -0.7563381195068359
      ],
      [
        -0.20947757363319397,
        0.5925949811935425,
        0.051061857491731644
      ],
      [
        0.6997770667076111,
        -0.040877293795347214,
        -0.45815137028694153
      ],
      [
        -0.7211560606956482,
        0.24439890682697296,
        -0.2648090720176697
      ],
      [
        -0.1609019786119461,
        0.6076844930648804,
        0.02344873547554016
      ],
      [
        -0.6434087157249451,
        0.25166329741477966,
        -0.06443549692630768
      ],
      [
        -0.050582680851221085,
        0.5046201944351196,
        -0.039315078407526016
      ],
      [
        -0.050512488931417465,
        0.1407032012939453,
        -0.7468757033348083
      ],
      [
        -0.4050670266151428,
        -0.47490549087524414,
        -0.06039738282561302
      ],
      [
        -0.6335629224777222,
        0.28534525632858276,
        -0.044470254331827164
      ],
      [
        0.6203209161758423,
        -0.15823929011821747,
        0.10617735236883163
      ],
      [
        0.570112407207489,
        -0.15399663150310516,
        0.16079770028591156
      ],
      [
        0.6145941019058228,
        -0.24644406139850616,
        0.24179396033287048
      ],
      [
        -0.8337140679359436,
        -0.4730067551136017,
        -0.15348027646541595
      ],
      [
        -0.06848863512277603,
        -0.8730519413948059,
        -0.4121088981628418
      ],
      [
        0.6170616745948792,
        -0.11654741317033768,
        -0.47603458166122437
      ],
      [
        -0.21974030137062073,
        -0.6385266780853271,
        -0.2544354498386383
      ],
      [
        -0.46429145336151123,
        -0.3310450613498688,
        -0.43314701318740845
      ],
      [
        0.607811689376831,
        -0.2609468400478363,
        0.21564914286136627
      ],
      [
        -1.0677905082702637,
        -0.40233314037323,
        -0.27194008231163025
      ],
      [
        -0.14445100724697113,
        0.6815900802612305,
        0.059698089957237244
      ],
      [
        -0.8422077298164368,
        -0.586710512638092,
        -0.22305600345134735
      ],
      [
        -0.4793986976146698,
        -0.6506695747375488,
        -0.5051594972610474
      ],
      [
        -0.6261333227157593,
        0.44672664999961853,
        -0.07226940989494324
      ],
      [
        0.6030877232551575,
        0.01677757129073143,
        -0.38243070244789124
      ],
      [
        0.5158458352088928,
        -0.12391378730535507,
        0.33640894293785095
      ],
      [
        -1.0853023529052734,
        -0.6036316156387329,
        -0.3391472399234772
      ],
      [
        -0.3003242015838623,
        -0.5675467252731323,
        -0.34338507056236267
      ],
      [
        -0.14727897942066193,
        -0.8025110960006714,
        -0.48777511715888977
      ],
      [
        -0.33112943172454834,
        -0.4544093608856201,
        -0.13764439523220062
      ],
      [
        -0.17622937262058258,
        0.6685507297515869,
        -0.11283721774816513
      ],
      [
        -0.7114133834838867,
        0.289874404668808,
        -0.10980284959077835
      ],
      [
        0.6083054542541504,
        -0.08264981955289841,
        -0.3603894114494324
      ],
      [
        -0.6272742748260498,
        0.43184947967529297,
        -0.11989163607358932
      ],
      [
        -0.06700348109006882,
        0.46574512124061584,
        -0.5984753966331482
      ],
      [
        -1.0370678901672363,
        -0.5745988488197327,
        -0.3107614815235138
      ],
      [
        -0.45801806449890137,
        -0.5225201845169067,
        -0.3071836233139038
      ],
      [
        0.00830826349556446,
        0.04724270477890968,
        -0.8256602883338928
      ],
      [
        -1.1632686853408813,
        -0.47662174701690674,
        -0.28496891260147095
      ],
      [
        0.5856844186782837,
        -0.1009584590792656,
        -0.4538078308105469
      ],
      [
        0.06421958655118942,
        0.40813544392585754,
        -0.6133261919021606
      ],
      [
        -0.18145976960659027,
        0.4960041046142578,
        -0.06515922397375107
      ],
      [
        0.059318576008081436,
        0.3810449242591858,
        -0.5220044255256653
      ],
      [
        -1.1885451078414917,
        -0.40743279457092285,
        -0.2789393365383148
      ],
      [
        -0.543141782283783,
        -0.40285179018974304,
        -0.06174658238887787
      ],
      [
        -0.6982294321060181,
        0.5069084763526917,
        0.007198740728199482
      ],
      [
        -0.5939852595329285,
        -0.47032392024993896,
        -0.05330544710159302
      ],
      [
        -1.0260424613952637,
        -0.4700603485107422,
        -0.07956182211637497
      ],
      [
        -0.11840572953224182,
        0.5230538845062256,
        0.028353150933980942
      ],
      [
        -0.5966783761978149,
        -0.5083299279212952,
        -0.16501948237419128
      ],
      [
        -0.5873627662658691,
        0.31639036536216736,
        0.019759036600589752
      ],
      [
        -0.38766756653785706,
        -0.3782091736793518,
        -0.3320982754230499
      ],
      [
        -1.0354092121124268,
        -0.4744972586631775,
        -0.19936251640319824
      ],
      [
        0.5028189420700073,
        -0.27282169461250305,
        0.2907503843307495
      ],
      [
        -0.02005789428949356,
        0.5282106399536133,
        0.090293288230896
      ],
      [
        0.675625741481781,
        -0.1752569079399109,
        0.12221937626600266
      ],
      [
        -1.1880494356155396,
        -0.6417933702468872,
        -0.38870513439178467
      ],
      [
        -0.36818116903305054,
        -0.6156585216522217,
        -0.2064998894929886
      ],
      [
        -0.19908683001995087,
        -0.6783422827720642,
        -0.1569753885269165
      ],
      [
        -0.3413253128528595,
        -0.6437989473342896,
        -0.2142869234085083
      ],
      [
        -0.16386891901493073,
        -0.6492407917976379,
        -0.15471185743808746
      ],
      [
        -0.23475389182567596,
        -0.7308005690574646,
        -0.05239347741007805
      ],
      [
        -0.014909621328115463,
        0.14295749366283417,
        -0.7862125039100647
      ],
      [
        -0.32004135847091675,
        -0.5496388077735901,
        -0.2504115104675293
      ],
      [
        -0.5751836895942688,
        -0.36264505982398987,
        -0.09898970276117325
      ],
      [
        0.6883222460746765,
        -0.1027093380689621,
        -0.34971606731414795
      ],
      [
        0.6791061162948608,
        -0.19988971948623657,
        0.19258464872837067
      ],
      [
        0.35993990302085876,
        -0.20911024510860443,
        0.38005903363227844
      ],
      [
        -0.7178539037704468,
        0.284708172082901,
        -0.03843092918395996
      ],
      [
        -1.0870113372802734,
        -0.6342142820358276,
        -0.2192544937133789
      ],
      [
        -0.03934694081544876,
        0.3684247136116028,
        -0.6084223389625549
      ],
      [
        -0.7682598829269409,
        0.3315082788467407,
        -0.007477444596588612
      ],
      [
        0.6908926367759705,
        0.008138524368405342,
        -0.4948118329048157
      ],
      [
        0.5406398773193359,
        0.08055754005908966,
        -0.3551470935344696
      ],
      [
        0.564917266368866,
        0.042185377329587936,
        -0.2966931164264679
      ],
      [
        -0.2124459445476532,
        0.545952320098877,
        0.037579722702503204
      ],
      [
        -0.4651017487049103,
        -0.7297344207763672,
        -0.2179034799337387
      ],
      [
        -0.12138590961694717,
        -0.5301627516746521,
        -0.3964151442050934
      ],
      [
        0.5230250358581543,
        0.044068772345781326,
        -0.4088033437728882
      ],
      [
        0.6328040361404419,
        -0.14030195772647858,
        -0.37956759333610535
      ],
      [
        0.6348685622215271,
        -0.10391459614038467,
        0.15821197628974915
      ],
      [
        0.2226969599723816,
        0.3072347640991211,
        -0.6362146735191345
      ],
      [
        0.17059311270713806,
        -0.9383506178855896,
        -0.30731233954429626
      ],
      [
        0.6088157892227173,
        0.005936445668339729,
        -0.4539198577404022
      ],
      [
        -0.391171395778656,
        -0.5781283378601074,
        -0.3081664741039276
      ],
      [
        0.07848329097032547,
        0.5556767582893372,
        -0.064991794526577
      ],
      [
        -0.14955618977546692,
        0.18035832047462463,
        -0.6956791281700134
      ],
      [
        -0.7603679299354553,
        0.4828202724456787,
        -0.07646751403808594
      ],
      [
        0.6606858372688293,
        -0.09968522936105728,
        0.34778597950935364
      ],
      [
        0.6130395531654358,
        0.02120319940149784,
        -0.40705034136772156
      ],
      [
        -0.6039915084838867,
        -0.36200058460235596,
        -0.09688568115234375
      ],
      [
        -0.4898253083229065,
        -0.5460056066513062,
        -0.1433325558900833
      ],
      [
        -0.6092802286148071,
        0.3309238851070404,
        -0.03776836395263672
      ],
      [
        0.6059279441833496,
        -0.2695836126804352,
        0.18133194744586945
      ],
      [
        -0.10296958684921265,
        0.5565752387046814,
        0.03445172309875488
      ],
      [
        -0.6399887800216675,
        0.494160532951355,
        -0.07347243279218674
      ],
      [
        0.7438603043556213,
        -0.17526023089885712,
        0.19945135712623596
      ],
      [
        0.6224808096885681,
        -0.307437539100647,
        0.24718010425567627
      ],
      [
        0.4824158847332001,
        -0.2992921471595764,
        0.17778781056404114
      ],
      [
        -0.27050116658210754,
        -0.5900925397872925,
        -0.14095552265644073
      ],
      [
        -0.6023364663124084,
        0.4969451427459717,
        -0.12748976051807404
      ],
      [
        -0.014450139366090298,
        0.5749229192733765,
        -0.03554646298289299
      ],
      [
        -0.6903679966926575,
        0.33040308952331543,
        -0.021302590146660805
      ],
      [
        0.16778862476348877,
        0.2723610997200012,
        -0.706012487411499
      ],
      [
        -0.743347704410553,
        0.24101091921329498,
        -0.027628423646092415
      ],
      [
        -0.3610611855983734,
        0.5993555784225464,
        -0.05024651437997818
      ],
      [
        0.7413376569747925,
        0.15294907987117767,
        -0.539531409740448
      ],
      [
        -0.1309194266796112,
        -0.69975745677948,
        -0.11075388640165329
      ],
      [
        0.00999347772449255,
        0.6207709908485413,
        -0.015150290913879871
      ],
      [
        -0.28381434082984924,
        0.12953509390354156,
        -0.7366657257080078
      ],
      [
        -1.195123314857483,
        -0.522493839263916,
        -0.19340839982032776
      ],
      [
        -1.078370451927185,
        -0.6195810437202454,
        -0.1568017601966858
      ],
      [
        0.6427487134933472,
        -0.23251226544380188,
        0.2440987229347229
      ],
      [
        -0.15502485632896423,
        0.584014356136322,
        -0.05885849893093109
      ],
      [
        0.6584810614585876,
        -0.2701857388019562,
        0.12082146108150482
      ],
      [
        0.09214044362306595,
        0.16156360507011414,
        -0.6829267144203186
      ],
      [
        0.6319519877433777,
        -0.08050300180912018,
        0.18448299169540405
      ],
      [
        -0.06754553318023682,
        0.23633486032485962,
        -0.6624170541763306
      ],
      [
        -0.4525628983974457,
        0.3590988218784332,
        -0.1006593182682991
      ],
      [
        -0.7974950671195984,
        0.3546859323978424,
        -0.05255551636219025
      ],
      [
        -0.930530846118927,
        -0.6429204940795898,
        -0.10590419918298721
      ],
      [
        -0.22770993411540985,
        -0.7940849661827087,
        -0.19276267290115356
      ],
      [
        -0.3292321562767029,
        -0.3095164895057678,
        -0.1999049037694931
      ],
      [
        0.5538991093635559,
        0.0060732257552444935,
        -0.3561975359916687
      ],
      [
        -0.9604355692863464,
        -0.4156777262687683,
        -0.4186563789844513
      ],
      [
        -0.7267954349517822,
        0.2800425887107849,
        -0.02714853547513485
      ],
      [
        -0.20320019125938416,
        0.5310502648353577,
        -0.05264927074313164
      ],
      [
        0.5693998336791992,
        -0.301638126373291,
        0.19846241176128387
      ],
      [
        0.04600505530834198,
        -0.8488852381706238,
        -0.20836076140403748
      ],
      [
        0.615487813949585,
        -0.12510614097118378,
        0.16383956372737885
      ],
      [
        0.5659816265106201,
        -0.3733980357646942,
        0.21218623220920563
      ],
      [
        -1.1236764192581177,
        -0.2464989870786667,
        -0.21265895664691925
      ],
      [
        -0.39151519536972046,
        -0.5199825763702393,
        -0.23364393413066864
      ],
      [
        0.6543998122215271,
        -0.29911860823631287,
        0.25339454412460327
      ],
      [
        -0.4570838510990143,
        -0.5175373554229736,
        -0.18690156936645508
      ],
      [
        0.5571109056472778,
        0.09548770636320114,
        -0.3701879382133484
      ],
      [
        0.7247975468635559,
        0.009083611890673637,
        -0.5223711729049683
      ],
      [
        -0.3715496063232422,
        -0.6731100678443909,
        -0.2118740975856781
      ],
      [
        0.576190173625946,
        -0.23595209419727325,
        0.27950072288513184
      ],
      [
        0.6299437880516052,
        -0.005102972965687513,
        0.2024049162864685
      ],
      [
        0.11158253997564316,
        -0.7611044645309448,
        -0.28753405809402466
      ],
      [
        0.6889645457267761,
        -0.017481369897723198,
        -0.35337477922439575
      ],
      [
        -0.19313037395477295,
        0.577043354511261,
        -0.05785435065627098
      ],
      [
        -1.064673662185669,
        -0.6073375940322876,
        -0.4214060604572296
      ],
      [
        -0.48525309562683105,
        -0.6128415465354919,
        -0.08387169986963272
      ],
      [
        0.026693738996982574,
        -0.9656601548194885,
        -0.35309529304504395
      ],
      [
        0.5603811740875244,
        -0.19328971207141876,
        0.466737300157547
      ],
      [
        -0.5832930207252502,
        -0.33233800530433655,
        -0.026812318712472916
      ],
      [
        0.13582395017147064,
        0.2975917458534241,
        -0.7612213492393494
      ],
      [
        0.6861717104911804,
        0.005831066519021988,
        -0.4039478898048401
      ],
      [
        -0.6049953699111938,
        0.32889705896377563,
        -0.03724443167448044
      ],
      [
        0.16928981244564056,
        0.27185165882110596,
        -0.6580917835235596
      ],
      [
        -0.10416585206985474,
        0.5699518322944641,
        -0.041890908032655716
      ],
      [
        0.644638180732727,
        -0.05265916511416435,
        -0.30670294165611267
      ],
      [
        -1.0831233263015747,
        -0.4674755036830902,
        -0.21957342326641083
      ],
      [
        0.15004748106002808,
        0.40220189094543457,
        -0.7863536477088928
      ],
      [
        -0.05204619839787483,
        -0.8503840565681458,
        -0.3231382668018341
      ],
      [
        0.19994120299816132,
        0.4568004906177521,
        -0.6464375853538513
      ],
      [
        0.46926912665367126,
        -0.25622129440307617,
        0.2995195686817169
      ],
      [
        -0.009388967417180538,
        0.4345801770687103,
        -0.09531658887863159
      ],
      [
        -0.24903689324855804,
        -0.6508728861808777,
        -0.09396809339523315
      ],
      [
        -0.9409456849098206,
        -0.2845364212989807,
        -0.294931560754776
      ],
      [
        0.5802723169326782,
        0.027171554043889046,
        -0.3625544607639313
      ],
      [
        0.5620385408401489,
        0.004020424094051123,
        -0.3221547305583954
      ],
      [
        -0.01514303870499134,
        0.1383213996887207,
        -0.5436423420906067
      ],
      [
        -0.1563384085893631,
        0.481106162071228,
        -0.004121563863009214
      ],
      [
        -0.7971718311309814,
        0.24364174902439117,
        -0.05017487332224846
      ],
      [
        -0.5097662210464478,
        -0.4814457893371582,
        -0.30117279291152954
      ],
      [
        -0.174509197473526,
        0.564537763595581,
        -0.01216779462993145
      ],
      [
        -0.7285123467445374,
        0.25934869050979614,
        -0.0945839136838913
      ],
      [
        -0.5008242130279541,
        -0.538402795791626,
        -0.21291042864322662
      ],
      [
        -0.382256418466568,
        -0.39461180567741394,
        -0.30626410245895386
      ],
      [
        0.5844106674194336,
        -0.11839619278907776,
        0.11671248078346252
      ],
      [
        0.6143516898155212,
        -0.024380499497056007,
        -0.4133587181568146
      ],
      [
        0.5248570442199707,
        -0.08551552146673203,
        0.2799304127693176
      ],
      [
        -0.6612603664398193,
        -0.411902517080307,
        -0.07554890215396881
      ],
      [
        0.6302304267883301,
        0.03765210509300232,
        -0.3633204698562622
      ],
      [
        -0.008973073214292526,
        0.4971998333930969,
        -0.01949903555214405
      ],
      [
        0.519775927066803,
        0.22338901460170746,
        -0.5102384090423584
      ],
      [
        -0.2542617619037628,
        0.4679070711135864,
        -0.009213258512318134
      ],
      [
        0.03444311022758484,
        -0.7983416318893433,
        -0.33148741722106934
      ],
      [
        0.13332678377628326,
        0.19671766459941864,
        -0.820356011390686
      ],
      [
        0.6019707322120667,
        -0.2218008041381836,
        0.3160243630409241
      ],
      [
        0.5532453060150146,
        -0.25628969073295593,
        0.22426362335681915
      ],
      [
        0.6309415698051453,
        -0.11957250535488129,
        -0.6521161198616028
      ],
      [
        0.04316190630197525,
        0.3259121775627136,
        -0.5925893187522888
      ],
      [
        -0.6197602152824402,
        -0.44551971554756165,
        -0.1807556301355362
      ],
      [
        -0.3542026877403259,
        -0.5757046937942505,
        -0.191501185297966
      ],
      [
        0.6146659255027771,
        -0.20239904522895813,
        0.2820335030555725
      ],
      [
        -0.2710965871810913,
        -0.5873801112174988,
        -0.029468810185790062
      ],
      [
        -0.5855416059494019,
        -0.4927234351634979,
        -0.09595023095607758
      ],
      [
        -0.5633389353752136,
        0.31708481907844543,
        0.0055620064958930016
      ],
      [
        0.031356923282146454,
        0.2955722212791443,
        -0.546453058719635
      ],
      [
        -0.15788379311561584,
        0.5412383079528809,
        -0.04964454472064972
      ],
      [
        -1.1284464597702026,
        -0.4876040518283844,
        -0.3141574561595917
      ],
      [
        0.008670659735798836,
        0.20345361530780792,
        -0.7316205501556396
      ],
      [
        -0.14163023233413696,
        0.5761885643005371,
        -0.20823520421981812
      ],
      [
        0.6019753813743591,
        -0.21478724479675293,
        0.3003663122653961
      ],
      [
        -0.7302705645561218,
        0.3377721905708313,
        -0.05927882343530655
      ],
      [
        0.12507064640522003,
        0.24860835075378418,
        -0.646301805973053
      ],
      [
        -0.40362998843193054,
        -0.5519305467605591,
        -0.09109178185462952
      ],
      [
        -0.2972082495689392,
        -0.43649983406066895,
        -0.21273267269134521
      ],
      [
        0.7211325168609619,
        -0.0075081586837768555,
        -0.42691129446029663
      ],
      [
        -0.8261749148368835,
        -0.541344404220581,
        -0.21417678892612457
      ],
      [
        -0.3341374695301056,
        -0.5312062501907349,
        -0.11847805976867676
      ],
      [
        -0.45875126123428345,
        -0.5930613279342651,
        0.058147381991147995
      ]
    ]
  },
  "singular_values": [
    84.67715454101562,
    49.156036376953125,
    31.317726135253906
  ]
}
