{
  "image": {
    "bias": [
      62.85395050048828,
      -30.132261276245117,
      22.449052810668945
    ],
    "input_dim": 256,
    "output_dim": 3,
    "weight": [
      [
        -5.233279228210449,
        -4.443692684173584,
        0.5626122355461121
      ],
      [
        -2.006989002227783,
        -3.5753304958343506,
        2.995511293411255
      ],
      [
        -0.25435733795166016,
        -4.741077899932861,
        0.361741304397583
      ],
      [
        -5.306436538696289,
        2.9514665603637695,
        5.603163719177246
      ],
      [
        -0.6305542588233948,
        -5.654553413391113,
        -4.279572010040283
      ],
      [
        -0.2703574001789093,
        2.868070363998413,
        0.9539511799812317
      ],
      [
        -5.116343021392822,
        -4.848581314086914,
        0.18848584592342377
      ],
      [
        -5.6537861824035645,
        -0.6952577233314514,
        2.577441453933716
      ],
      [
        -2.012338638305664,
        4.49144172668457,
        1.1687757968902588
      ],
      [
        -3.0718352794647217,
        4.082012176513672,
        -1.9922151565551758
      ],
      [
        1.3957226276397705,
        3.611445188522339,
        2.4934380054473877
      ],
      [
        0.3671426773071289,
        0.42013493180274963,
        4.965763092041016
      ],
      [
        1.1517492532730103,
        -2.116873025894165,
        -6.624935150146484
      ],
      [
        -2.865279197692871,
        0.13188913464546204,
        -5.497655868530273
      ],
      [
        6.238865852355957,
        -0.3996654450893402,
        0.9126453995704651
      ],
      [
        -7.931163787841797,
        -0.9129781126976013,
        2.484058141708374
      ],
      [
        -2.7592296600341797,
        -2.245720148086548,
        -2.7561709880828857
      ],
      [
        -4.402979850769043,
        5.661952495574951,
        0.20373591780662537
      ],
      [
        -5.573160648345947,
        0.5437435507774353,
        2.9945902824401855
      ],
      [
        0.11705400794744492,
        2.9408814907073975,
        5.654333114624023
      ],
      [
        -2.7503886222839355,
        3.3999619483947754,
        4.005860328674316
      ],
      [
        -4.987633228302002,
        5.000685214996338,
        0.3855431079864502
      ],
      [
        6.633647441864014,
        -0.48154038190841675,
        -1.5628113746643066
      ],
      [
        -3.3158516883850098,
        3.6960701942443848,
        0.735029399394989
      ],
      [
        -4.582868576049805,
        -1.3306411504745483,
        -0.2781800329685211
      ],
      [
        -5.536907196044922,
        -1.7744227647781372,
        -1.0155781507492065
      ],
      [
        -1.4465985298156738,
        4.28856897354126,
        8.459896087646484
      ],
      [
        2.3876144886016846,
        2.9330034255981445,
        4.806431770324707
      ],
      [
        3.6991536617279053,
        -1.4820469617843628,
        1.195657730102539
      ],
      [
        -3.5955076217651367,
        4.454188823699951,
        -1.2764755487442017
      ],
      [
        3.5200304985046387,
        0.27793413400650024,
        0.11930952221155167
      ],
      [
        -1.0020791292190552,
        -5.008082866668701,
        0.7726510763168335
      ],
      [
        7.838253498077393,
        2.9803786277770996,
        10.140006065368652
      ],
      [
        -4.930417060852051,
        7.358485221862793,
        -3.391270875930786
      ],
      [
        2.7728612422943115,
        5.909275531768799,
        -5.986489772796631
      ],
      [
        -2.3430986404418945,
        6.000516414642334,
        0.13517367839813232
      ],
      [
        -2.0228469371795654,
        1.3395788669586182,
        5.430658340454102
      ],
      [
        0.5064223408699036,
        -6.304127216339111,
        -0.5787121057510376
      ],
      [
        4.448869705200195,
        -4.921799182891846,
        -1.0656988620758057
      ],
      [
        -4.840513229370117,
        -1.031044840812683,
        -2.685713768005371
      ],
      [
        6.578354835510254,
        1.5754115581512451,
        -0.20533184707164764
      ],
      [
        0.5946983098983765,
        -1.6069228649139404,
        7.103850364685059
      ],
      [
        -8.845732688903809,
        -4.575315475463867,
        4.376001834869385
      ],
      [
        -5.101513385772705,
        2.4584732055664062,
        -1.5476611852645874
      ],
      [
        3.728599786758423,
        -1.9168108701705933,
        -0.8265841603279114
      ],
      [
        -3.2285192012786865,
        1.7127974033355713,
        -2.0720627307891846
      ],
      [
        -0.3256273567676544,
        1.6402459144592285,
        -2.4366233348846436
      ],
      [
        -4.07119607925415,
        0.9950955510139465,
        -0.7947492599487305
      ],
      [
        -4.102762222290039,
        6.833407402038574,
        -3.8599746227264404
      ],
      [
        -3.8311331272125244,
        3.584322929382324,
        -3.8512890338897705
      ],
      [
        -6.02485990524292,
        0.9902809262275696,
        1.579224944114685
      ],
      [
        -2.529675245285034,
        2.3731424808502197,
        2.4708762168884277
      ],
      [
        4.779328346252441,
        0.13360044360160828,
        2.0060901641845703
      ],
      [
        4.9206318855285645,
        8.253779411315918,
        -3.2756283283233643
      ],
      [
        -1.602978229522705,
        2.468684673309326,
        -3.9541075229644775
      ],
      [
        -1.6439599990844727,
        -4.369595050811768,
        2.6795709133148193
      ],
      [
        -4.513718605041504,
        -1.7827380895614624,
        -2.7089295387268066
      ],
      [
        -3.3954660892486572,
        -0.9861302375793457,
        -2.942131280899048
      ],
      [
        -2.837005615234375,
        5.797126770019531,
        -4.968631267547607
      ],
      [
        -3.512031316757202,
        0.6911493539810181,
        -2.1970102787017822
      ],
      [
        5.270064353942871,
        -1.033886194229126,
        -1.693499207496643
      ],
      [
        5.388162136077881,
        5.696457862854004,
        -6.075993537902832
      ],
      [
        3.8569297790527344,
        5.990625858306885,
        -0.26333439350128174
      ],
      [
        6.036465167999268,
        5.1200175285339355,
        3.603801965713501
      ],
      [
        7.994791030883789,
        -0.6750519871711731,
        -1.9805564880371094
      ],
      [
        -4.806107521057129,
        -2.782121419906616,
        2.1081342697143555
      ],
      [
        -5.830455780029297,
        0.9691364169120789,
        0.8072816729545593
      ],
      [
        2.917146682739258,
        3.4023964405059814,
        2.5003299713134766
      ],
      [
        1.8446481227874756,
        -3.9865636825561523,
        -0.28274980187416077
      ],
      [
        -2.770641326904297,
        4.002303600311279,
        0.8164013028144836
      ],
      [
        -7.374478816986084,
        0.925581157207489,
        4.0115227699279785
      ],
      [
        -4.363198280334473,
        1.7175569534301758,
        4.555238723754883
      ],
      [
        -3.2522668838500977,
        2.990907669067383,
        -2.294605016708374
      ],
      [
        -4.944100856781006,
        -1.2927274703979492,
        2.573836088180542
      ],
      [
        -7.606034278869629,
        -5.008768558502197,
        -0.3564639687538147
      ],
      [
        -6.196105480194092,
        -2.2596349716186523,
        2.1297664642333984
      ],
      [
        -2.005838394165039,
        5.761149883270264,
        -0.45614364743232727
      ],
      [
        -0.8413239121437073,
        -5.280340194702148,
        0.35348671674728394
      ],
      [
        -5.154922008514404,
        -1.2254478931427002,
        -1.538954257965088
      ],
      [
        -4.222908020019531,
        2.977555274963379,
        0.9568784236907959
      ],
      [
        -5.718286037445068,
        -5.388385772705078,
        1.0002501010894775
      ],
      [
        2.395895004272461,
        3.2027971744537354,
        1.2126805782318115
      ],
      [
        1.6171228885650635,
        -3.370487689971924,
        4.829343318939209
      ],
      [
        -5.368941783905029,
        0.538241982460022,
        1.194871425628662
      ],
      [
        10.7224702835083,
        -3.3099327087402344,
        -1.736721158027649
      ],
      [
        -2.275369644165039,
        -3.3153536319732666,
        -4.286483287811279
      ],
      [
        -4.40659761428833,
        0.3589501678943634,
        -2.0950534343719482
      ],
      [
        -8.327607154846191,
        -1.5376100540161133,
        -0.06714899092912674
      ],
      [
        3.5027899742126465,
        -0.9606834650039673,
        1.65189528465271
      ],
      [
        0.08072993159294128,
        -2.9826607704162598,
        3.87022066116333
      ],
      [
        -0.7808986902236938,
        -7.377435684204102,
        -0.0962003618478775
      ],
      [
        8.16860580444336,
        -1.4456921815872192,
        2.233855724334717
      ],
      [
        5.003416061401367,
        2.4011824131011963,
        2.2911899089813232
      ],
      [
        -2.985088348388672,
        -4.439421653747559,
        -0.7845595479011536
      ],
      [
        -11.33414363861084,
        -4.5831427574157715,
        3.7216098308563232
      ],
      [
        -8.30920124053955,
        -4.048915386199951,
        0.9459790587425232
      ],
      [
        -5.698827266693115,
        -5.555089473724365,
        1.6313756704330444
      ],
      [
        -5.307379722595215,
        1.5241862535476685,
        1.1131322383880615
      ],
      [
        -3.036473035812378,
        0.254548579454422,
        -1.4496327638626099
      ],
      [
        4.256531715393066,
        2.2651593685150146,
        7.341056823730469
      ],
      [
        8.465954780578613,
        0.43635237216949463,
        -3.3772027492523193
      ],
      [
        3.110548973083496,
        -2.7965145111083984,
        -1.3047351837158203
      ],
      [
        2.284416913986206,
        -1.2756551504135132,
        2.054330825805664
      ],
      [
        6.2366156578063965,
        -3.481379508972168,
        -0.7150871157646179
      ],
      [
        -2.2773144245147705,
        1.0489590167999268,
        3.9912495613098145
      ],
      [
        -9.308321952819824,
        -2.5173914432525635,
        7.148928642272949
      ],
      [
        -3.1134471893310547,
        -1.4807690382003784,
        -2.520160675048828
      ],
      [
        7.228336334228516,
        1.3556880950927734,
        -0.2885773777961731
      ],
      [
        -3.6852152347564697,
        3.485410690307617,
        0.08786102384328842
      ],
      [
        3.1693899631500244,
        -3.7825927734375,
        1.609620213508606
      ],
      [
        -7.047595977783203,
        0.28297725319862366,
        -2.6361958980560303
      ],
      [
        -1.1914461851119995,
        -8.007758140563965,
        -3.570307970046997
      ],
      [
        1.6236692667007446,
        -2.9398880004882812,
        -2.601102828979492
      ],
      [
        3.483618974685669,
        -0.3523901700973511,
        -3.522965669631958
      ],
      [
        -3.270615339279175,
        -0.22175545990467072,
        -2.039933681488037
      ],
      [
        3.737884759902954,
        0.8204023241996765,
        0.42805787920951843
      ],
      [
        -6.433615207672119,
        -4.851205825805664,
        3.5039148330688477
      ],
      [
        -4.738138198852539,
        1.865267276763916,
        -3.777583360671997
      ],
      [
        -6.883199214935303,
        1.7836763858795166,
        1.169379472732544
      ],
      [
        -5.118344306945801,
        -0.11983204632997513,
        0.7456778883934021
      ],
      [
        -5.116145610809326,
        2.174175500869751,
        -1.172360897064209
      ],
      [
        5.229305267333984,
        -0.9899595379829407,
        -2.3706483840942383
      ],
      [
        -5.309545516967773,
        -4.287555694580078,
        -0.38830801844596863
      ],
      [
        -7.901832103729248,
        -4.770631313323975,
        1.6115528345108032
      ],
      [
        -0.2045530527830124,
        -5.438233852386475,
        -2.702871799468994
      ],
      [
        -2.782395124435425,
        2.611692190170288,
        -1.1753288507461548
      ],
      [
        3.8127923011779785,
        -1.0244158506393433,
        0.7282420992851257
      ],
      [
        -3.6799192428588867,
        4.4670209884643555,
        0.3020142614841461
      ],
      [
        -1.9457324743270874,
        4.746776580810547,
        0.6397484540939331
      ],
      [
        -8.297361373901367,
        0.9908667206764221,
        2.4661521911621094
      ],
      [
        -1.6159844398498535,
        2.800074338912964,
        -0.4145745635032654
      ],
      [
        -1.6627025604248047,
        3.3241422176361084,
        -2.245427131652832
      ],
      [
        -1.3486915826797485,
        4.382985591888428,
        -3.841463565826416
      ],
      [
        -5.064682483673096,
        -4.690208911895752,
        0.26603955030441284
      ],
      [
        10.296472549438477,
        -3.9308319091796875,
        1.5533210039138794
      ],
      [
        -3.1246113777160645,
        0.708279013633728,
        -0.7095848321914673
      ],
      [
        -4.7756547927856445,
        -0.3323821425437927,
        -0.8219003081321716
      ],
      [
        -1.0897201299667358,
        -4.781609535217285,
        0.034103598445653915
      ],
      [
        1.0048476457595825,
        4.569835186004639,
        -2.6272172927856445
      ],
      [
        2.614208698272705,
        1.3221038579940796,
        0.48261314630508423
      ],
      [
        -5.667539119720459,
        2.8780205249786377,
        -0.7725017666816711
      ],
      [
        2.2688493728637695,
        -3.77571964263916,
        5.563757419586182
      ],
      [
        5.8914289474487305,
        0.1875840425491333,
        -0.9443764090538025
      ],
      [
        -1.9801150560379028,
        -1.1666417121887207,
        5.056693077087402
      ],
      [
        -2.113281011581421,
        -0.10745415091514587,
        -1.4092028141021729
      ],
      [
        -0.6464073657989502,
        6.251569747924805,
        1.0902677774429321
      ],
      [
        -5.164792060852051,
        -0.657015323638916,
        0.09781652688980103
      ],
      [
        -3.3357491493225098,
        -4.581477642059326,
        -1.8046643733978271
      ],
      [
        -7.22562837600708,
        -3.1193411350250244,
        2.0496652126312256
      ],
      [
        -0.4190874695777893,
        4.897595405578613,
        -2.3515172004699707
      ],
      [
        5.531947135925293,
        0.2024347335100174,
        0.4504985213279724
      ],
      [
        -2.6384875774383545,
        2.699188709259033,
        3.4343013763427734
      ],
      [
        0.5557071566581726,
        -4.809663772583008,
        -2.530046224594116
      ],
      [
        -1.7523077726364136,
        9.366676330566406,
        -0.07885898649692535
      ],
      [
        -0.7333502769470215,
        -2.6846768856048584,
        -1.4402859210968018
      ],
      [
        2.9626471996307373,
        -3.318633794784546,
        -0.7812983393669128
      ],
      [
        6.140374660491943,
        0.5467138290405273,
        -3.6416728496551514
      ],
      [
        -3.039435386657715,
        -3.333723783493042,
        -4.116567134857178
      ],
      [
        -4.715366363525391,
        1.285002589225769,
        -0.6027582883834839
      ],
      [
        -4.217883110046387,
        -0.8370643854141235,
        -1.2459591627120972
      ],
      [
        -3.5707614421844482,
        1.6177282333374023,
        0.7037951946258545
      ],
      [
        -6.522426128387451,
        -1.7676966190338135,
        3.900521755218506
      ],
      [
        -2.56268310546875,
        5.391785621643066,
        -1.5585439205169678
      ],
      [
        0.33375850319862366,
        0.5913022756576538,
        5.404718399047852
      ],
      [
        -3.6571178436279297,
        6.342877388000488,
        0.026189694181084633
      ],
      [
        -9.294034957885742,
        2.261094093322754,
        5.944195747375488
      ],
      [
        2.844862461090088,
        -0.7026727199554443,
        1.0799341201782227
      ],
      [
        -3.2137234210968018,
        2.445302963256836,
        0.45351094007492065
      ],
      [
        -0.45342501997947693,
        4.672833442687988,
        -5.404958248138428
      ],
      [
        6.703299045562744,
        -0.4485604763031006,
        0.1307440549135208
      ],
      [
        0.7587175965309143,
        -2.0270659923553467,
        -1.4998592138290405
      ],
      [
        3.7444727420806885,
        2.021817922592163,
        5.089202880859375
      ],
      [
        3.4499478340148926,
        -0.18501611053943634,
        0.6060134768486023
      ],
      [
        -1.7873996496200562,
        3.437342405319214,
        -0.43528637290000916
      ],
      [
        -0.18866927921772003,
        -5.2086663246154785,
        -1.1894972324371338
      ],
      [
        4.26437520980835,
        -4.171230792999268,
        -0.14565341174602509
      ],
      [
        -0.24466000497341156,
        -0.2656387388706207,
        0.21954484283924103
      ],
      [
        1.0230404138565063,
        3.8550002574920654,
        8.2711181640625
      ],
      [
        6.363165378570557,
        2.560650587081909,
        1.722163438796997
      ],
      [
        -6.7417707443237305,
        -1.405482530593872,
        11.366479873657227
      ],
      [
        -3.4774835109710693,
        6.112138748168945,
        -0.17138394713401794
      ],
      [
        -0.2250647395849228,
        4.829184055328369,
        2.8776278495788574
      ],
      [
        1.6362030506134033,
        8.223584175109863,
        1.1806775331497192
      ],
      [
        3.5412282943725586,
        -2.3840136528015137,
        -1.1436984539031982
      ],
      [
        -4.437874794006348,
        -3.052079677581787,
        1.8832069635391235
      ],
      [
        0.01086417306214571,
        -4.528486728668213,
        -1.4994912147521973
      ],
      [
        5.455313205718994,
        1.5532305240631104,
        1.5966325998306274
      ],
      [
        8.94191837310791,
        5.034768581390381,
        -2.8810250759124756
      ],
      [
        -6.593439102172852,
        -2.594834804534912,
        -0.4360547661781311
      ],
      [
        3.7199866771698,
        0.5505653023719788,
        -0.5939355492591858
      ],
      [
        -6.19739294052124,
        -3.661447286605835,
        -0.1705305278301239
      ],
      [
        -5.119649410247803,
        -1.8699246644973755,
        -3.3627288341522217
      ],
      [
        -5.091859340667725,
        -3.123384952545166,
        0.05468530207872391
      ],
      [
        -5.206837177276611,
        2.846031904220581,
        -1.3697408437728882
      ],
      [
        -0.8715865612030029,
        -4.704277515411377,
        -1.99582040309906
      ],
      [
        -4.591948509216309,
        -1.3220994472503662,
        -2.631819248199463
      ],
      [
        1.1405434608459473,
        -3.0750367641448975,
        -1.010741949081421
      ],
      [
        1.517029881477356,
        5.144760608673096,
        0.41638079285621643
      ],
      [
        4.708111763000488,
        0.5796869397163391,
        2.5098307132720947
      ],
      [
        -2.0248007774353027,
        -5.467920303344727,
        -1.9059734344482422
      ],
      [
        -2.735229730606079,
        -4.653592586517334,
        -0.9691124558448792
      ],
      [
        3.1769368648529053,
        -3.6579346656799316,
        0.3584126830101013
      ],
      [
        -2.4705147743225098,
        7.207190036773682,
        2.8626937866210938
      ],
      [
        -4.790748119354248,
        -4.073417663574219,
        1.3801324367523193
      ],
      [
        -0.9580147862434387,
        3.1611545085906982,
        -4.359914302825928
      ],
      [
        5.016095161437988,
        0.9884257316589355,
        0.33530157804489136
      ],
      [
        -4.492424488067627,
        -0.42478257417678833,
        1.3504570722579956
      ],
      [
        -0.6663833260536194,
        -4.644675254821777,
        -0.9319494366645813
      ],
      [
        -5.275176525115967,
        -0.6229031085968018,
        -0.7028973698616028
      ],
      [
        -2.35298752784729,
        -6.2664337158203125,
        0.7936755418777466
      ],
      [
        -0.7226307988166809,
        3.0875306129455566,
        1.5985149145126343
      ],
      [
        -1.0905929803848267,
        4.182850360870361,
        -10.225127220153809
      ],
      [
        3.64983868598938,
        4.595793724060059,
        -7.134758949279785
      ],
      [
        3.3333117961883545,
        -0.738060712814331,
        1.4197607040405273
      ],
      [
        -3.13612699508667,
        -2.8345627784729004,
        -4.227106094360352
      ],
      [
        -5.422311305999756,
        -0.5392144918441772,
        -0.642596960067749
      ],
      [
        6.009518146514893,
        3.4425671100616455,
        -3.9477522373199463
      ],
      [
        -6.2204132080078125,
        -0.017564695328474045,
        1.3327853679656982
      ],
      [
        4.249074935913086,
        -2.569962739944458,
        1.0347626209259033
      ],
      [
        6.470231056213379,
        0.2055227905511856,
        -2.0101778507232666
      ],
      [
        -2.70782470703125,
        2.017974615097046,
        -0.49100714921951294
      ],
      [
        4.714107036590576,
        -1.3582415580749512,
        -3.483506202697754
      ],
      [
        -6.117949962615967,
        -4.82203483581543,
        -0.8613716959953308
      ],
      [
        -1.5409560203552246,
        -5.305498123168945,
        -2.967620372772217
      ],
      [
        -3.433091640472412,
        3.8644771575927734,
        -2.7770535945892334
      ],
      [
        4.557464122772217,
        4.6375412940979,
        -1.326073169708252
      ],
      [
        7.559238433837891,
        -3.489903688430786,
        -0.9944669008255005
      ],
      [
        -4.2429585456848145,
        -4.057869911193848,
        -11.439125061035156
      ],
      [
        2.013542413711548,
        6.193965911865234,
        -3.3300905227661133
      ],
      [
        -0.34606966376304626,
        -2.9552032947540283,
        0.025391841307282448
      ],
      [
        0.6252021193504333,
        -1.371565341949463,
        -0.18652395904064178
      ],
      [
        3.529207229614258,
        4.822702407836914,
        3.4494760036468506
      ],
      [
        0.23800666630268097,
        0.3294738531112671,
        -0.28652364015579224
      ],
      [
        -5.412673473358154,
        -2.3004136085510254,
        1.0598583221435547
      ],
      [
        -4.794471263885498,
        0.13768167793750763,
        1.224849820137024
      ],
      [
        1.952568769454956,
        7.258201599121094,
        1.7539646625518799
      ],
      [
        3.51352858543396,
        1.649472951889038,
        0.4478810429573059
      ],
      [
        -5.305373191833496,
        1.9579287767410278,
        -1.5765509605407715
      ],
      [
        2.446964979171753,
        -2.745150327682495,
        0.6860324144363403
      ],
      [
        -7.678316593170166,
        -2.368001699447632,
        -2.3496336936950684
      ],
      [
        4.7276387214660645,
        -1.4411404132843018,
        1.595306396484375
      ],
      [
        -6.407015800476074,
        2.82470965385437,
        -3.279000997543335
      ],
      [
        5.806034564971924,
        -1.6075397729873657,
        1.0873342752456665
      ],
      [
        2.377570152282715,
        -4.492949962615967,
        0.2958625853061676
      ],
      [
        3.0674188137054443,
        1.0988863706588745,
        0.2736693024635315
      ],
      [
        -4.575657844543457,
        3.25211763381958,
        0.929271399974823
      ],
      [
        3.2292449474334717,
        -3.7627344131469727,
        0.5435531735420227
      ],
      [
        -3.662254810333252,
        -2.543948173522949,
        4.854707717895508
      ],
      [
        2.2497003078460693,
        0.15168166160583496,
        6.940393924713135
      ],
      [
        1.915818452835083,
        -1.6666086912155151,
        2.049859046936035
      ],
      [
        -1.0553092956542969,
        -3.508395195007324,
        -2.60563325881958
      ],
      [
        -1.8893088102340698,
        6.102902889251709,
        -0.24978478252887726
      ],
      [
        -2.288468599319458,
        -2.5765938758850098,
        7.807977676391602
      ],
      [
        -3.0768930912017822,
        4.989420413970947,
        -1.001644492149353
      ],
      [
        0.5808245539665222,
        4.699215412139893,
        -5.2658586502075195
      ],
      [
        5.810647010803223,
        -0.3121262788772583,
        0.38182738423347473
      ]
    ]
  },
  "kind": "prefit_pls_readout",
  "output_standardize": 0,
  "rank": 3,
  "rna": {
    "bias": [
      3.6019434928894043,
      54.5550422668457,
      -123.1968994140625
    ],
    "input_dim": 384,
    "output_dim": 3,
    "weight": [
      [
        -0.46280574798583984,
        -0.4922754168510437,
        -0.006351799704134464
      ],
      [
        0.5163783431053162,
        -0.1398933380842209,
        -0.21684083342552185
      ],
      [
        0.4933280050754547,
        -0.1059754490852356,
        -0.2502010464668274
      ],
      [
        0.6591284871101379,
        -0.1038266271352768,
        -0.1097848042845726
      ],
      [
        0.29707077145576477,
        -0.5941178202629089,
        -0.023339256644248962
      ],
      [
        -0.8034447431564331,
        -0.556359052658081,
        0.33881163597106934
      ],
      [
        -0.8457317352294922,
        -0.22206969559192657,
        0.196307972073555
      ],
      [
        -0.8755849003791809,
        -0.31763699650764465,
        0.46719950437545776
      ],
      [
        0.125162735581398,
        0.36767086386680603,
        -0.15911833941936493
      ],
      [
        -0.6015288233757019,
        0.2904306650161743,
        0.06610772013664246
      ],
      [
        0.5441434979438782,
        0.3107396960258484,
        0.3887951076030731
      ],
      [
        -0.35394173860549927,
        0.48426496982574463,
        -0.30493050813674927
      ],
      [
        -0.7925098538398743,
        -0.44467660784721375,
        0.17742806673049927
      ],
      [
        0.6069493293762207,
        -0.21107131242752075,
        -0.28465816378593445
      ],
      [
        -0.3819548487663269,
        -0.614963710308075,
        0.19693435728549957
      ],
      [
        -0.34496572613716125,
        0.46345147490501404,
        -0.1590212732553482
      ],
      [
        0.6363705396652222,
        0.18364651501178741,
        0.5191662907600403
      ],
      [
        -0.6490764021873474,
        0.19552089273929596,
        -0.03563883155584335
      ],
      [
        -0.8578118681907654,
        -0.5354679226875305,
        0.36622747778892517
      ],
      [
        0.5456081032752991,
        0.21996165812015533,
        0.42772015929222107
      ],
      [
        0.2590417265892029,
        -0.6882261037826538,
        0.14764612913131714
      ],
      [
        -0.34232157468795776,
        0.4656229317188263,
        -0.2874642312526703
      ],
      [
        0.6577303409576416,
        0.18830107152462006,
        0.4745319187641144
      ],
      [
        -0.012667657807469368,
        -0.8369743824005127,
        0.12146653234958649
      ],
      [
        -1.0408869981765747,
        -0.30776113271713257,
        0.2166442573070526
      ],
      [
        -0.6011582612991333,
        -0.5905417799949646,
        0.0864429622888565
      ],
      [
        -0.6606597900390625,
        0.23097147047519684,
        -0.004069874528795481
      ],
      [
        -0.3769676685333252,
        -0.5903036594390869,
        0.28297409415245056
      ],
      [
        0.6520230770111084,
        0.032487474381923676,
        0.308054119348526
      ],
      [
        0.7080907821655273,
        0.06362711638212204,
        0.40434008836746216
      ],
      [
        0.631280779838562,
        0.18447962403297424,
        0.29873475432395935
      ],
      [
        -0.11233162134885788,
        0.46263250708580017,
        -0.073044553399086
      ],
      [
        0.2541513442993164,
        -0.7528762817382812,
        -0.062405068427324295
      ],
      [
        0.09429652243852615,
        -0.6924884915351868,
        -0.0030326193664222956
      ],
      [
        0.05656110867857933,
        0.2705419659614563,
        0.6087189316749573
      ],
      [
        -0.10141091793775558,
        -0.7933779954910278,
        -0.004183427430689335
      ],
      [
        -0.012551909312605858,
        0.1483703851699829,
        0.6083381175994873
      ],
      [
        -0.09750676155090332,
        0.05258610099554062,
        0.6133419871330261
      ],
      [
        -0.12263502925634384,
        -0.7233080267906189,
        -0.018808092921972275
      ],
      [
        0.23827964067459106,
        -0.6900179386138916,
        0.02818707376718521
      ],
      [
        -0.31775757670402527,
        0.5131815671920776,
        -0.13538700342178345
      ],
      [
        0.5577705502510071,
        -0.0870787724852562,
        -0.17529559135437012
      ],
      [
        -0.6848694682121277,
        0.238906130194664,
        0.09525185823440552
      ],
      [
        -0.6008298397064209,
        0.25859934091567993,
        0.002246648073196411
      ],
      [
        -0.06015275418758392,
        0.453268438577652,
        -0.04610244557261467
      ],
      [
        0.48666706681251526,
        -0.18529702723026276,
        -0.3538874685764313
      ],
      [
        0.03407549858093262,
        0.2189468890428543,
        0.5630174875259399
      ],
      [
        0.5290413498878479,
        0.2536066770553589,
        0.38604623079299927
      ],
      [
        -0.5332986116409302,
        -0.4354586601257324,
        0.3334932029247284
      ],
      [
        0.5518292784690857,
        0.09472432732582092,
        0.39785799384117126
      ],
      [
        -0.8856930732727051,
        -0.4627115726470947,
        0.2796848714351654
      ],
      [
        -0.6725386381149292,
        0.34971383213996887,
        -0.009230327792465687
      ],
      [
        0.5831661820411682,
        -0.09257595986127853,
        -0.273274689912796
      ],
      [
        -0.10554089397192001,
        0.5185141563415527,
        -0.13453534245491028
      ],
      [
        0.6132045388221741,
        0.08061996102333069,
        0.40788134932518005
      ],
      [
        -0.29227232933044434,
        0.4388270974159241,
        -0.2464076429605484
      ],
      [
        0.5988919138908386,
        0.01031101681292057,
        0.6960546374320984
      ],
      [
        -0.04301286116242409,
        0.03742481395602226,
        0.564250648021698
      ],
      [
        -0.030508823692798615,
        -0.899185299873352,
        -0.02300686202943325
      ],
      [
        -0.2733743190765381,
        -0.5856482982635498,
        0.17806482315063477
      ],
      [
        -0.6890541315078735,
        0.25500088930130005,
        -0.01204938255250454
      ],
      [
        0.0013880344340577722,
        0.1109304204583168,
        0.6567777991294861
      ],
      [
        0.5664052367210388,
        0.0973774641752243,
        0.3534689247608185
      ],
      [
        0.08742990344762802,
        -0.804159939289093,
        0.13935743272304535
      ],
      [
        -0.18136586248874664,
        0.4913201332092285,
        -0.08387918770313263
      ],
      [
        0.05944637209177017,
        -0.49828866124153137,
        -0.10101217031478882
      ],
      [
        -0.6477557420730591,
        0.22519895434379578,
        -0.0596565306186676
      ],
      [
        0.567601203918457,
        -0.1654386818408966,
        -0.22897452116012573
      ],
      [
        0.5466360449790955,
        -0.10923079401254654,
        -0.2000485062599182
      ],
      [
        -0.18292167782783508,
        0.3895820081233978,
        -0.15144763886928558
      ],
      [
        0.14335744082927704,
        0.3816317915916443,
        0.4470570385456085
      ],
      [
        0.6658656001091003,
        0.10157641768455505,
        0.3852599561214447
      ],
      [
        -0.11994852125644684,
        0.5044437646865845,
        -0.10539520531892776
      ],
      [
        -1.079647183418274,
        -0.23482157289981842,
        0.21603581309318542
      ],
      [
        -0.7340419292449951,
        0.3135523200035095,
        -0.08414508402347565
      ],
      [
        -0.4897450804710388,
        -0.5432540774345398,
        0.2905856966972351
      ],
      [
        -0.6393985748291016,
        0.3469773828983307,
        -0.02509966492652893
      ],
      [
        0.5630064606666565,
        0.13889917731285095,
        0.31690454483032227
      ],
      [
        -0.8282809853553772,
        -0.5013443827629089,
        0.4235880672931671
      ],
      [
        -0.6915870904922485,
        -0.5092862248420715,
        0.2405531108379364
      ],
      [
        -0.9664180278778076,
        -0.2726725935935974,
        0.13661988079547882
      ],
      [
        -0.3631094992160797,
        -0.49256208539009094,
        0.1831282526254654
      ],
      [
        -0.5845664143562317,
        0.22993780672550201,
        -0.026935746893286705
      ],
      [
        0.10592489689588547,
        0.28329405188560486,
        0.534576416015625
      ],
      [
        -0.022938938811421394,
        0.3768216669559479,
        0.5366603136062622
      ],
      [
        -0.6692838668823242,
        0.43979310989379883,
        0.12332811206579208
      ],
      [
        -0.007302844896912575,
        0.43947890400886536,
        -0.24203507602214813
      ],
      [
        0.6620877385139465,
        0.12434747070074081,
        0.48342981934547424
      ],
      [
        0.07385232299566269,
        0.09068186581134796,
        0.4470616579055786
      ],
      [
        0.5734754204750061,
        0.11532261222600937,
        0.44417160749435425
      ],
      [
        0.08013790845870972,
        0.4818115234375,
        0.11008576303720474
      ],
      [
        -0.7047951817512512,
        0.2819930613040924,
        -0.028183354064822197
      ],
      [
        -0.5936188101768494,
        0.3365776538848877,
        -0.0005924379802308977
      ],
      [
        0.09330804646015167,
        0.495000422000885,
        -0.10641999542713165
      ],
      [
        0.13189685344696045,
        0.22095608711242676,
        0.7353283762931824
      ],
      [
        -0.17996416985988617,
        0.12058363854885101,
        0.588150680065155
      ],
      [
        -1.0105808973312378,
        -0.4318091571331024,
        0.3335600197315216
      ],
      [
        -0.2150096893310547,
        0.19578765332698822,
        0.6520326733589172
      ],
      [
        0.5674098134040833,
        -0.018054241314530373,
        -0.22625935077667236
      ],
      [
        0.675939679145813,
        -0.24471338093280792,
        -0.1273469179868698
      ],
      [
        0.5900467038154602,
        0.0894002914428711,
        0.3645065724849701
      ],
      [
        -0.9481783509254456,
        -0.2811775207519531,
        0.28018900752067566
      ],
      [
        -0.4613651633262634,
        -0.45378929376602173,
        0.12533321976661682
      ],
      [
        0.5852132439613342,
        -0.15470761060714722,
        -0.2596909701824188
      ],
      [
        -0.458057165145874,
        -0.4908788800239563,
        0.12908291816711426
      ],
      [
        0.10371044278144836,
        0.48891952633857727,
        -0.03941497951745987
      ],
      [
        0.08757458627223969,
        -0.8218403458595276,
        0.058059774339199066
      ],
      [
        -0.5928303003311157,
        0.1746658831834793,
        -0.022933920845389366
      ],
      [
        -0.11228570342063904,
        0.14334902167320251,
        0.5634500980377197
      ],
      [
        0.1211458146572113,
        0.21257226169109344,
        0.6575548052787781
      ],
      [
        0.29755669832229614,
        0.3270379304885864,
        0.32267820835113525
      ],
      [
        -0.4255097806453705,
        -0.3573836386203766,
        0.08083734661340714
      ],
      [
        -0.9702597856521606,
        -0.3332967758178711,
        0.405617892742157
      ],
      [
        0.424612432718277,
        -0.8237727284431458,
        0.06731847673654556
      ],
      [
        -0.2801525890827179,
        -0.6744105219841003,
        0.2570244073867798
      ],
      [
        -0.4365096092224121,
        -0.5257557034492493,
        0.17051343619823456
      ],
      [
        -0.45613837242126465,
        -0.5550947189331055,
        0.1964961290359497
      ],
      [
        -1.0070202350616455,
        -0.23143361508846283,
        0.3371366858482361
      ],
      [
        0.547609806060791,
        0.11985097080469131,
        0.4570751488208771
      ],
      [
        0.5283856987953186,
        -0.057243239134550095,
        -0.10112524777650833
      ],
      [
        0.008929051458835602,
        -0.8254951238632202,
        0.037215542048215866
      ],
      [
        -0.020574817433953285,
        0.4585503935813904,
        -0.08735418319702148
      ],
      [
        -0.6838229894638062,
        -0.46721315383911133,
        0.611920952796936
      ],
      [
        -0.5803725123405457,
        -0.4402101933956146,
        0.23501898348331451
      ],
      [
        -0.06522978842258453,
        -0.8464675545692444,
        0.0711662694811821
      ],
      [
        0.24003362655639648,
        0.39301106333732605,
        0.6049104332923889
      ],
      [
        -0.6227889060974121,
        0.4560144543647766,
        0.065376415848732
      ],
      [
        -0.017026659101247787,
        -0.774337649345398,
        -0.027072949334979057
      ],
      [
        -0.5866190791130066,
        0.2508682906627655,
        0.006321345455944538
      ],
      [
        -0.8593372106552124,
        -0.5176953077316284,
        0.30726638436317444
      ],
      [
        -0.9074719548225403,
        -0.30639156699180603,
        0.25133016705513
      ],
      [
        0.06631278991699219,
        -0.7450628280639648,
        0.12775738537311554
      ],
      [
        0.27570945024490356,
        -0.6264615654945374,
        0.058750931173563004
      ],
      [
        0.5860517621040344,
        0.09865356236696243,
        0.36833083629608154
      ],
      [
        0.24428074061870575,
        0.10786983370780945,
        0.3823860287666321
      ],
      [
        -0.5671160221099854,
        0.3929993212223053,
        0.007450005039572716
      ],
      [
        -0.06448779255151749,
        0.20739343762397766,
        0.8447374105453491
      ],
      [
        0.14940443634986877,
        -0.6305743455886841,
        0.10775291919708252
      ],
      [
        -0.3608732521533966,
        -0.5809916853904724,
        0.2747938334941864
      ],
      [
        0.24686448276042938,
        -0.674189567565918,
        0.10581797361373901
      ],
      [
        -0.5086012482643127,
        0.32714125514030457,
        0.0026310309767723083
      ],
      [
        0.6604098677635193,
        0.06204424798488617,
        0.5215694904327393
      ],
      [
        0.6185820698738098,
        -0.16823875904083252,
        -0.1915857195854187
      ],
      [
        -0.8764850497245789,
        -0.23200228810310364,
        0.3326893150806427
      ],
      [
        0.2860940396785736,
        -0.8582330346107483,
        0.1956106424331665
      ],
      [
        -0.4646797776222229,
        -0.3703892230987549,
        0.1961798071861267
      ],
      [
        -0.10539192706346512,
        0.37234944105148315,
        -0.2146337479352951
      ],
      [
        0.32718703150749207,
        -0.605280339717865,
        -0.011063075624406338
      ],
      [
        -0.8602026104927063,
        -0.13148300349712372,
        0.08335401862859726
      ],
      [
        -0.7165238261222839,
        0.3185847997665405,
        0.05973346531391144
      ],
      [
        -0.03436804935336113,
        0.17287178337574005,
        0.6490969061851501
      ],
      [
        -0.10715052485466003,
        0.2867460250854492,
        0.7574635148048401
      ],
      [
        -0.2887757122516632,
        0.5390571355819702,
        0.06985368579626083
      ],
      [
        -0.5949576497077942,
        0.5436568856239319,
        0.07609116286039352
      ],
      [
        -0.7776643633842468,
        -0.6089947819709778,
        0.5319580435752869
      ],
      [
        -0.3474322557449341,
        0.45968708395957947,
        0.5868045091629028
      ],
      [
        -0.6925621628761292,
        0.1786443442106247,
        -0.12296441942453384
      ],
      [
        0.12066804617643356,
        -0.8986162543296814,
        0.021144378930330276
      ],
      [
        -0.24927125871181488,
        -0.7432957291603088,
        -0.006591445300728083
      ],
      [
        0.58216792345047,
        -0.1028921902179718,
        -0.2272176742553711
      ],
      [
        -0.6788893342018127,
        0.2708187401294708,
        0.009954167529940605
      ],
      [
        -0.047950319945812225,
        -0.8676860332489014,
        0.11382649838924408
      ],
      [
        0.485059916973114,
        -0.33587613701820374,
        -0.3681311011314392
      ],
      [
        0.2586427330970764,
        0.3587542474269867,
        0.5053128600120544
      ],
      [
        0.07755281031131744,
        0.19124923646450043,
        0.5226109027862549
      ],
      [
        -0.42584750056266785,
        -0.48363059759140015,
        0.628521740436554
      ],
      [
        -0.6635568141937256,
        -0.4513792097568512,
        0.2767089009284973
      ],
      [
        -0.4366525709629059,
        -0.45030054450035095,
        0.2070733606815338
      ],
      [
        0.2560003995895386,
        -0.6951408386230469,
        -0.11102833598852158
      ],
      [
        0.4227440655231476,
        -0.7263240814208984,
        0.12350565940141678
      ],
      [
        -0.7709873914718628,
        0.18598446249961853,
        0.0153872175142169
      ],
      [
        -0.23721714317798615,
        0.34580206871032715,
        -0.05933929234743118
      ],
      [
        0.04213965684175491,
        0.41381508111953735,
        -0.04124675318598747
      ],
      [
        -0.0619216114282608,
        0.45756569504737854,
        -0.09345269948244095
      ],
      [
        -0.30936089158058167,
        0.5732232332229614,
        -0.11935422569513321
      ],
      [
        0.6023116707801819,
        0.19358475506305695,
        0.5095010995864868
      ],
      [
        -1.0647757053375244,
        -0.21511822938919067,
        0.3209937810897827
      ],
      [
        -0.8337368369102478,
        -0.3347710967063904,
        0.5717396140098572
      ],
      [
        0.13762253522872925,
        0.379308819770813,
        0.6527398228645325
      ],
      [
        -0.19950193166732788,
        0.48855313658714294,
        -0.1209961399435997
      ],
      [
        0.6597241759300232,
        0.15052828192710876,
        0.4336451292037964
      ],
      [
        -0.6618260741233826,
        0.18084725737571716,
        0.19210995733737946
      ],
      [
        -0.10144025832414627,
        0.4721692204475403,
        -0.1447538137435913
      ],
      [
        -0.6599395871162415,
        0.24058325588703156,
        0.07336538285017014
      ],
      [
        0.005075190681964159,
        0.3399956226348877,
        -0.06087970733642578
      ],
      [
        0.07561682909727097,
        0.15582728385925293,
        0.5995198488235474
      ],
      [
        -0.3230375647544861,
        -0.5765025019645691,
        0.09510695934295654
      ],
      [
        -0.6378344297409058,
        0.22458305954933167,
        0.016596253961324692
      ],
      [
        0.5097319483757019,
        -0.02585485950112343,
        -0.1460927426815033
      ],
      [
        0.5301996469497681,
        -0.1143127828836441,
        -0.14267824590206146
      ],
      [
        0.5645294785499573,
        -0.2156679779291153,
        -0.24074023962020874
      ],
      [
        -0.7132179737091064,
        -0.47268736362457275,
        0.28315600752830505
      ],
      [
        0.24775438010692596,
        -0.8874397277832031,
        0.1368539035320282
      ],
      [
        0.6452828645706177,
        0.12567155063152313,
        0.5072778463363647
      ],
      [
        -0.2969623804092407,
        -0.566309928894043,
        0.22840560972690582
      ],
      [
        -0.3707248270511627,
        -0.36688441038131714,
        0.37570831179618835
      ],
      [
        0.5697709918022156,
        -0.16606934368610382,
        -0.2291087508201599
      ],
      [
        -0.8820032477378845,
        -0.30476611852645874,
        0.45026037096977234
      ],
      [
        -0.24493525922298431,
        0.5115140080451965,
        -0.16829803586006165
      ],
      [
        -0.8112505674362183,
        -0.4405929148197174,
        0.3806765675544739
      ],
      [
        -0.5483300685882568,
        -0.5014271140098572,
        0.556858241558075
      ],
      [
        -0.676767110824585,
        0.3810708224773407,
        0.010888036340475082
      ],
      [
        0.6254071593284607,
        0.18692004680633545,
        0.4279615879058838
      ],
      [
        0.5114080309867859,
        -0.1271267980337143,
        -0.22166623175144196
      ],
      [
        -0.9493565559387207,
        -0.27274417877197266,
        0.4693709909915924
      ],
      [
        -0.30605611205101013,
        -0.5715647339820862,
        0.23335511982440948
      ],
      [
        0.16376152634620667,
        -0.9095264673233032,
        0.26283642649650574
      ],
      [
        -0.24374347925186157,
        -0.5452039241790771,
        0.07181072980165482
      ],
      [
        -0.21424908936023712,
        0.5484796762466431,
        0.0331619530916214
      ],
      [
        -0.572106659412384,
        0.24031096696853638,
        0.03469650074839592
      ],
      [
        0.6134751439094543,
        0.07809074968099594,
        0.4610064923763275
      ],
      [
        -0.6047677993774414,
        0.41647589206695557,
        0.13020603358745575
      ],
      [
        -0.07031376659870148,
        0.31529301404953003,
        0.3902251124382019
      ],
      [
        -0.9149430394172668,
        -0.5671603679656982,
        0.45236679911613464
      ],
      [
        -0.36893194913864136,
        -0.5435137748718262,
        0.19103631377220154
      ],
      [
        0.030903410166502,
        0.003750554285943508,
        0.5333439707756042
      ],
      [
        -1.0349239110946655,
        -0.24376653134822845,
        0.34918412566185
      ],
      [
        0.6157084703445435,
        0.030447179451584816,
        0.4611063599586487
      ],
      [
        0.11274758726358414,
        0.3668064475059509,
        0.29824748635292053
      ],
      [
        -0.09782245755195618,
        0.30130451917648315,
        -0.05255252122879028
      ],
      [
        0.14342212677001953,
        0.2359590232372284,
        0.5585248470306396
      ],
      [
        -0.9601418972015381,
        -0.3566412627696991,
        0.3607184886932373
      ],
      [
        -0.45198336243629456,
        -0.3966314196586609,
        0.09787436574697495
      ],
      [
        -0.7185326218605042,
        0.3780510723590851,
        0.008116223849356174
      ],
      [
        -0.5583844780921936,
        -0.4519236981868744,
        0.12388807535171509
      ],
      [
        -0.8444126844406128,
        -0.4466487765312195,
        0.25079020857810974
      ],
      [
        -0.1288709193468094,
        0.4194219410419464,
        -0.15559624135494232
      ],
      [
        -0.4734439551830292,
        -0.5980393886566162,
        0.5133026242256165
      ],
      [
        -0.539515495300293,
        0.3496280312538147,
        -0.07864793390035629
      ],
      [
        -0.39465415477752686,
        -0.4666860103607178,
        0.23885568976402283
      ],
      [
        -0.8307284116744995,
        -0.3210287392139435,
        0.29487767815589905
      ],
      [
        0.5991092324256897,
        -0.12598969042301178,
        -0.22749091684818268
      ],
      [
        -0.06987996399402618,
        0.454539030790329,
        -0.22127723693847656
      ],
      [
        0.5838807821273804,
        -0.04888387769460678,
        -0.10930046439170837
      ],
      [
        -0.9154264330863953,
        -0.5486766695976257,
        0.5198076367378235
      ],
      [
        -0.28275060653686523,
        -0.6999378800392151,
        0.3091667890548706
      ],
      [
        0.05451688915491104,
        -0.6897191405296326,
        -0.013856888748705387
      ],
      [
        -0.24098461866378784,
        -0.6392929553985596,
        0.24698778986930847
      ],
      [
        -0.10582488030195236,
        -0.7030905485153198,
        0.07368405908346176
      ],
      [
        0.056391969323158264,
        -0.8244525790214539,
        -0.20988695323467255
      ],
      [
        -0.027540700510144234,
        0.1211446225643158,
        0.5562241077423096
      ],
      [
        0.011137349531054497,
        -0.7091812491416931,
        0.027147885411977768
      ],
      [
        -0.5438007712364197,
        -0.2934102714061737,
        0.1411200910806656
      ],
      [
        0.6953104734420776,
        0.03697657957673073,
        0.3310893177986145
      ],
      [
        0.5758258104324341,
        -0.1442319005727768,
        -0.16517779231071472
      ],
      [
        0.43598252534866333,
        -0.22104109823703766,
        -0.3213961124420166
      ],
      [
        -0.6489583849906921,
        0.4134707748889923,
        0.06748949736356735
      ],
      [
        -0.8786379098892212,
        -0.4051657021045685,
        0.3156873285770416
      ],
      [
        -0.036460697650909424,
        0.285810261964798,
        0.5609420537948608
      ],
      [
        -0.8554151654243469,
        0.33787816762924194,
        -0.01922755129635334
      ],
      [
        0.6399697065353394,
        0.13297352194786072,
        0.5336539149284363
      ],
      [
        0.5775443315505981,
        0.1444622278213501,
        0.30888909101486206
      ],
      [
        0.5361929535865784,
        0.11077024787664413,
        0.30980953574180603
      ],
      [
        -0.23433387279510498,
        0.5229815244674683,
        -0.18691600859165192
      ],
      [
        -0.2669071555137634,
        -0.6815158724784851,
        -0.03289545327425003
      ],
      [
        0.19317138195037842,
        -0.6339765191078186,
        -0.0501837357878685
      ],
      [
        0.5021288394927979,
        0.1864168792963028,
        0.4206041693687439
      ],
      [
        0.6262157559394836,
        -0.055986903607845306,
        0.3853236734867096
      ],
      [
        0.6226885318756104,
        -0.016348589211702347,
        -0.19802026450634003
      ],
      [
        0.29236921668052673,
        0.1540040522813797,
        0.4772857129573822
      ],
      [
        0.26442089676856995,
        -0.7100024223327637,
        -0.044960856437683105
      ],
      [
        0.6334647536277771,
        0.15767446160316467,
        0.3896807134151459
      ],
      [
        -0.08068370819091797,
        -0.6470500826835632,
        0.07553915679454803
      ],
      [
        -0.04506482183933258,
        0.4867272675037384,
        -0.09692928940057755
      ],
      [
        -0.29052647948265076,
        0.22305871546268463,
        0.6440326571464539
      ],
      [
        -0.7699689269065857,
        0.3989855945110321,
        0.011035129427909851
      ],
      [
        0.6483814716339111,
        -0.021855082362890244,
        -0.35655516386032104
      ],
      [
        0.6077948212623596,
        0.11499979346990585,
        0.4742249548435211
      ],
      [
        -0.4909650981426239,
        -0.42128580808639526,
        0.18957863748073578
      ],
      [
        -0.5250271558761597,
        -0.4808267056941986,
        0.0747980996966362
      ],
      [
        -0.5804785490036011,
        0.360868364572525,
        -0.03694884851574898
      ],
      [
        0.5380523800849915,
        -0.16548793017864227,
        -0.14392384886741638
      ],
      [
        -0.13124744594097137,
        0.4211117923259735,
        -0.14897331595420837
      ],
      [
        -0.5978329181671143,
        0.3957352340221405,
        0.04442150145769119
      ],
      [
        0.6432572603225708,
        -0.08919303864240646,
        -0.20153863728046417
      ],
      [
        0.6142386198043823,
        -0.23565800487995148,
        -0.29046565294265747
      ],
      [
        0.5799035429954529,
        -0.2672545313835144,
        -0.15965066850185394
      ],
      [
        0.04004856199026108,
        -0.7992238998413086,
        -0.045466069132089615
      ],
      [
        -0.6991464495658875,
        0.42426249384880066,
        0.0439317561686039
      ],
      [
        -0.07733087986707687,
        0.5128079056739807,
        -0.061273057013750076
      ],
      [
        -0.6828993558883667,
        0.24203729629516602,
        0.014839406125247478
      ],
      [
        0.14391781389713287,
        0.07102332264184952,
        0.38537099957466125
      ],
      [
        -0.6670405864715576,
        0.1900957226753235,
        -0.0017462465912103653
      ],
      [
        -0.4307594895362854,
        0.5077182650566101,
        -0.13856273889541626
      ],
      [
        0.5864211916923523,
        0.30147653818130493,
        0.5801016092300415
      ],
      [
        0.12117267400026321,
        -0.7357833981513977,
        -0.05069424584507942
      ],
      [
        0.060035765171051025,
        0.5283941626548767,
        -0.13580067455768585
      ],
      [
        -0.3496008515357971,
        0.19121013581752777,
        0.5743663907051086
      ],
      [
        -0.8475267887115479,
        -0.46616509556770325,
        0.21561847627162933
      ],
      [
        -0.8518779277801514,
        -0.5475959777832031,
        0.3972284495830536
      ],
      [
        0.5993080735206604,
        -0.1923726350069046,
        -0.2231491059064865
      ],
      [
        -0.17844171822071075,
        0.4264748692512512,
        -0.12806250154972076
      ],
      [
        0.6288825273513794,
        -0.21660543978214264,
        -0.21122950315475464
      ],
      [
        0.12909606099128723,
        0.07873561233282089,
        0.5805712342262268
      ],
      [
        0.5973283052444458,
        -0.014619877561926842,
        -0.18502552807331085
      ],
      [
        -0.08846361190080643,
        0.11266738176345825,
        0.4609859585762024
      ],
      [
        -0.45846158266067505,
        0.38198602199554443,
        0.057392071932554245
      ],
      [
        -0.7312671542167664,
        0.311281681060791,
        0.022640524432063103
      ],
      [
        -0.6613557934761047,
        -0.6122345328330994,
        0.3806988000869751
      ],
      [
        0.06146237254142761,
        -0.7795451283454895,
        0.027701454237103462
      ],
      [
        -0.38600561022758484,
        -0.3158312737941742,
        0.2428291141986847
      ],
      [
        0.6017794609069824,
        0.1131981685757637,
        0.3571391701698303
      ],
      [
        -0.7787685990333557,
        -0.29755106568336487,
        0.4869607090950012
      ],
      [
        -0.6670546531677246,
        0.2645737826824188,
        0.11817168444395065
      ],
      [
        -0.15940217673778534,
        0.4140641987323761,
        -0.16795453429222107
      ],
      [
        0.5804846286773682,
        -0.20325098931789398,
        -0.17198678851127625
      ],
      [
        0.17868950963020325,
        -0.7888850569725037,
        -0.057466551661491394
      ],
      [
        0.5460960865020752,
        -0.07154771685600281,
        -0.16560477018356323
      ],
      [
        0.623165488243103,
        -0.28898873925209045,
        -0.16225576400756836
      ],
      [
        -0.8942102789878845,
        -0.20220807194709778,
        0.28013667464256287
      ],
      [
        -0.42748549580574036,
        -0.5356495976448059,
        0.2221938669681549
      ],
      [
        0.5348013043403625,
        -0.16070781648159027,
        -0.20057033002376556
      ],
      [
        -0.38413506746292114,
        -0.5807178020477295,
        0.19044718146324158
      ],
      [
        0.5196824073791504,
        0.14872200787067413,
        0.409641295671463
      ],
      [
        0.6682161688804626,
        0.20065440237522125,
        0.5653329491615295
      ],
      [
        -0.018206778913736343,
        -0.818430483341217,
        -0.031760819256305695
      ],
      [
        0.5842172503471375,
        -0.220119446516037,
        -0.1391562670469284
      ],
      [
        0.6151659488677979,
        -0.002719008596614003,
        -0.183742493391037
      ],
      [
        0.317705363035202,
        -0.7092277407646179,
        0.027717968448996544
      ],
      [
        0.6434282064437866,
        0.11579957604408264,
        0.3244146704673767
      ],
      [
        -0.2909659743309021,
        0.5391156673431396,
        -0.09405594319105148
      ],
      [
        -0.8034712672233582,
        -0.4830764830112457,
        0.5729615092277527
      ],
      [
        -0.2737857401371002,
        -0.7825988531112671,
        0.07900916039943695
      ],
      [
        0.13898508250713348,
        -0.9212602972984314,
        0.20202945172786713
      ],
      [
        0.5142401456832886,
        -0.18192161619663239,
        -0.36422938108444214
      ],
      [
        -0.5496419668197632,
        -0.374024897813797,
        -0.006341150496155024
      ],
      [
        0.0395357720553875,
        0.37580186128616333,
        0.6866338849067688
      ],
      [
        0.6369836330413818,
        0.14302757382392883,
        0.43187880516052246
      ],
      [
        -0.6479130983352661,
        0.28989216685295105,
        -0.06612260639667511
      ],
      [
        0.2862577438354492,
        0.14226943254470825,
        0.5280638933181763
      ],
      [
        -0.15011246502399445,
        0.48780909180641174,
        -0.10891196131706238
      ],
      [
        0.6062864661216736,
        0.12286725640296936,
        0.31149211525917053
      ],
      [
        -0.8882253766059875,
        -0.4088493585586548,
        0.3040715157985687
      ],
      [
        0.1474803388118744,
        0.34082889556884766,
        0.5540746450424194
      ],
      [
        0.18811525404453278,
        -0.8349677920341492,
        0.21643541753292084
      ],
      [
        -0.005236286204308271,
        0.3516254127025604,
        0.4883584678173065
      ],
      [
        0.46355971693992615,
        -0.2503088414669037,
        -0.21319404244422913
      ],
      [
        -0.007700381334871054,
        0.2916303277015686,
        -0.08792173117399216
      ],
      [
        -0.18280209600925446,
        -0.6290521621704102,
        0.09064418822526932
      ],
      [
        -0.7806677222251892,
        -0.25498348474502563,
        0.3239308297634125
      ],
      [
        0.5249695777893066,
        0.1590334177017212,
        0.35270828008651733
      ],
      [
        0.5196106433868408,
        0.12421057373285294,
        0.3121434450149536
      ],
      [
        -0.044807836413383484,
        0.23548229038715363,
        0.4762534201145172
      ],
      [
        -0.2566305994987488,
        0.4273737967014313,
        -0.14380352199077606
      ],
      [
        -0.7293933033943176,
        0.25726795196533203,
        0.06326208263635635
      ],
      [
        -0.5309966802597046,
        -0.5324134230613708,
        0.15305858850479126
      ],
      [
        -0.19897928833961487,
        0.48371878266334534,
        -0.04395229369401932
      ],
      [
        -0.7216378450393677,
        0.14696091413497925,
        -0.055159445852041245
      ],
      [
        -0.3573199510574341,
        -0.5440609455108643,
        0.1012038066983223
      ],
      [
        -0.41553249955177307,
        -0.48546475172042847,
        0.22242124378681183
      ],
      [
        0.5364804863929749,
        -0.10381510853767395,
        -0.1777331680059433
      ],
      [
        0.6080735921859741,
        0.1420821100473404,
        0.42506036162376404
      ],
      [
        0.4931074380874634,
        -0.027385462075471878,
        -0.26300957798957825
      ],
      [
        -0.5862205028533936,
        -0.37816014885902405,
        0.18107545375823975
      ],
      [
        0.6658373475074768,
        0.07313308119773865,
        0.4119134545326233
      ],
      [
        -0.03672143444418907,
        0.4648309648036957,
        -0.10614316165447235
      ],
      [
        0.47702696919441223,
        0.23763388395309448,
        0.5153230428695679
      ],
      [
        -0.16862761974334717,
        0.2793683707714081,
        -0.1695815473794937
      ],
      [
        0.28327658772468567,
        -0.8213492631912231,
        0.1736387312412262
      ],
      [
        0.10542794317007065,
        0.22383816540241241,
        0.7590183615684509
      ],
      [
        0.5879969000816345,
        -0.2526130974292755,
        -0.2781812846660614
      ],
      [
        0.5697057247161865,
        -0.21427175402641296,
        -0.2624285817146301
      ],
      [
        0.6695055365562439,
        0.15815815329551697,
        0.7499800324440002
      ],
      [
        0.06115516275167465,
        0.3468475937843323,
        0.48912525177001953
      ],
      [
        -0.5011270046234131,
        -0.4036732316017151,
        0.31268244981765747
      ],
      [
        -0.35986262559890747,
        -0.49298709630966187,
        0.24264472723007202
      ],
      [
        0.5638172626495361,
        -0.21535244584083557,
        -0.2256641983985901
      ],
      [
        -0.061905574053525925,
        -0.7072302103042603,
        -0.15197452902793884
      ],
      [
        -0.33340272307395935,
        -0.6417083144187927,
        -0.24660247564315796
      ],
      [
        -0.5560230016708374,
        0.2152894288301468,
        -0.02767973765730858
      ],
      [
        0.11071547120809555,
        0.1368693709373474,
        0.4209907352924347
      ],
      [
        -0.16783173382282257,
        0.583560585975647,
        -0.05851741135120392
      ],
      [
        -0.7788165807723999,
        -0.3687897324562073,
        0.5146504640579224
      ],
      [
        -0.10035590082406998,
        0.30312544107437134,
        0.7133418917655945
      ],
      [
        -0.16943992674350739,
        0.45242103934288025,
        0.032006047666072845
      ],
      [
        0.5027999877929688,
        -0.13614964485168457,
        -0.21613264083862305
      ],
      [
        -0.6969359517097473,
        0.3738483786582947,
        -0.06215190142393112
      ],
      [
        0.15013165771961212,
        0.014151307754218578,
        0.3330586552619934
      ],
      [
        -0.4269509017467499,
        -0.5385943055152893,
        0.11367826163768768
      ],
      [
        -0.1598615199327469,
        -0.5744515657424927,
        0.22178435325622559
      ],
      [
        0.6617622971534729,
        0.15587118268013,
        0.46291762590408325
      ],
      [
        -0.7234710454940796,
        -0.4190722405910492,
        0.24841612577438354
      ],
      [
        -0.20979082584381104,
        -0.6341040730476379,
        0.1102038025856018
      ],
      [
        -0.3992224931716919,
        -0.7103597521781921,
        -0.027433203533291817
      ]
    ]
  },
  "singular_values": [
    81.50301361083984,
    45.489925384521484,
    27.376523971557617
  ]
}
