{
  "basis": [
    [
      0.34211787581443787,
      -0.17021045088768005,
      0.23191437125205994,
      -0.20354411005973816,
      -0.31647828221321106,
      -0.18783053755760193,
      0.2717210650444031,
      0.14597485959529877,
      0.21580739319324493,
      -0.22158695757389069,
      -0.21446828544139862,
      0.04513423517346382,
      -7.456768798874691e-05,
      -0.10346978902816772,
      0.04033401608467102,
      -0.10328882187604904,
      0.18489862978458405,
      0.3973159193992615,
      -0.1218334436416626,
      -0.1752551645040512,
      0.105439692735672,
      -0.2724789083003998,
      -0.1953321099281311,
      0.01893598772585392
    ],
    [
      -0.1430060863494873,
      0.09246105700731277,
      0.5090609788894653,
      0.37104567885398865,
      -0.33358335494995117,
      0.030018292367458344,
      0.1971534639596939,
      0.08992932736873627,
      -0.007939106784760952,
      -0.0738605409860611,
      0.2758062779903412,
      0.2573130130767822,
      0.004638322163373232,
      0.26876479387283325,
      -0.0874740406870842,
      0.10406365245580673,
      0.14586803317070007,
      -0.17725849151611328,
      -0.17412181198596954,
      -0.15064910054206848,
      -0.1819038838148117,
      0.1896296739578247,
      0.010621549561619759,
      -0.0404866561293602
    ],
    [
      -0.21845881640911102,
      0.16961140930652618,
      0.21915893256664276,
      -0.09485744684934616,
      0.13989901542663574,
      -0.017489559948444366,
      -0.12492693215608597,
      -0.13546372950077057,
      -0.08273015916347504,
      0.0038142018020153046,
      -0.026153985410928726,
      0.3283882439136505,
      0.023843998089432716,
      -0.35580605268478394,
      0.17975544929504395,
      -0.1458069533109665,
      0.2831924259662628,
      -0.18591278791427612,
      0.10854518413543701,
      0.08163473010063171,
      -0.2931920289993286,
      -0.3739687502384186,
      -0.19903403520584106,
      0.3433481454849243
    ],
    [
      0.127754807472229,
      -0.3211045265197754,
      0.1628694236278534,
      0.07069194316864014,
      -0.05917872115969658,
      -0.26026058197021484,
      -0.07646584510803223,
      0.21701815724372864,
      -0.27171680331230164,
      -0.1465606540441513,
      0.06405061483383179,
      0.07014434039592743,
      -0.3115899860858917,
      0.04382004961371422,
      -0.35577404499053955,
      -0.18266668915748596,
      -0.23874515295028687,
      -0.13154517114162445,
      0.19348932802677155,
      0.36125317215919495,
      0.03721719980239868,
      -0.19328215718269348,
      0.2073488086462021,
      0.1939062476158142
    ],
    [
      -0.3101564943790436,
      -0.06090989336371422,
      0.18722933530807495,
      -0.08775392174720764,
      0.10258448123931885,
      -0.014886525459587574,
      -0.1130242869257927,
      -0.1485327035188675,
      0.14780128002166748,
      0.10179775208234787,
      -0.49635621905326843,
      0.08043553680181503,
      -0.3817392587661743,
      0.46557173132896423,
      0.0047861868515610695,
      0.16583958268165588,
      -0.20085525512695312,
      0.04619205743074417,
      0.10629509389400482,
      -0.2330864518880844,
      -0.021162353456020355,
      -0.1431906670331955,
      -0.07990922778844833,
      0.03548790514469147
    ],
    [
      -0.34506285190582275,
      -0.18685831129550934,
      -0.15770477056503296,
      0.030050816014409065,
      -0.008673976175487041,
      0.00808143150061369,
      -0.2593878507614136,
      0.23711949586868286,
      -0.007078309077769518,
      -0.2984885275363922,
      0.1563931256532669,
      -0.27028149366378784,
      -0.2892788052558899,
      0.04561781510710716,
      0.04724978655576706,
      0.034232452511787415,
      0.2896212637424469,
      0.0969943031668663,
      -0.2434156984090805,
      0.07947847992181778,
      0.10215302556753159,
      0.18377935886383057,
      -0.39903441071510315,
      0.24181506037712097
    ],
    [
      -0.28207021951675415,
      -0.033583737909793854,
      -0.011186515912413597,
      -0.05531780794262886,
      0.03216317668557167,
      0.027051102370023727,
      0.29842978715896606,
      -0.13522133231163025,
      -0.13709938526153564,
      0.027428150177001953,
      -0.010382230393588543,
      -0.27594441175460815,
      0.3158075511455536,
      0.02293199859559536,
      -0.48551973700523376,
      -0.12394550442695618,
      -0.1642397940158844,
      0.32063016295433044,
      -0.00171136565040797,
      -0.061160579323768616,
      -0.3771079182624817,
      0.023221619427204132,
      -0.12437838315963745,
      0.2609914541244507
    ],
    [
      -0.020086970180273056,
      0.46093064546585083,
      -0.06827738136053085,
      0.055527277290821075,
      -0.05539180710911751,
      0.02817891538143158,
      0.06786846369504929,
      -0.2033032476902008,
      -0.21576246619224548,
      -0.16902154684066772,
      -0.33979344367980957,
      0.2873625159263611,
      -0.10834942758083344,
      -0.07268492877483368,
      -0.2989674508571625,
      -0.20759661495685577,
      0.05759487301111221,
      0.07186037302017212,
      -0.13960477709770203,
      0.11472601443529129,
      0.4220808148384094,
      0.27984070777893066,
      -0.06169315055012703,
      0.0743834599852562
    ]
  ],
  "delta_mean": [
    [
      -0.04590534791350365,
      -0.019267713651061058,
      0.014682990498840809,
      0.03837905824184418,
      0.02022736333310604,
      -0.008804796263575554,
      -0.029888829216361046,
      0.011508098803460598,
      -0.049679890275001526,
      0.0014458317309617996,
      0.04590531438589096,
      0.006653397809714079,
      -0.010489310137927532,
      -0.0017890240997076035,
      -0.04032043740153313,
      -0.005961974151432514,
      -0.009271916933357716,
      -0.0759529322385788,
      0.02251540683209896,
      0.04141588509082794,
      -0.04890890046954155,
      0.011612712405622005,
      0.012707419693470001,
      0.04212108999490738
    ]
  ],
  "linear_bias": [
    -0.8579592704772949,
    0.6817772388458252,
    -0.44302740693092346,
    -0.31602126359939575,
    -0.2299415022134781,
    0.08432520180940628,
    -0.12937600910663605,
    0.1524921953678131
  ],
  "linear_weight": [
    [
      -0.3449295163154602,
      -0.2627745270729065,
      0.08920799940824509,
      -0.36027899384498596,
      0.5475136041641235,
      0.05071575939655304,
      0.1640016883611679,
      -0.5670000910758972,
      -0.41781920194625854,
      0.5425738096237183,
      0.6227016448974609,
      1.2114593982696533,
      -0.9802454113960266,
      0.26323696970939636,
      0.9798131585121155,
      1.0205068588256836,
      -0.6803618669509888,
      0.3861882984638214,
      0.474017471075058,
      0.9711365103721619,
      -0.13337789475917816,
      1.2375094890594482,
      -1.0063375234603882,
      -0.7686446905136108,
      0.0,
      -0.07403618842363358,
      0.11057547479867935,
      -0.06183459982275963,
      -0.03862587362527847,
      0.05814702808856964,
      0.02927102893590927,
      -0.12496206909418106,
      0.10146519541740417,
      0.0,
      0.0,
      0.0,
      0.10146519541740417,
      -0.07403618842363358,
      0.11057547479867935,
      -0.06183459982275963,
      -0.03862587362527847,
      0.05814702808856964,
      0.02927102893590927,
      -0.12496206909418106
    ],
    [
      -0.5490615367889404,
      -0.6231496334075928,
      -0.8334290981292725,
      -1.2605642080307007,
      0.3158220946788788,
      -0.30100753903388977,
      0.0967022180557251,
      -0.42593857645988464,
      1.1651939153671265,
      -0.3138243854045868,
      0.06719361990690231,
      -0.10498899966478348,
      0.044358618557453156,
      -0.42930781841278076,
      -0.5892670154571533,
      -0.3416983187198639,
      -0.4918634295463562,
      -0.2224120795726776,
      0.2733115255832672,
      -0.07473983615636826,
      -0.07237735390663147,
      0.6016200184822083,
      -0.0688893049955368,
      0.5876943469047546,
      0.0,
      -0.018590714782476425,
      0.07923257350921631,
      0.0023468248546123505,
      0.004978231154382229,
      -0.011558214202523232,
      -0.04206748679280281,
      0.028531912714242935,
      -0.04287312552332878,
      0.0,
      0.0,
      0.0,
      -0.04287312552332878,
      -0.018590714782476425,
      0.07923257350921631,
      0.0023468248546123505,
      0.004978231154382229,
      -0.011558214202523232,
      -0.04206748679280281,
      0.028531912714242935
    ],
    [
      0.007722044829279184,
      0.3672954738140106,
      -0.01236402615904808,
      0.23960955440998077,
      -0.20055583119392395,
      0.08054383099079132,
      -0.34523189067840576,
      0.596846878528595,
      -0.4452727735042572,
      -0.04148741066455841,
      0.03914053365588188,
      -0.4438090920448303,
      0.262192964553833,
      0.7282223105430603,
      0.4686369001865387,
      0.09072288125753403,
      -0.20106711983680725,
      0.3082459270954132,
      -0.22858768701553345,
      -0.34897899627685547,
      1.0307382345199585,
      0.02825143188238144,
      0.5362092852592468,
      -0.5241360664367676,
      0.0,
      -0.03139093890786171,
      -0.03968483582139015,
      -0.0009775080252438784,
      0.007526844274252653,
      0.03115447610616684,
      0.02030673623085022,
      0.011167248710989952,
      0.0018979781307280064,
      0.0,
      0.0,
      0.0,
      0.0018979781307280064,
      -0.03139093890786171,
      -0.03968483582139015,
      -0.0009775080252438784,
      0.007526844274252653,
      0.03115447610616684,
      0.02030673623085022,
      0.011167248710989952
    ],
    [
      0.12423828989267349,
      0.3165428936481476,
      -0.044876664876937866,
      -0.22674553096294403,
      -0.09894207864999771,
      -0.19214721024036407,
      -0.395168274641037,
      0.06414549797773361,
      0.12323310971260071,
      0.08592323213815689,
      -0.012519730255007744,
      -0.3731684684753418,
      0.48122844099998474,
      -0.02419133484363556,
      0.7835358381271362,
      -0.09168316423892975,
      0.40460798144340515,
      -0.15492556989192963,
      -0.11108565330505371,
      -0.5862334370613098,
      -0.04073941335082054,
      0.48140770196914673,
      -0.6105522513389587,
      -0.2761886715888977,
      0.0,
      0.012427883222699165,
      0.03408035635948181,
      0.051916155964136124,
      -0.0014844500692561269,
      -0.032428015023469925,
      -0.0204955842345953,
      -0.007055013440549374,
      -0.036961331963539124,
      0.0,
      0.0,
      0.0,
      -0.036961331963539124,
      0.012427883222699165,
      0.03408035635948181,
      0.051916155964136124,
      -0.0014844500692561269,
      -0.032428015023469925,
      -0.0204955842345953,
      -0.007055013440549374
    ],
    [
      -0.013684382662177086,
      -0.00534850312396884,
      -0.05479743331670761,
      0.10776875168085098,
      -0.21184739470481873,
      -0.25205495953559875,
      0.15209415555000305,
      0.35424163937568665,
      -0.04383057355880737,
      0.05018105357885361,
      0.6641188263893127,
      0.2709903120994568,
      0.08379343897104263,
      -0.29261156916618347,
      0.5252912044525146,
      -0.06069859862327576,
      0.11468309909105301,
      0.24242067337036133,
      0.1489335596561432,
      0.40743133425712585,
      0.24232248961925507,
      0.3479076325893402,
      -0.15693813562393188,
      -0.24553926289081573,
      0.0,
      0.015911148861050606,
      -0.016216078773140907,
      -0.019845355302095413,
      0.058270830661058426,
      0.058051034808158875,
      -0.025295261293649673,
      -0.00564134307205677,
      -0.06523498147726059,
      0.0,
      0.0,
      0.0,
      -0.06523498147726059,
      0.015911148861050606,
      -0.016216078773140907,
      -0.019845355302095413,
      0.058270830661058426,
      0.058051034808158875,
      -0.025295261293649673,
      -0.00564134307205677
    ],
    [
      -0.007207722403109074,
      -0.06997282803058624,
      0.016395702958106995,
      -0.059665583074092865,
      -0.7275252938270569,
      -0.3138033151626587,
      0.3983100652694702,
      -0.14108672738075256,
      -0.23344837129116058,
      0.7588585019111633,
      -0.4910520911216736,
      0.19204361736774445,
      0.4797717034816742,
      -0.2431955486536026,
      0.2285613715648651,
      -0.042265020310878754,
      -0.48634105920791626,
      -0.16642507910728455,
      0.5244510769844055,
      0.1319926679134369,
      -0.051526304334402084,
      0.08494652062654495,
      -0.051245179027318954,
      -0.43010520935058594,
      0.0,
      -0.01041358057409525,
      0.016764089465141296,
      -0.0026729097589850426,
      0.01137770526111126,
      0.0020770984701812267,
      0.008468310348689556,
      -0.009901180863380432,
      -0.015699531883001328,
      0.0,
      0.0,
      0.0,
      -0.015699531883001328,
      -0.01041358057409525,
      0.016764089465141296,
      -0.0026729097589850426,
      0.01137770526111126,
      0.0020770984701812267,
      0.008468310348689556,
      -0.009901180863380432
    ],
    [
      0.048888593912124634,
      -0.3313271999359131,
      0.02588590793311596,
      -0.18133558332920074,
      -0.2488633543252945,
      -0.1775822937488556,
      -0.15835481882095337,
      0.3167332708835602,
      0.10907813906669617,
      0.24374985694885254,
      -0.19691775739192963,
      0.3262478709220886,
      -0.17140433192253113,
      -0.41861096024513245,
      0.20787844061851501,
      0.2763752341270447,
      0.037462737411260605,
      -0.6039423942565918,
      0.2422759085893631,
      -0.33489349484443665,
      0.5640161037445068,
      0.26866090297698975,
      0.08245863020420074,
      -0.2516404390335083,
      0.0,
      0.007064036093652248,
      0.008282624185085297,
      -0.0029563261196017265,
      -0.002046638634055853,
      -0.013043485581874847,
      -0.019732655957341194,
      0.013989842496812344,
      0.008442603051662445,
      0.0,
      0.0,
      0.0,
      0.008442603051662445,
      0.007064036093652248,
      0.008282624185085297,
      -0.0029563261196017265,
      -0.002046638634055853,
      -0.013043485581874847,
      -0.019732655957341194,
      0.013989842496812344
    ],
    [
      -0.026387320831418037,
      -0.5450320839881897,
      -0.10033669322729111,
      0.16637367010116577,
      0.5415995717048645,
      0.043970998376607895,
      0.2652858793735504,
      0.20492245256900787,
      0.19417637586593628,
      0.017396830022335052,
      0.10562647134065628,
      0.05038033798336983,
      -0.1344863772392273,
      -0.07717271149158478,
      -0.012539024464786053,
      0.40491247177124023,
      0.0352865606546402,
      -0.1859768033027649,
      0.09723304212093353,
      -0.18012170493602753,
      -0.38893502950668335,
      -0.1215960904955864,
      0.20013660192489624,
      -0.1097906231880188,
      0.0,
      -0.01658734679222107,
      -0.012905207462608814,
      0.02338555082678795,
      -0.0020331714767962694,
      -0.015162390656769276,
      0.018154975026845932,
      0.01754959300160408,
      -0.012402000837028027,
      0.0,
      0.0,
      0.0,
      -0.012402000837028027,
      -0.01658734679222107,
      -0.012905207462608814,
      0.02338555082678795,
      -0.0020331714767962694,
      -0.015162390656769276,
      0.018154975026845932,
      0.01754959300160408
    ]
  ],
  "mode": "frozen_neural_low_rank_equivalence",
  "rank": 8
}
